


    // !!! This file is generated using emlearn !!!

    #include <eml_trees.h>
    

static const EmlTreesNode danger_air_classification_nodes[4263] = {
  { 0, 176, 1, 6 },
  { 1, 36, 1, 2 },
  { 2, 32, -1, -2 },
  { 2, 29, -1, 1 },
  { 2, 31, 1, -2 },
  { 0, 169, -1, -2 },
  { 0, 202, 1, 18 },
  { 0, 190, 1, 8 },
  { 2, 30, 1, -2 },
  { 1, 41, 1, 4 },
  { 1, 35, 1, -1 },
  { 0, 187, -1, 1 },
  { 2, 23, -1, -2 },
  { 2, 29, -1, 1 },
  { 0, 188, -1, -2 },
  { 2, 29, -1, 1 },
  { 1, 41, 1, 2 },
  { 2, 75, -2, -3 },
  { 2, 75, 1, -3 },
  { 0, 198, -2, 1 },
  { 1, 43, 1, -2 },
  { 1, 42, -2, 1 },
  { 0, 199, 1, -2 },
  { 2, 39, -1, -2 },
  { 2, 31, -1, 1 },
  { 1, 42, 1, 2 },
  { 2, 74, -2, -3 },
  { 2, 100, -2, -3 },
  { 2, 29, -1, 1 },
  { 2, 76, 1, -3 },
  { 2, 30, 1, 8 },
  { 1, 37, -2, 1 },
  { 0, 188, 1, 4 },
  { 0, 171, -1, 1 },
  { 0, 179, 1, -1 },
  { 1, 40, -1, -2 },
  { 0, 198, -2, 1 },
  { 1, 43, -1, -2 },
  { 0, 197, -2, 1 },
  { 0, 198, 1, -2 },
  { 2, 71, -2, -3 },
  { 1, 41, 1, 50 },
  { 1, 38, 1, 15 },
  { 1, 35, 1, 4 },
  { 0, 184, 1, 2 },
  { 2, 28, -1, -2 },
  { 2, 29, -1, -2 },
  { 2, 30, 1, 4 },
  { 1, 37, 1, -1 },
  { 0, 187, -1, 1 },
  { 2, 29, -1, -2 },
  { 0, 191, -2, 1 },
  { 1, 37, 1, 4 },
  { 0, 206, 1, -2 },
  { 1, 36, -2, 1 },
  { 2, 73, -2, -3 },
  { 2, 67, -2, -3 },
  { 0, 197, 1, 22 },
  { 0, 173, 1, 2 },
  { 2, 31, -1, -2 },
  { 1, 40, 1, 15 },
  { 2, 31, 1, 7 },
  { 1, 39, -1, 1 },
  { 0, 177, 1, 3 },
  { 0, 175, -1, 1 },
  { 2, 20, -1, -2 },
  { 2, 29, -1, 1 },
  { 0, 188, -1, -2 },
  { 1, 39, 1, -2 },
  { 0, 196, 1, -3 },
  { 0, 191, -2, 1 },
  { 0, 192, 1, 2 },
  { 2, 74, -2, -3 },
  { 0, 195, 1, -2 },
  { 2, 74, -2, -3 },
  { 0, 192, 1, 3 },
  { 2, 29, -1, 1 },
  { 2, 70, -2, -3 },
  { 2, 34, -1, -2 },
  { 1, 40, 1, 10 },
  { 0, 199, 1, 4 },
  { 1, 39, 1, 2 },
  { 2, 28, -1, -2 },
  { 2, 32, -1, -2 },
  { 0, 208, 1, -2 },
  { 1, 39, 1, 3 },
  { 2, 120, 1, -3 },
  { 2, 28, -1, -2 },
  { 2, 78, -2, -3 },
  { 0, 203, -1, 1 },
  { 2, 33, -1, -2 },
  { 1, 42, 1, 7 },
  { 0, 177, 1, 2 },
  { 2, 35, -1, -2 },
  { 2, 29, -1, 1 },
  { 2, 84, 1, -3 },
  { 2, 30, 1, -2 },
  { 0, 188, -1, -2 },
  { 0, 198, 1, 5 },
  { 1, 47, 1, 3 },
  { 2, 30, -1, 1 },
  { 2, 74, -2, -3 },
  { 2, 24, -1, -2 },
  { 0, 212, 1, 24 },
  { 0, 202, 1, 9 },
  { 1, 43, 1, 7 },
  { 0, 200, 1, 3 },
  { 0, 199, 1, -2 },
  { 2, 39, -1, -2 },
  { 0, 201, 1, -3 },
  { 2, 66, 1, -3 },
  { 2, 42, -1, -2 },
  { 2, 26, -1, -2 },
  { 0, 203, 1, 2 },
  { 2, 30, -1, -2 },
  { 1, 47, 1, -2 },
  { 0, 204, 1, 2 },
  { 2, 34, -1, -2 },
  { 0, 205, 1, 2 },
  { 1, 46, -2, -1 },
  { 0, 208, 1, 4 },
  { 0, 206, 1, 2 },
  { 2, 37, -1, -2 },
  { 2, 78, -1, -3 },
  { 0, 210, -2, 1 },
  { 1, 43, -2, 1 },
  { 2, 42, -1, -2 },
  { 2, 77, -2, -3 },
  { 2, 30, 1, 15 },
  { 1, 47, 1, 12 },
  { 0, 188, -1, 1 },
  { 0, 190, 1, 7 },
  { 1, 41, -1, 1 },
  { 0, 189, 1, 3 },
  { 1, 43, 1, -1 },
  { 2, 24, -1, -2 },
  { 1, 42, 1, -1 },
  { 2, 28, -1, -2 },
  { 1, 39, 1, -1 },
  { 0, 200, -1, 1 },
  { 2, 27, -1, -2 },
  { 0, 182, -1, 1 },
  { 0, 196, -2, -1 },
  { 1, 38, 1, 9 },
  { 1, 37, 1, 7 },
  { 0, 198, 1, 3 },
  { 0, 191, -2, 1 },
  { 2, 69, -2, -3 },
  { 0, 202, -3, 1 },
  { 0, 206, 1, -2 },
  { 2, 65, -2, -3 },
  { 2, 81, -2, -3 },
  { 0, 190, -2, 1 },
  { 2, 75, -2, -3 },
  { 2, 29, -1, 1 },
  { 1, 49, 1, -3 },
  { 0, 190, 1, 16 },
  { 0, 177, 1, 8 },
  { 0, 176, 1, 4 },
  { 0, 166, -2, 1 },
  { 2, 31, 1, -2 },
  { 0, 171, -1, -2 },
  { 1, 38, -2, 1 },
  { 1, 41, -1, 1 },
  { 2, 30, -1, -2 },
  { 1, 41, 1, 5 },
  { 2, 75, 1, -3 },
  { 1, 36, 1, -2 },
  { 2, 33, 1, -2 },
  { 1, 35, -2, -1 },
  { 2, 31, 1, -2 },
  { 0, 188, -1, -2 },
  { 1, 43, 1, -2 },
  { 0, 212, 1, -2 },
  { 0, 196, 1, 3 },
  { 0, 195, 1, -2 },
  { 2, 75, -2, -3 },
  { 0, 198, 1, 2 },
  { 2, 74, -2, -3 },
  { 2, 76, 1, -3 },
  { 0, 199, 1, -2 },
  { 2, 31, -1, -2 },
  { 1, 40, 1, 42 },
  { 1, 38, 1, 27 },
  { 1, 35, 1, 8 },
  { 0, 178, 1, 2 },
  { 2, 35, -1, -2 },
  { 0, 186, 1, 4 },
  { 0, 184, -2, 1 },
  { 0, 185, 1, -2 },
  { 2, 30, -1, -2 },
  { 2, 29, -1, -2 },
  { 0, 183, 1, 3 },
  { 1, 36, -1, 1 },
  { 2, 30, -1, -2 },
  { 1, 37, 1, 13 },
  { 1, 36, 1, 3 },
  { 0, 188, 1, -2 },
  { 2, 40, -1, -2 },
  { 0, 198, 1, 6 },
  { 0, 188, 1, 3 },
  { 0, 185, -2, 1 },
  { 2, 29, -1, -2 },
  { 2, 32, -1, 1 },
  { 2, 73, -2, -3 },
  { 0, 202, 1, 2 },
  { 2, 49, -1, -3 },
  { 2, 73, -2, -3 },
  { 2, 29, -1, 1 },
  { 2, 80, -2, -3 },
  { 2, 30, 1, 10 },
  { 0, 200, 1, 6 },
  { 0, 195, 1, 4 },
  { 0, 177, 1, -1 },
  { 0, 176, -1, 1 },
  { 2, 25, -1, -1 },
  { 2, 27, -1, -2 },
  { 0, 206, 1, -1 },
  { 0, 202, -2, 1 },
  { 1, 39, -1, -2 },
  { 2, 75, -2, 1 },
  { 1, 39, 1, -3 },
  { 2, 76, 1, -3 },
  { 0, 189, -2, -3 },
  { 1, 49, 1, 20 },
  { 0, 202, 1, 17 },
  { 2, 29, -1, 1 },
  { 1, 42, 1, 7 },
  { 1, 41, 1, 3 },
  { 0, 190, -2, 1 },
  { 0, 191, -3, -2 },
  { 2, 110, 1, -3 },
  { 2, 30, 1, -2 },
  { 0, 169, -1, -2 },
  { 2, 77, 1, -3 },
  { 0, 197, 1, 5 },
  { 1, 46, -2, 1 },
  { 0, 176, 1, -2 },
  { 1, 47, 1, -2 },
  { 2, 36, -1, -2 },
  { 0, 198, 1, -2 },
  { 1, 43, -3, -2 },
  { 2, 31, -1, 1 },
  { 2, 79, -2, -3 },
  { 2, 46, -1, -3 },
  { 1, 39, 1, 8 },
  { 2, 29, -1, 1 },
  { 2, 75, 1, 5 },
  { 1, 37, -2, 1 },
  { 2, 30, 1, -2 },
  { 1, 38, -1, 1 },
  { 0, 187, -1, -2 },
  { 0, 189, -2, -3 },
  { 0, 188, 1, 11 },
  { 0, 177, 1, 2 },
  { 2, 31, -1, -2 },
  { 0, 179, 1, 7 },
  { 1, 41, 1, 3 },
  { 0, 178, 1, -1 },
  { 2, 20, -1, -2 },
  { 1, 42, -2, 1 },
  { 1, 43, 1, -2 },
  { 2, 34, -1, -2 },
  { 2, 32, -1, -2 },
  { 0, 208, 1, 34 },
  { 0, 196, 1, 14 },
  { 1, 42, 1, 4 },
  { 2, 29, -1, 1 },
  { 1, 41, -2, 1 },
  { 2, 114, -2, -3 },
  { 0, 191, 1, 6 },
  { 0, 190, 1, 2 },
  { 2, 47, -1, -2 },
  { 1, 46, 1, -2 },
  { 1, 44, 1, -1 },
  { 2, 38, -1, -2 },
  { 0, 193, -1, 1 },
  { 2, 32, -1, 1 },
  { 2, 75, -2, -3 },
  { 0, 199, 1, 4 },
  { 2, 29, -1, 1 },
  { 1, 43, 1, -2 },
  { 2, 74, -2, -3 },
  { 2, 29, -1, 1 },
  { 0, 205, 1, 7 },
  { 1, 43, 1, -2 },
  { 1, 42, 1, 4 },
  { 0, 203, -2, 1 },
  { 0, 204, 1, -2 },
  { 1, 41, -3, -2 },
  { 2, 81, -2, -3 },
  { 1, 42, 1, 6 },
  { 0, 206, 1, 2 },
  { 2, 106, -2, -3 },
  { 0, 207, 1, 2 },
  { 2, 81, -2, -3 },
  { 2, 97, -2, -3 },
  { 1, 43, -3, -2 },
  { 2, 29, -1, 1 },
  { 0, 226, 1, -3 },
  { 1, 40, 1, -2 },
  { 2, 119, -2, -3 },
  { 0, 184, 1, 13 },
  { 1, 43, 1, 11 },
  { 2, 30, 1, -2 },
  { 1, 35, 1, 3 },
  { 0, 161, 1, -1 },
  { 2, 26, -1, -2 },
  { 2, 29, -1, 1 },
  { 1, 41, 1, -1 },
  { 1, 39, 1, 2 },
  { 0, 172, -1, -1 },
  { 0, 173, -1, 1 },
  { 0, 178, -2, -1 },
  { 2, 31, -1, -2 },
  { 0, 202, 1, 15 },
  { 2, 29, -1, 1 },
  { 1, 42, 1, 10 },
  { 1, 39, 1, 7 },
  { 1, 38, 1, 3 },
  { 1, 37, 1, -2 },
  { 0, 198, -2, -3 },
  { 2, 75, -2, 1 },
  { 2, 76, 1, -3 },
  { 0, 189, -2, -3 },
  { 0, 186, 1, -2 },
  { 2, 35, -1, -2 },
  { 1, 43, 1, -2 },
  { 2, 73, 1, -3 },
  { 2, 30, -1, -2 },
  { 1, 41, 1, 9 },
  { 1, 38, 1, 3 },
  { 0, 206, 1, -2 },
  { 2, 47, -1, -3 },
  { 2, 76, 1, -3 },
  { 1, 39, -2, 1 },
  { 1, 40, 1, -2 },
  { 0, 207, 1, -2 },
  { 2, 30, -1, -2 },
  { 2, 29, -1, 1 },
  { 2, 89, -2, -3 },
  { 2, 30, 1, 17 },
  { 1, 35, 1, 5 },
  { 0, 187, 1, 3 },
  { 0, 161, 1, -1 },
  { 2, 26, -1, -2 },
  { 2, 29, -1, -2 },
  { 1, 42, 1, -1 },
  { 2, 29, -1, 1 },
  { 1, 38, 1, 3 },
  { 1, 37, 1, -1 },
  { 1, 36, -1, -2 },
  { 1, 39, 1, 2 },
  { 0, 189, -1, -2 },
  { 0, 188, 1, -2 },
  { 1, 41, 1, -1 },
  { 0, 178, 1, -1 },
  { 0, 173, -1, -2 },
  { 2, 75, -2, 1 },
  { 2, 76, 1, -3 },
  { 1, 40, -2, 1 },
  { 0, 179, -2, -3 },
  { 0, 186, 1, 37 },
  { 1, 41, 1, 32 },
  { 0, 173, 1, 18 },
  { 0, 161, 1, 2 },
  { 2, 30, -1, -2 },
  { 0, 172, 1, -1 },
  { 0, 168, 1, 6 },
  { 0, 164, 1, 4 },
  { 0, 163, 1, 2 },
  { 2, 32, -1, -2 },
  { 2, 36, -1, -2 },
  { 2, 30, -1, -2 },
  { 0, 170, 1, 4 },
  { 1, 39, 1, 2 },
  { 2, 36, -1, -2 },
  { 2, 29, -1, -2 },
  { 0, 171, 1, 3 },
  { 1, 40, 1, -1 },
  { 2, 36, -1, -2 },
  { 2, 37, -1, -2 },
  { 1, 40, 1, 12 },
  { 1, 39, 1, 4 },
  { 2, 29, -1, 1 },
  { 0, 182, -2, 1 },
  { 2, 30, -1, -2 },
  { 0, 177, 1, 4 },
  { 0, 175, 1, 2 },
  { 2, 25, -1, -2 },
  { 2, 20, -1, -2 },
  { 0, 185, 1, 2 },
  { 2, 32, -1, -2 },
  { 2, 35, -1, -2 },
  { 2, 33, -1, -2 },
  { 0, 162, -2, 1 },
  { 2, 30, 1, -2 },
  { 2, 29, -1, 1 },
  { 0, 169, -1, -2 },
  { 0, 197, 1, 13 },
  { 0, 196, 1, 9 },
  { 2, 29, -1, 1 },
  { 2, 75, 1, 5 },
  { 2, 30, 1, -2 },
  { 1, 36, 1, 2 },
  { 1, 35, -2, -1 },
  { 0, 187, -1, -2 },
  { 2, 76, 1, -3 },
  { 0, 189, -2, -3 },
  { 2, 74, 1, -3 },
  { 1, 46, 1, -2 },
  { 2, 34, -1, -2 },
  { 2, 75, 1, -3 },
  { 1, 46, 1, 2 },
  { 2, 29, -1, -2 },
  { 1, 47, 1, 2 },
  { 0, 207, -1, -2 },
  { 2, 28, -1, -2 },
  { 0, 179, 1, 4 },
  { 2, 30, 1, -2 },
  { 0, 161, 1, -1 },
  { 2, 29, -1, -2 },
  { 2, 29, -1, 1 },
  { 1, 42, 1, 21 },
  { 1, 41, 1, 13 },
  { 2, 75, 1, 11 },
  { 0, 183, 1, 4 },
  { 0, 182, 1, 2 },
  { 2, 32, -1, -2 },
  { 2, 31, -1, -2 },
  { 0, 188, 1, -2 },
  { 1, 39, 1, 4 },
  { 0, 187, -2, 1 },
  { 2, 33, 1, -2 },
  { 1, 36, -1, -2 },
  { 2, 32, -1, -2 },
  { 0, 189, -2, -3 },
  { 2, 30, 1, 2 },
  { 0, 188, -1, -2 },
  { 0, 205, 1, 4 },
  { 0, 192, -2, 1 },
  { 0, 194, 1, -2 },
  { 2, 104, -2, -3 },
  { 0, 208, -3, -2 },
  { 2, 75, 1, -3 },
  { 0, 205, -2, 1 },
  { 2, 32, -1, -2 },
  { 2, 29, -1, 1 },
  { 1, 42, 1, 30 },
  { 0, 191, 1, 10 },
  { 1, 39, 1, 4 },
  { 2, 76, 1, -3 },
  { 2, 30, 1, -2 },
  { 0, 185, -1, -2 },
  { 2, 31, 1, -2 },
  { 0, 188, 1, -2 },
  { 1, 41, -1, 1 },
  { 0, 169, -1, 1 },
  { 0, 179, -2, -1 },
  { 0, 192, 1, 2 },
  { 2, 75, -2, -3 },
  { 1, 41, 1, 14 },
  { 1, 40, 1, -2 },
  { 0, 204, 1, 3 },
  { 0, 197, 1, -2 },
  { 2, 75, -2, -3 },
  { 1, 38, 1, 2 },
  { 2, 64, -2, -3 },
  { 0, 208, 1, 5 },
  { 0, 207, 1, 2 },
  { 2, 111, -2, -3 },
  { 1, 39, -2, 1 },
  { 2, 97, -2, -3 },
  { 0, 213, 1, -2 },
  { 2, 113, -2, -3 },
  { 0, 201, 1, -3 },
  { 0, 194, 1, -2 },
  { 2, 110, -2, -3 },
  { 1, 43, 1, 11 },
  { 0, 193, 1, 6 },
  { 0, 178, 1, 2 },
  { 2, 30, -1, -2 },
  { 0, 190, -2, 1 },
  { 0, 191, 1, -2 },
  { 2, 63, -2, -3 },
  { 2, 73, 1, -3 },
  { 0, 200, 1, -2 },
  { 0, 197, -2, 1 },
  { 2, 39, -1, -2 },
  { 1, 49, 1, -3 },
  { 0, 225, 1, -3 },
  { 1, 44, 1, -2 },
  { 2, 75, -2, -3 },
  { 2, 29, -1, 1 },
  { 0, 191, 1, 22 },
  { 0, 188, 1, 18 },
  { 1, 46, 1, 15 },
  { 1, 39, 1, 6 },
  { 1, 36, 1, 3 },
  { 1, 35, -2, 1 },
  { 2, 34, -1, -2 },
  { 0, 167, 1, -2 },
  { 2, 31, -1, -2 },
  { 0, 185, 1, 6 },
  { 2, 30, 1, -2 },
  { 1, 42, 1, -1 },
  { 1, 41, 1, 2 },
  { 0, 178, -2, -1 },
  { 0, 169, -1, -2 },
  { 0, 187, 1, -2 },
  { 2, 35, -1, -2 },
  { 1, 47, 1, -2 },
  { 2, 36, -1, -2 },
  { 1, 40, -2, 1 },
  { 1, 41, 1, -2 },
  { 2, 65, -2, -3 },
  { 1, 49, 1, -3 },
  { 1, 43, 1, 12 },
  { 1, 42, 1, 7 },
  { 1, 39, 1, 2 },
  { 2, 74, -2, -3 },
  { 1, 40, 1, -2 },
  { 0, 202, -2, 1 },
  { 0, 209, 1, -2 },
  { 2, 73, -2, -3 },
  { 2, 73, 1, -3 },
  { 0, 200, 1, -2 },
  { 0, 197, -2, 1 },
  { 2, 39, -1, -2 },
  { 2, 75, -2, -3 },
  { 2, 29, -1, 1 },
  { 0, 191, 1, 13 },
  { 1, 40, 1, 6 },
  { 0, 180, -2, 1 },
  { 1, 36, 1, 3 },
  { 2, 33, 1, -2 },
  { 1, 35, -2, -1 },
  { 2, 30, -1, -2 },
  { 0, 186, -2, 1 },
  { 0, 188, 1, 3 },
  { 1, 42, 1, -2 },
  { 2, 32, -1, -2 },
  { 0, 190, -2, 1 },
  { 2, 75, -2, -3 },
  { 1, 37, 1, 8 },
  { 1, 36, -2, 1 },
  { 0, 198, 1, 3 },
  { 0, 193, 1, -2 },
  { 2, 55, -2, -3 },
  { 0, 206, 1, -2 },
  { 0, 204, 1, -3 },
  { 0, 202, -3, -2 },
  { 0, 226, 1, -3 },
  { 1, 42, 1, 2 },
  { 2, 75, -2, -3 },
  { 2, 74, 1, -3 },
  { 2, 30, 1, -2 },
  { 1, 43, -1, 1 },
  { 0, 203, -2, -1 },
  { 1, 40, 1, 32 },
  { 1, 38, 1, 19 },
  { 0, 182, 1, 5 },
  { 1, 36, 1, 3 },
  { 1, 35, 1, -1 },
  { 2, 28, -1, -2 },
  { 2, 30, -1, -2 },
  { 1, 37, 1, 11 },
  { 1, 36, 1, 6 },
  { 0, 185, 1, 4 },
  { 0, 184, 1, 2 },
  { 2, 30, -1, -2 },
  { 2, 30, -1, -2 },
  { 2, 24, -1, -2 },
  { 2, 29, -1, 1 },
  { 0, 198, 1, 2 },
  { 2, 75, -2, -3 },
  { 0, 202, -3, -2 },
  { 2, 30, -1, 1 },
  { 2, 78, -2, -3 },
  { 2, 29, -1, 1 },
  { 1, 39, 1, 6 },
  { 0, 167, 1, 2 },
  { 2, 32, -1, -2 },
  { 2, 75, 1, -3 },
  { 2, 31, 1, -2 },
  { 0, 189, -2, -2 },
  { 2, 105, 1, -3 },
  { 0, 187, 1, -2 },
  { 0, 179, -2, 1 },
  { 0, 183, -1, 1 },
  { 2, 35, -1, -2 },
  { 1, 43, 1, 31 },
  { 0, 202, 1, 21 },
  { 0, 173, 1, 4 },
  { 1, 41, -1, 1 },
  { 0, 166, 1, -1 },
  { 2, 34, -1, -2 },
  { 0, 182, 1, 10 },
  { 0, 180, 1, -2 },
  { 0, 175, -2, 1 },
  { 0, 176, 1, 3 },
  { 1, 41, 1, -1 },
  { 2, 31, -1, -2 },
  { 0, 178, 1, 2 },
  { 1, 42, -1, -2 },
  { 1, 42, -2, 1 },
  { 2, 30, -1, -2 },
  { 2, 29, -1, 1 },
  { 0, 192, 1, 2 },
  { 2, 76, -2, -3 },
  { 2, 74, 1, -3 },
  { 1, 42, -2, 1 },
  { 2, 33, -2, -2 },
  { 0, 210, 1, 7 },
  { 0, 204, 1, 4 },
  { 0, 203, 1, 2 },
  { 1, 42, -2, -3 },
  { 2, 30, -1, -2 },
  { 1, 42, -2, 1 },
  { 0, 206, -2, -3 },
  { 0, 211, 1, -2 },
  { 2, 102, -2, -3 },
  { 0, 196, 1, 10 },
  { 0, 171, 1, 3 },
  { 1, 44, 1, -1 },
  { 2, 28, -1, -2 },
  { 1, 46, 1, 4 },
  { 1, 45, 1, -1 },
  { 0, 179, -2, 1 },
  { 2, 32, -1, -2 },
  { 1, 47, 1, -2 },
  { 2, 36, -1, -2 },
  { 0, 219, 1, 6 },
  { 2, 31, 1, -2 },
  { 0, 201, 1, -1 },
  { 1, 45, 1, -1 },
  { 0, 199, -1, 1 },
  { 2, 27, -1, -2 },
  { 0, 222, -3, -2 },
  { 1, 38, 1, 12 },
  { 2, 29, -1, 1 },
  { 0, 192, 1, 5 },
  { 2, 30, 1, -2 },
  { 0, 172, -2, 1 },
  { 0, 185, -1, 1 },
  { 1, 36, -1, -2 },
  { 1, 36, -2, 1 },
  { 0, 193, 1, 2 },
  { 2, 65, -2, -3 },
  { 0, 199, -2, 1 },
  { 2, 78, -2, -3 },
  { 0, 198, 1, 44 },
  { 1, 40, 1, 33 },
  { 0, 188, 1, 9 },
  { 1, 39, 1, 4 },
  { 2, 29, -1, 1 },
  { 0, 177, 1, -2 },
  { 2, 31, -2, -2 },
  { 0, 167, 1, 3 },
  { 0, 165, -2, 1 },
  { 2, 36, -1, -2 },
  { 2, 31, -1, -2 },
  { 1, 39, 1, 16 },
  { 0, 193, 1, 7 },
  { 0, 190, 1, 3 },
  { 0, 189, 1, -1 },
  { 2, 49, -1, -3 },
  { 2, 30, -1, 1 },
  { 0, 191, -2, 1 },
  { 2, 75, -2, -3 },
  { 0, 196, 1, 7 },
  { 0, 194, 1, 3 },
  { 2, 73, 1, -3 },
  { 2, 31, -1, -2 },
  { 0, 195, 1, -2 },
  { 2, 74, 1, -3 },
  { 2, 34, -1, -2 },
  { 2, 60, -1, -3 },
  { 0, 194, 1, 5 },
  { 0, 192, 1, -2 },
  { 0, 191, 1, 2 },
  { 2, 28, -1, -2 },
  { 2, 34, -1, -2 },
  { 2, 32, -1, 1 },
  { 2, 74, -2, -3 },
  { 2, 30, 1, 7 },
  { 1, 42, 1, -1 },
  { 1, 41, -1, 1 },
  { 2, 29, -1, 1 },
  { 0, 169, -1, 1 },
  { 0, 179, -2, 1 },
  { 0, 188, -1, -2 },
  { 2, 75, -2, 1 },
  { 2, 77, 1, -3 },
  { 0, 182, -2, -3 },
  { 0, 202, 1, 14 },
  { 1, 39, 1, 3 },
  { 2, 28, -1, 1 },
  { 2, 110, -2, -3 },
  { 0, 201, 1, 5 },
  { 2, 29, -1, 1 },
  { 2, 75, 1, -3 },
  { 0, 199, 1, -2 },
  { 2, 31, -1, -2 },
  { 1, 42, -1, 1 },
  { 1, 43, -3, 1 },
  { 1, 47, 1, -1 },
  { 1, 45, 1, -2 },
  { 2, 34, -1, -2 },
  { 1, 49, 1, -3 },
  { 0, 226, 1, -3 },
  { 1, 43, 1, 24 },
  { 1, 39, 1, 4 },
  { 0, 205, 1, -2 },
  { 2, 114, 1, -3 },
  { 2, 32, -1, -2 },
  { 1, 41, 1, 9 },
  { 1, 40, 1, -2 },
  { 0, 213, 1, -2 },
  { 0, 206, 1, 2 },
  { 2, 70, -2, -3 },
  { 0, 207, -1, 1 },
  { 0, 208, 1, 2 },
  { 2, 93, -2, -3 },
  { 2, 113, -2, -3 },
  { 0, 203, -3, 1 },
  { 0, 206, 1, 4 },
  { 1, 42, -2, 1 },
  { 0, 204, 1, -2 },
  { 2, 30, -1, -2 },
  { 1, 42, 1, 2 },
  { 2, 81, -2, -3 },
  { 0, 212, 1, -2 },
  { 0, 209, -3, 1 },
  { 2, 86, -2, -3 },
  { 0, 208, 1, 8 },
  { 0, 204, 1, 2 },
  { 2, 30, -1, -2 },
  { 0, 206, 1, 3 },
  { 1, 45, 1, -1 },
  { 2, 37, -1, -2 },
  { 0, 207, -2, 1 },
  { 1, 45, -1, -2 },
  { 0, 212, 1, -2 },
  { 1, 45, 1, -2 },
  { 2, 33, -1, -2 },
  { 0, 183, 1, 8 },
  { 2, 30, 1, -2 },
  { 2, 29, -1, 1 },
  { 1, 42, 1, -1 },
  { 0, 171, -1, 1 },
  { 1, 38, -1, 1 },
  { 1, 39, -2, 1 },
  { 0, 178, -2, -1 },
  { 1, 42, 1, 6 },
  { 2, 29, -1, 1 },
  { 2, 75, 1, -3 },
  { 1, 39, -2, 1 },
  { 2, 30, 1, -2 },
  { 0, 188, -1, -2 },
  { 0, 208, 1, 15 },
  { 0, 189, 1, 6 },
  { 0, 186, 1, -1 },
  { 1, 44, 1, -1 },
  { 0, 185, 1, 2 },
  { 2, 33, -1, -2 },
  { 2, 38, -1, -2 },
  { 2, 29, -1, 1 },
  { 0, 204, 1, 5 },
  { 1, 43, 1, 2 },
  { 2, 73, -2, -3 },
  { 1, 44, 1, -2 },
  { 0, 194, -3, -2 },
  { 1, 43, -2, 1 },
  { 2, 31, -1, -2 },
  { 2, 71, 1, -3 },
  { 2, 30, -1, -2 },
  { 0, 186, 1, 34 },
  { 1, 39, 1, 10 },
  { 1, 38, 1, 4 },
  { 0, 175, 1, 2 },
  { 2, 29, -1, -2 },
  { 2, 29, -1, -2 },
  { 0, 168, 1, 2 },
  { 2, 28, -1, -2 },
  { 0, 184, 1, -2 },
  { 0, 174, -1, 1 },
  { 2, 32, -1, -2 },
  { 0, 175, 1, 17 },
  { 1, 44, 1, 10 },
  { 0, 170, 1, 7 },
  { 1, 40, 1, 2 },
  { 2, 29, -1, -2 },
  { 0, 169, 1, 3 },
  { 1, 41, -1, 1 },
  { 2, 35, -1, -2 },
  { 2, 34, -1, -2 },
  { 0, 171, -1, 1 },
  { 2, 29, -1, -2 },
  { 1, 46, 1, 3 },
  { 1, 45, 1, -1 },
  { 2, 33, -1, -2 },
  { 0, 171, -1, 1 },
  { 1, 47, 1, -2 },
  { 2, 36, -1, -2 },
  { 1, 43, 1, 5 },
  { 2, 29, -1, 1 },
  { 1, 40, 1, -2 },
  { 2, 32, 1, -2 },
  { 0, 181, -2, -1 },
  { 1, 47, -1, -2 },
  { 2, 29, -1, 1 },
  { 0, 188, 1, 6 },
  { 0, 187, 1, 3 },
  { 1, 41, -2, 1 },
  { 2, 32, -1, -2 },
  { 2, 31, 1, -2 },
  { 1, 35, -2, -1 },
  { 0, 208, 1, 17 },
  { 0, 196, 1, 13 },
  { 0, 194, 1, -2 },
  { 1, 42, 1, 10 },
  { 1, 38, -2, 1 },
  { 1, 39, 1, 4 },
  { 0, 189, 1, 2 },
  { 2, 71, -2, -3 },
  { 2, 75, -2, -3 },
  { 0, 192, 1, 2 },
  { 2, 75, -2, -3 },
  { 0, 193, 1, -2 },
  { 2, 104, -2, -3 },
  { 2, 74, -2, -3 },
  { 2, 75, 1, -3 },
  { 1, 42, -2, 1 },
  { 2, 31, -1, -2 },
  { 2, 75, -2, -3 },
  { 1, 44, 1, 25 },
  { 0, 179, 1, 11 },
  { 0, 162, 1, 4 },
  { 0, 158, 1, 2 },
  { 2, 39, -1, -2 },
  { 2, 31, -1, -2 },
  { 2, 30, 1, -2 },
  { 1, 38, -1, 1 },
  { 2, 29, -1, 1 },
  { 0, 171, -1, 1 },
  { 0, 174, -2, 1 },
  { 1, 41, -2, -1 },
  { 2, 30, 1, 6 },
  { 0, 187, -1, 1 },
  { 1, 36, 1, 2 },
  { 0, 188, -2, -1 },
  { 2, 29, -1, 1 },
  { 1, 42, -2, -1 },
  { 1, 38, 1, 3 },
  { 0, 199, -2, 1 },
  { 2, 67, -2, -3 },
  { 0, 225, 1, -3 },
  { 2, 75, -2, 1 },
  { 2, 76, 1, -3 },
  { 0, 189, -2, -3 },
  { 1, 49, 1, -3 },
  { 1, 47, 1, 2 },
  { 2, 31, -1, -2 },
  { 2, 25, -1, -2 },
  { 2, 29, -1, 1 },
  { 2, 75, 1, 20 },
  { 1, 41, 1, 11 },
  { 0, 188, 1, -2 },
  { 1, 39, 1, 7 },
  { 2, 30, 1, -2 },
  { 1, 35, -2, 1 },
  { 1, 36, -1, 1 },
  { 1, 37, -2, 1 },
  { 1, 38, -1, 1 },
  { 0, 172, -1, -2 },
  { 2, 31, 1, -2 },
  { 0, 178, -2, -1 },
  { 2, 30, 1, -2 },
  { 0, 169, -1, 1 },
  { 0, 203, 1, -1 },
  { 0, 195, 1, 4 },
  { 1, 45, 1, -2 },
  { 0, 179, -2, 1 },
  { 0, 188, -1, -2 },
  { 1, 43, -1, -2 },
  { 1, 39, 1, 4 },
  { 1, 38, -3, 1 },
  { 2, 76, 1, -3 },
  { 0, 189, -2, -3 },
  { 0, 181, -2, -3 },
  { 1, 47, 1, 18 },
  { 2, 29, -1, 1 },
  { 2, 76, 1, -3 },
  { 0, 186, 1, 12 },
  { 0, 185, 1, 9 },
  { 2, 30, 1, -2 },
  { 0, 164, -2, 1 },
  { 0, 171, -1, 1 },
  { 0, 172, -2, 1 },
  { 0, 174, -1, 1 },
  { 0, 176, -2, 1 },
  { 0, 180, 1, -1 },
  { 1, 41, -2, -1 },
  { 1, 39, -2, 1 },
  { 2, 35, -1, -2 },
  { 0, 198, -2, 1 },
  { 1, 42, -2, 1 },
  { 2, 31, -1, -2 },
  { 2, 23, -1, 1 },
  { 1, 49, -2, -3 },
  { 0, 183, 1, 11 },
  { 0, 160, 1, 6 },
  { 0, 157, 1, 3 },
  { 1, 39, 1, -1 },
  { 2, 33, -1, -2 },
  { 0, 158, -2, 1 },
  { 2, 27, -1, -2 },
  { 2, 31, 1, -2 },
  { 2, 29, -1, 1 },
  { 0, 176, 1, -1 },
  { 0, 174, -1, -2 },
  { 2, 29, -1, 1 },
  { 0, 190, 1, 6 },
  { 2, 30, 1, -2 },
  { 1, 41, 1, 3 },
  { 1, 38, 1, -1 },
  { 1, 36, -1, -2 },
  { 0, 188, -1, -2 },
  { 1, 44, 1, -2 },
  { 2, 75, 1, -3 },
  { 0, 198, -2, 1 },
  { 0, 199, 1, -2 },
  { 1, 43, 1, -2 },
  { 1, 42, -2, -1 },
  { 1, 40, 1, 12 },
  { 2, 29, -1, 1 },
  { 2, 75, 1, 9 },
  { 2, 30, 1, -2 },
  { 1, 35, -2, 1 },
  { 1, 38, -1, 1 },
  { 1, 39, 1, 2 },
  { 0, 172, -1, -2 },
  { 0, 173, -1, 1 },
  { 0, 178, -2, 1 },
  { 0, 188, -1, -2 },
  { 0, 188, -2, -3 },
  { 2, 29, -1, 1 },
  { 1, 49, 1, -3 },
  { 0, 196, 1, 10 },
  { 0, 177, 1, 8 },
  { 1, 46, 1, 6 },
  { 1, 41, -2, 1 },
  { 1, 44, 1, -2 },
  { 2, 35, 1, -2 },
  { 1, 42, 1, -1 },
  { 0, 169, -1, -2 },
  { 1, 47, -1, -2 },
  { 2, 75, -2, -3 },
  { 1, 43, 1, 5 },
  { 0, 198, -3, 1 },
  { 2, 74, 1, -3 },
  { 1, 42, -2, 1 },
  { 2, 38, -1, -2 },
  { 2, 32, 1, -2 },
  { 0, 203, -2, -1 },
  { 1, 38, 1, 3 },
  { 2, 29, -1, 1 },
  { 2, 75, -2, -3 },
  { 0, 193, 1, 15 },
  { 2, 30, 1, 10 },
  { 0, 188, 1, 6 },
  { 2, 29, -1, 1 },
  { 0, 169, -1, 1 },
  { 1, 42, 1, -1 },
  { 0, 179, 1, -1 },
  { 1, 40, -1, -2 },
  { 1, 47, 1, -2 },
  { 1, 41, -1, 1 },
  { 2, 28, -1, -2 },
  { 0, 190, 1, 3 },
  { 0, 188, -2, 1 },
  { 2, 75, -2, -3 },
  { 2, 75, -2, -3 },
  { 0, 203, 1, 6 },
  { 2, 29, -1, 1 },
  { 2, 75, 1, -3 },
  { 2, 30, 1, -2 },
  { 1, 41, -2, 1 },
  { 0, 199, -1, -2 },
  { 0, 226, 1, -3 },
  { 1, 40, 1, 3 },
  { 1, 39, -2, 1 },
  { 2, 73, -2, -3 },
  { 1, 43, 1, 7 },
  { 0, 211, 1, -2 },
  { 0, 205, 1, 2 },
  { 2, 34, -1, -2 },
  { 2, 76, 1, -3 },
  { 0, 208, 1, -2 },
  { 2, 33, -1, -2 },
  { 2, 31, -1, -2 },
  { 1, 40, 1, 22 },
  { 2, 29, -1, 1 },
  { 0, 196, 1, 17 },
  { 0, 188, 1, 7 },
  { 0, 187, 1, 4 },
  { 1, 38, 1, -2 },
  { 2, 30, 1, -2 },
  { 0, 172, -2, -1 },
  { 2, 32, 1, -2 },
  { 1, 35, -2, -1 },
  { 1, 38, 1, 2 },
  { 2, 75, -2, -3 },
  { 0, 192, 1, 5 },
  { 0, 191, 1, 3 },
  { 0, 189, 1, -2 },
  { 2, 66, -2, -3 },
  { 2, 59, -2, -3 },
  { 1, 39, 1, -2 },
  { 2, 74, -2, -3 },
  { 0, 197, 1, 2 },
  { 2, 59, -2, -3 },
  { 2, 77, -2, -3 },
  { 0, 202, 1, 11 },
  { 1, 45, 1, 9 },
  { 2, 30, 1, 4 },
  { 0, 188, -1, 1 },
  { 1, 42, 1, -1 },
  { 2, 29, -1, -2 },
  { 0, 196, 1, 3 },
  { 0, 190, -2, 1 },
  { 2, 75, -2, -3 },
  { 2, 70, -2, -3 },
  { 2, 29, -1, -2 },
  { 1, 49, 1, -3 },
  { 0, 212, 1, 3 },
  { 2, 31, -1, 1 },
  { 2, 81, -2, -3 },
  { 2, 75, -2, -3 },
  { 0, 177, 1, 15 },
  { 1, 36, 1, 2 },
  { 2, 42, -1, -2 },
  { 0, 160, 1, 6 },
  { 0, 158, 1, 2 },
  { 0, 150, -2, -1 },
  { 0, 159, 1, -2 },
  { 1, 41, 1, -2 },
  { 2, 26, -1, -2 },
  { 2, 30, 1, -2 },
  { 2, 29, -1, 1 },
  { 1, 39, -1, 1 },
  { 0, 171, -1, 1 },
  { 0, 172, -2, 1 },
  { 1, 41, -2, -1 },
  { 1, 42, 1, 14 },
  { 2, 29, -1, 1 },
  { 2, 75, 1, -3 },
  { 1, 39, 1, 6 },
  { 2, 30, 1, -2 },
  { 0, 185, -1, 1 },
  { 0, 193, 1, -2 },
  { 1, 36, 1, -2 },
  { 1, 35, -2, -1 },
  { 1, 40, 1, 3 },
  { 2, 31, 1, -2 },
  { 0, 195, -1, -2 },
  { 2, 31, 1, -2 },
  { 0, 188, -1, -2 },
  { 1, 49, 1, -3 },
  { 2, 29, -1, 1 },
  { 2, 75, 1, -3 },
  { 1, 43, -2, 1 },
  { 2, 31, 1, -2 },
  { 1, 46, 1, -2 },
  { 0, 203, -2, -1 },
  { 2, 30, 1, 8 },
  { 1, 47, 1, 6 },
  { 2, 29, -1, 1 },
  { 0, 188, 1, -2 },
  { 0, 164, -2, 1 },
  { 0, 172, 1, -1 },
  { 0, 171, -1, -2 },
  { 2, 24, -1, -2 },
  { 1, 49, 1, -3 },
  { 0, 188, -2, 1 },
  { 0, 225, 1, -3 },
  { 0, 212, 1, -2 },
  { 1, 43, 1, 2 },
  { 2, 75, -2, -3 },
  { 0, 194, 1, -2 },
  { 2, 76, -2, -3 },
  { 1, 44, 1, 44 },
  { 1, 38, 1, 28 },
  { 0, 183, 1, 8 },
  { 1, 37, 1, 6 },
  { 1, 35, 1, 2 },
  { 2, 29, -1, -2 },
  { 0, 160, 1, 2 },
  { 2, 30, -1, -2 },
  { 2, 32, -1, -2 },
  { 2, 30, -1, -2 },
  { 0, 206, 1, -2 },
  { 0, 199, 1, 17 },
  { 0, 191, 1, 9 },
  { 1, 36, 1, 7 },
  { 0, 187, 1, 2 },
  { 2, 32, -1, -2 },
  { 0, 188, 1, 3 },
  { 2, 34, 1, -2 },
  { 1, 35, -2, -1 },
  { 1, 35, -1, -2 },
  { 2, 28, -1, -2 },
  { 0, 192, 1, 3 },
  { 1, 36, -2, 1 },
  { 2, 50, -1, -3 },
  { 0, 193, 1, 3 },
  { 1, 37, -2, 1 },
  { 2, 65, -2, -3 },
  { 2, 30, -1, -2 },
  { 0, 202, -1, -3 },
  { 2, 29, -1, 1 },
  { 0, 188, 1, 5 },
  { 2, 30, 1, -2 },
  { 0, 179, 1, -1 },
  { 0, 171, -1, 1 },
  { 1, 40, -1, -2 },
  { 0, 212, 1, -2 },
  { 2, 75, 1, -3 },
  { 0, 198, -2, 1 },
  { 0, 199, 1, 3 },
  { 1, 42, -2, 1 },
  { 2, 50, -1, -2 },
  { 0, 205, -2, 1 },
  { 1, 43, -2, 1 },
  { 2, 34, -1, -2 },
  { 1, 47, 1, 7 },
  { 1, 45, -1, 1 },
  { 0, 200, 1, 3 },
  { 0, 196, -1, 1 },
  { 2, 29, -1, -2 },
  { 0, 207, 1, -2 },
  { 1, 46, -2, -1 },
  { 2, 24, -1, 1 },
  { 2, 71, -2, -3 },
  { 0, 186, 1, 7 },
  { 2, 30, 1, -2 },
  { 2, 29, -1, 1 },
  { 0, 179, 1, -1 },
  { 0, 171, 1, 2 },
  { 1, 37, -2, -1 },
  { 1, 42, -2, -1 },
  { 0, 204, 1, 34 },
  { 0, 196, 1, 21 },
  { 1, 42, 1, 16 },
  { 1, 36, 1, 4 },
  { 2, 34, 1, -2 },
  { 2, 24, -1, 1 },
  { 1, 35, -2, -1 },
  { 0, 191, 1, 8 },
  { 0, 190, 1, 4 },
  { 1, 41, 1, 2 },
  { 2, 29, -1, -2 },
  { 2, 29, -1, -2 },
  { 2, 27, -1, 1 },
  { 1, 40, -2, 1 },
  { 2, 75, -2, -3 },
  { 2, 29, -1, 1 },
  { 1, 39, 1, -2 },
  { 2, 75, -2, -3 },
  { 1, 45, 1, 3 },
  { 2, 30, -1, 1 },
  { 2, 75, -2, -3 },
  { 1, 47, -1, -2 },
  { 0, 203, 1, 8 },
  { 2, 29, -1, 1 },
  { 1, 42, 1, 2 },
  { 2, 76, -2, -3 },
  { 1, 43, 1, -2 },
  { 0, 200, 1, -3 },
  { 0, 198, -3, 1 },
  { 2, 39, -1, -2 },
  { 1, 38, -1, 1 },
  { 1, 41, 1, 2 },
  { 2, 70, -2, -3 },
  { 2, 30, -1, -2 },
  { 1, 39, -2, 1 },
  { 1, 43, 1, 3 },
  { 2, 87, 1, -3 },
  { 2, 27, -1, -2 },
  { 1, 46, 1, 2 },
  { 2, 31, -1, -2 },
  { 0, 207, -1, -2 },
  { 1, 40, 1, 50 },
  { 1, 38, 1, 18 },
  { 1, 37, 1, 12 },
  { 1, 36, 1, 6 },
  { 2, 33, 1, -2 },
  { 1, 35, 1, -1 },
  { 0, 161, 1, -1 },
  { 0, 160, -1, 1 },
  { 2, 16, -1, -2 },
  { 0, 174, 1, 2 },
  { 2, 33, -1, -2 },
  { 2, 27, -1, 1 },
  { 0, 198, -2, 1 },
  { 2, 72, -2, -3 },
  { 0, 183, 1, 2 },
  { 2, 30, -1, -2 },
  { 2, 28, -1, 1 },
  { 0, 192, -2, 1 },
  { 2, 67, -2, -3 },
  { 0, 193, 1, 17 },
  { 0, 164, 1, 2 },
  { 2, 30, -1, -2 },
  { 1, 39, 1, 10 },
  { 0, 174, 1, 5 },
  { 0, 168, 1, -1 },
  { 0, 167, 1, -2 },
  { 0, 166, -1, 1 },
  { 2, 31, -1, -2 },
  { 2, 30, -1, 1 },
  { 0, 188, -2, 1 },
  { 0, 189, 1, -2 },
  { 2, 71, -2, -3 },
  { 2, 31, 1, -2 },
  { 0, 178, 1, -1 },
  { 2, 29, -1, 1 },
  { 0, 173, -1, -2 },
  { 0, 198, 1, 9 },
  { 0, 195, 1, 5 },
  { 2, 75, 1, -3 },
  { 1, 39, 1, -2 },
  { 0, 194, -2, 1 },
  { 2, 30, -1, -2 },
  { 2, 29, -1, 1 },
  { 0, 197, 1, -2 },
  { 2, 63, -2, -3 },
  { 2, 29, -1, 1 },
  { 1, 39, 1, 2 },
  { 2, 115, -2, -3 },
  { 0, 206, 1, -2 },
  { 2, 78, -2, -3 },
  { 2, 29, -1, 1 },
  { 2, 75, 1, -3 },
  { 1, 42, -2, 1 },
  { 2, 30, 1, -2 },
  { 1, 47, 1, -2 },
  { 0, 188, -1, 1 },
  { 1, 43, -1, 1 },
  { 0, 203, -2, -1 },
  { 1, 45, 1, 82 },
  { 0, 179, 1, 10 },
  { 2, 30, 1, -2 },
  { 1, 35, 1, 4 },
  { 0, 161, 1, -1 },
  { 0, 160, -1, 1 },
  { 2, 16, -1, -2 },
  { 0, 171, -1, 1 },
  { 1, 41, -1, 1 },
  { 1, 42, 1, -1 },
  { 2, 29, -1, -2 },
  { 1, 41, 1, 55 },
  { 1, 36, 1, 5 },
  { 2, 34, 1, -2 },
  { 0, 187, -1, 1 },
  { 1, 35, 1, -1 },
  { 2, 29, -1, -2 },
  { 0, 203, 1, 39 },
  { 0, 188, 1, 13 },
  { 1, 39, 1, 10 },
  { 0, 183, 1, 8 },
  { 1, 38, 1, 6 },
  { 0, 180, -1, 1 },
  { 0, 182, 1, 3 },
  { 1, 37, -1, 1 },
  { 2, 33, -1, -2 },
  { 2, 29, -1, -2 },
  { 2, 33, -1, -2 },
  { 2, 27, -1, -2 },
  { 0, 180, -1, 1 },
  { 2, 32, -1, -2 },
  { 1, 39, 1, 18 },
  { 1, 38, 1, 7 },
  { 2, 31, -1, 1 },
  { 0, 199, 1, 4 },
  { 1, 37, 1, -2 },
  { 0, 193, 1, -2 },
  { 2, 58, -2, -3 },
  { 2, 65, -2, -3 },
  { 2, 29, -1, 1 },
  { 0, 197, 1, -2 },
  { 0, 196, 1, -3 },
  { 0, 192, 1, 4 },
  { 0, 191, 1, 2 },
  { 2, 75, -2, -3 },
  { 2, 53, -2, -3 },
  { 0, 194, -2, 1 },
  { 0, 195, 1, -2 },
  { 2, 82, -2, -3 },
  { 1, 40, 1, 3 },
  { 2, 29, -1, 1 },
  { 2, 75, -2, -3 },
  { 0, 191, 1, 2 },
  { 2, 64, -2, -3 },
  { 0, 200, 1, -2 },
  { 2, 35, -1, -2 },
  { 1, 39, 1, 5 },
  { 2, 23, -1, 1 },
  { 0, 205, 1, -2 },
  { 0, 204, -2, 1 },
  { 2, 67, -2, -3 },
  { 1, 40, 1, -2 },
  { 2, 76, 1, -3 },
  { 0, 207, 1, -2 },
  { 0, 206, -2, 1 },
  { 2, 31, -1, -2 },
  { 1, 43, 1, 13 },
  { 1, 42, 1, 5 },
  { 2, 29, -1, 1 },
  { 0, 192, -2, 1 },
  { 0, 194, 1, -2 },
  { 2, 110, -2, -3 },
  { 0, 199, 1, 4 },
  { 2, 29, -1, 1 },
  { 2, 73, 1, -3 },
  { 0, 197, -2, -1 },
  { 0, 203, 1, 2 },
  { 2, 67, -2, -3 },
  { 2, 101, -2, -3 },
  { 2, 32, -1, 1 },
  { 1, 44, 1, -2 },
  { 0, 222, -2, -3 },
  { 2, 27, -1, -2 },
  { 2, 30, 1, 14 },
  { 1, 47, 1, 12 },
  { 2, 29, -1, 1 },
  { 1, 37, 1, 3 },
  { 1, 36, 1, -2 },
  { 1, 35, -2, -1 },
  { 1, 43, 1, 6 },
  { 1, 38, -1, 1 },
  { 1, 39, 1, 2 },
  { 0, 187, -1, -2 },
  { 0, 188, -1, 1 },
  { 1, 42, -2, -1 },
  { 0, 203, -2, -1 },
  { 0, 182, -1, -2 },
  { 1, 42, 1, 6 },
  { 0, 196, 1, 4 },
  { 1, 38, -2, 1 },
  { 1, 39, 1, -2 },
  { 2, 76, -2, -3 },
  { 2, 75, -2, -3 },
  { 0, 202, 1, 2 },
  { 2, 77, -2, -3 },
  { 0, 225, 1, -3 },
  { 1, 43, 1, -2 },
  { 2, 91, -2, -3 },
  { 0, 183, 1, 8 },
  { 2, 29, -1, 1 },
  { 2, 30, 1, -2 },
  { 0, 164, -2, 1 },
  { 0, 169, -1, 1 },
  { 1, 39, -1, 1 },
  { 1, 41, 1, -2 },
  { 0, 178, -2, -1 },
  { 1, 39, 1, 13 },
  { 2, 29, -1, 1 },
  { 1, 38, 1, 10 },
  { 1, 37, 1, -2 },
  { 0, 198, 1, 7 },
  { 0, 187, -2, 1 },
  { 2, 73, 1, -3 },
  { 1, 36, 1, -2 },
  { 0, 188, 1, -2 },
  { 1, 35, -2, 1 },
  { 2, 34, -1, -2 },
  { 0, 202, -3, -2 },
  { 2, 75, -2, -3 },
  { 0, 202, 1, 16 },
  { 2, 29, -1, 1 },
  { 1, 42, 1, 8 },
  { 0, 186, 1, 2 },
  { 2, 34, -1, -2 },
  { 1, 40, 1, 4 },
  { 0, 197, -2, 1 },
  { 0, 198, 1, -2 },
  { 2, 72, -2, -3 },
  { 2, 115, -2, -3 },
  { 0, 200, 1, 5 },
  { 2, 75, 1, -3 },
  { 1, 43, 1, -2 },
  { 0, 197, -2, 1 },
  { 2, 33, -1, -2 },
  { 1, 43, -3, -2 },
  { 2, 29, -1, 1 },
  { 2, 77, 1, -3 },
  { 1, 43, -2, 1 },
  { 0, 206, 1, -2 },
  { 1, 45, 1, -2 },
  { 2, 33, -1, -2 },
  { 0, 178, 1, 23 },
  { 1, 38, 1, 14 },
  { 0, 162, 1, 2 },
  { 2, 30, -1, -2 },
  { 1, 37, 1, 10 },
  { 1, 36, 1, 4 },
  { 1, 35, 1, -1 },
  { 0, 166, 1, -1 },
  { 2, 41, -1, -2 },
  { 0, 166, -1, 1 },
  { 0, 176, 1, -1 },
  { 0, 173, 1, 2 },
  { 2, 34, -1, -2 },
  { 2, 29, -1, -2 },
  { 2, 33, -1, -2 },
  { 2, 31, 1, -2 },
  { 0, 171, -1, 1 },
  { 1, 40, 1, 4 },
  { 0, 175, -1, 1 },
  { 1, 39, -1, 1 },
  { 2, 26, -1, -2 },
  { 2, 29, -1, 1 },
  { 1, 44, -2, -1 },
  { 0, 198, 1, 58 },
  { 1, 42, 1, 41 },
  { 0, 191, 1, 13 },
  { 0, 185, 1, 4 },
  { 0, 182, 1, 2 },
  { 2, 32, -1, -2 },
  { 2, 30, -1, -2 },
  { 2, 29, -1, 1 },
  { 0, 188, 1, 5 },
  { 2, 31, 1, -2 },
  { 0, 187, -1, 1 },
  { 1, 35, -2, 1 },
  { 1, 36, -1, -2 },
  { 0, 189, 1, -2 },
  { 2, 75, -2, -3 },
  { 1, 36, 1, 3 },
  { 0, 192, 1, -2 },
  { 2, 31, -1, -2 },
  { 1, 39, 1, 15 },
  { 0, 193, 1, 8 },
  { 1, 38, 1, 4 },
  { 2, 34, -1, 1 },
  { 0, 192, 1, -3 },
  { 2, 58, -2, -3 },
  { 2, 29, -1, 1 },
  { 0, 192, 1, -2 },
  { 2, 75, -2, -3 },
  { 1, 38, 1, 3 },
  { 0, 195, -2, 1 },
  { 2, 33, -1, -2 },
  { 0, 197, 1, -2 },
  { 2, 29, -1, 1 },
  { 2, 66, -2, -3 },
  { 1, 40, 1, 7 },
  { 0, 195, 1, 3 },
  { 0, 192, 1, -2 },
  { 2, 30, -1, -2 },
  { 2, 29, -1, 1 },
  { 0, 197, -2, 1 },
  { 2, 72, -2, -3 },
  { 2, 31, -1, 1 },
  { 2, 110, -2, -3 },
  { 0, 194, 1, 9 },
  { 1, 47, 1, -2 },
  { 1, 45, 1, -1 },
  { 0, 189, 1, 3 },
  { 1, 43, 1, -1 },
  { 2, 41, -1, -2 },
  { 0, 190, -2, 1 },
  { 2, 33, -1, 1 },
  { 2, 75, -2, -3 },
  { 1, 45, 1, 3 },
  { 2, 30, -1, 1 },
  { 2, 73, -2, -3 },
  { 0, 196, -1, 1 },
  { 1, 46, 1, 2 },
  { 2, 35, -1, -2 },
  { 2, 29, -1, -2 },
  { 2, 76, 1, -3 },
  { 0, 207, 1, 9 },
  { 1, 38, 1, 3 },
  { 0, 202, -1, 1 },
  { 2, 32, -1, -2 },
  { 2, 31, 1, -2 },
  { 0, 201, 1, -1 },
  { 1, 39, -2, 1 },
  { 2, 29, -1, 1 },
  { 1, 43, -1, -2 },
  { 0, 215, 1, 4 },
  { 0, 210, -2, 1 },
  { 0, 211, 1, -2 },
  { 2, 36, -1, -2 },
  { 2, 29, -1, -2 },
  { 2, 30, 1, 17 },
  { 1, 35, 1, 4 },
  { 0, 187, 1, 2 },
  { 2, 29, -1, -2 },
  { 0, 188, -2, -1 },
  { 1, 38, -1, 1 },
  { 1, 47, 1, 10 },
  { 2, 29, -1, 1 },
  { 0, 188, 1, 4 },
  { 0, 174, -1, 1 },
  { 1, 39, -2, 1 },
  { 0, 178, -2, -1 },
  { 0, 194, -2, 1 },
  { 1, 41, -2, 1 },
  { 1, 43, -1, 1 },
  { 0, 203, -2, -1 },
  { 2, 24, -1, -2 },
  { 1, 42, 1, 2 },
  { 2, 75, -2, -3 },
  { 0, 189, -2, 1 },
  { 0, 194, 1, 2 },
  { 2, 75, -2, -3 },
  { 1, 43, 1, 2 },
  { 2, 75, -2, -3 },
  { 1, 49, -2, -3 },
  { 0, 187, 1, 37 },
  { 0, 174, 1, 20 },
  { 1, 40, 1, 4 },
  { 1, 37, 1, 2 },
  { 2, 29, -1, -2 },
  { 2, 30, -1, -2 },
  { 0, 169, 1, 10 },
  { 0, 167, 1, -1 },
  { 1, 41, 1, 2 },
  { 2, 42, -1, -2 },
  { 1, 43, 1, -1 },
  { 1, 42, 1, 4 },
  { 0, 162, -2, 1 },
  { 0, 165, -1, 1 },
  { 2, 36, -1, -2 },
  { 2, 49, -1, -2 },
  { 1, 43, 1, 3 },
  { 0, 172, 1, -1 },
  { 2, 29, -1, -2 },
  { 0, 173, 1, -1 },
  { 2, 26, -1, -2 },
  { 0, 186, 1, 11 },
  { 1, 47, 1, -2 },
  { 0, 184, 1, 6 },
  { 2, 30, 1, -2 },
  { 2, 29, -1, 1 },
  { 1, 41, 1, -1 },
  { 1, 39, -2, 1 },
  { 0, 178, -2, -1 },
  { 1, 39, 1, 2 },
  { 2, 28, -1, -2 },
  { 2, 34, -1, -2 },
  { 1, 39, 1, 4 },
  { 1, 37, 1, 2 },
  { 2, 34, -1, -2 },
  { 2, 30, -1, -2 },
  { 2, 31, -1, -2 },
  { 0, 207, 1, 34 },
  { 1, 42, 1, 26 },
  { 0, 203, 1, 16 },
  { 1, 41, 1, 9 },
  { 2, 30, 1, 3 },
  { 2, 29, -1, 1 },
  { 1, 36, -1, -2 },
  { 0, 188, -2, 1 },
  { 0, 193, 1, 2 },
  { 2, 75, -2, -3 },
  { 0, 200, 1, -2 },
  { 2, 75, -2, -3 },
  { 0, 195, 1, 5 },
  { 0, 190, 1, 2 },
  { 2, 29, -1, -2 },
  { 0, 194, 1, -2 },
  { 2, 31, -1, -2 },
  { 2, 30, -1, -2 },
  { 1, 38, 1, 2 },
  { 2, 65, -2, -3 },
  { 1, 39, 1, 4 },
  { 0, 205, 1, -2 },
  { 0, 204, -2, 1 },
  { 2, 111, -2, -3 },
  { 2, 70, 1, -3 },
  { 1, 41, 1, -2 },
  { 0, 206, -2, -1 },
  { 2, 29, -1, 1 },
  { 1, 43, 1, 4 },
  { 2, 74, 1, -3 },
  { 0, 197, -2, 1 },
  { 2, 40, -1, -2 },
  { 2, 31, 1, -2 },
  { 0, 198, -2, -1 },
  { 2, 75, -2, -3 },
  { 0, 182, 1, 19 },
  { 0, 160, 1, 2 },
  { 2, 27, -1, -2 },
  { 1, 43, 1, 14 },
  { 1, 38, 1, 2 },
  { 2, 31, -1, -2 },
  { 2, 30, 1, -2 },
  { 0, 171, -1, 1 },
  { 0, 177, 1, -1 },
  { 0, 175, 1, 4 },
  { 1, 41, -1, 1 },
  { 1, 42, 1, -1 },
  { 2, 29, -1, -2 },
  { 0, 176, 1, 2 },
  { 2, 20, -1, -2 },
  { 2, 27, -1, 1 },
  { 1, 41, -2, -1 },
  { 1, 47, 1, -1 },
  { 2, 31, -1, -2 },
  { 0, 207, 1, 26 },
  { 2, 29, -1, 1 },
  { 0, 191, 1, 4 },
  { 2, 75, 1, -3 },
  { 2, 30, 1, -2 },
  { 1, 40, -1, -2 },
  { 1, 41, 1, 15 },
  { 1, 39, 1, 13 },
  { 1, 36, -2, 1 },
  { 0, 192, 1, 3 },
  { 1, 38, -2, 1 },
  { 2, 75, -2, -3 },
  { 0, 204, 1, 5 },
  { 0, 202, 1, -2 },
  { 1, 37, 1, 2 },
  { 2, 71, -2, -3 },
  { 2, 74, -2, -3 },
  { 0, 205, 1, -2 },
  { 1, 38, -3, 1 },
  { 2, 113, -2, -3 },
  { 2, 75, -2, -3 },
  { 2, 73, 1, -3 },
  { 1, 43, -2, 1 },
  { 0, 205, -2, 1 },
  { 0, 206, 1, -2 },
  { 2, 37, -1, -2 },
  { 2, 75, 1, -3 },
  { 0, 211, -2, 1 },
  { 0, 212, 1, 2 },
  { 2, 37, -1, -2 },
  { 0, 215, -2, 1 },
  { 1, 44, 1, -2 },
  { 2, 36, -1, -2 },
  { 1, 38, 1, 23 },
  { 0, 183, 1, 8 },
  { 0, 159, 1, 4 },
  { 0, 155, -2, 1 },
  { 0, 157, -1, 1 },
  { 2, 26, -1, -2 },
  { 2, 29, -1, 1 },
  { 0, 181, -2, 1 },
  { 2, 30, -1, -2 },
  { 0, 199, 1, 13 },
  { 0, 191, 1, 5 },
  { 1, 36, 1, 2 },
  { 2, 32, -1, -2 },
  { 0, 184, -2, 1 },
  { 2, 29, -1, -2 },
  { 1, 36, -2, 1 },
  { 1, 37, 1, 3 },
  { 2, 33, -1, 1 },
  { 2, 70, -2, -3 },
  { 0, 193, 1, 2 },
  { 2, 65, -2, -3 },
  { 2, 27, -1, -2 },
  { 2, 72, -2, -3 },
  { 1, 41, 1, 27 },
  { 1, 39, 1, 8 },
  { 0, 197, 1, 5 },
  { 2, 30, -1, 1 },
  { 2, 74, -2, 1 },
  { 2, 76, 1, -3 },
  { 0, 189, -2, -3 },
  { 2, 28, -1, 1 },
  { 2, 110, -2, -3 },
  { 0, 188, 1, 8 },
  { 1, 40, 1, 5 },
  { 0, 181, 1, 2 },
  { 2, 29, -1, -2 },
  { 0, 185, -1, 1 },
  { 2, 30, -1, -2 },
  { 0, 169, -1, 1 },
  { 2, 31, -1, -2 },
  { 0, 199, 1, 7 },
  { 2, 31, -1, 1 },
  { 0, 197, 1, 3 },
  { 1, 40, -2, 1 },
  { 2, 70, -2, -3 },
  { 0, 198, 1, -2 },
  { 2, 72, -2, -3 },
  { 2, 78, 1, -3 },
  { 1, 40, 1, -2 },
  { 2, 27, -1, -2 },
  { 1, 47, 1, 56 },
  { 1, 43, 1, 49 },
  { 1, 42, 1, 18 },
  { 0, 177, 1, 8 },
  { 0, 169, 1, 5 },
  { 0, 165, 1, 3 },
  { 0, 164, -1, 1 },
  { 2, 40, -1, -2 },
  { 2, 36, -1, -2 },
  { 0, 171, -1, 1 },
  { 2, 29, -1, -2 },
  { 0, 180, -2, 1 },
  { 0, 183, 1, 2 },
  { 2, 35, -1, -2 },
  { 0, 203, 1, 5 },
  { 0, 200, 1, -1 },
  { 2, 29, -1, 1 },
  { 0, 192, -2, 1 },
  { 2, 110, -2, -3 },
  { 2, 81, -2, -3 },
  { 0, 200, 1, 20 },
  { 0, 193, 1, 12 },
  { 0, 186, 1, 9 },
  { 0, 174, 1, 3 },
  { 0, 165, -2, 1 },
  { 2, 50, -1, -2 },
  { 0, 178, 1, 2 },
  { 2, 30, -1, -2 },
  { 0, 179, 1, 2 },
  { 2, 34, -1, -2 },
  { 2, 29, -1, -2 },
  { 2, 32, -1, 1 },
  { 2, 66, -2, -3 },
  { 0, 194, 1, 3 },
  { 2, 73, 1, -3 },
  { 2, 40, -1, -2 },
  { 0, 198, 1, 3 },
  { 2, 38, -1, 1 },
  { 2, 74, -2, -3 },
  { 2, 33, -1, -2 },
  { 0, 211, 1, -2 },
  { 0, 209, 1, -3 },
  { 0, 202, 1, 3 },
  { 2, 66, 1, -3 },
  { 2, 42, -1, -2 },
  { 0, 206, 1, 4 },
  { 0, 203, -2, 1 },
  { 0, 204, 1, -2 },
  { 2, 30, -1, -2 },
  { 2, 71, -1, -3 },
  { 2, 32, 1, 3 },
  { 0, 199, -1, 1 },
  { 0, 201, -2, -1 },
  { 1, 44, 1, -2 },
  { 0, 196, 1, -2 },
  { 2, 66, -2, -3 },
  { 0, 173, -2, 1 },
  { 0, 204, 1, -2 },
  { 0, 196, 1, -1 },
  { 0, 182, -1, -2 },
  { 1, 38, 1, 20 },
  { 0, 183, 1, 8 },
  { 1, 36, 1, 4 },
  { 1, 35, 1, -1 },
  { 0, 155, -2, 1 },
  { 2, 28, -1, -2 },
  { 1, 37, 1, 2 },
  { 2, 31, -1, -2 },
  { 2, 30, -1, -2 },
  { 0, 189, 1, 2 },
  { 2, 28, -1, -2 },
  { 0, 190, 1, 2 },
  { 2, 31, -1, -2 },
  { 0, 202, 1, -2 },
  { 2, 31, -1, 1 },
  { 0, 199, 1, 4 },
  { 0, 193, 1, -2 },
  { 0, 192, -2, 1 },
  { 1, 36, -2, -3 },
  { 2, 65, -2, -3 },
  { 2, 29, -1, 1 },
  { 2, 75, 1, 10 },
  { 0, 187, 1, -2 },
  { 0, 186, 1, 7 },
  { 2, 31, 1, -2 },
  { 0, 169, -1, 1 },
  { 1, 44, 1, -1 },
  { 1, 41, 1, -2 },
  { 0, 179, 1, -1 },
  { 0, 176, -2, -2 },
  { 2, 32, -1, -2 },
  { 0, 178, -2, -3 },
  { 1, 38, 1, 7 },
  { 0, 183, 1, 4 },
  { 2, 29, -1, 1 },
  { 0, 182, -2, 1 },
  { 2, 31, -1, -2 },
  { 2, 29, -1, 1 },
  { 2, 75, -2, -3 },
  { 2, 29, -1, 1 },
  { 0, 191, 1, 13 },
  { 0, 171, 1, 2 },
  { 2, 31, -1, -2 },
  { 1, 41, 1, 4 },
  { 1, 39, 1, -2 },
  { 0, 178, 1, -2 },
  { 0, 176, -2, -1 },
  { 0, 186, -2, 1 },
  { 0, 187, 1, 2 },
  { 2, 32, -1, -2 },
  { 0, 190, -2, 1 },
  { 1, 43, 1, -2 },
  { 2, 76, -2, -3 },
  { 1, 49, 1, -3 },
  { 2, 75, 1, -3 },
  { 0, 199, 1, -2 },
  { 0, 198, -2, 1 },
  { 2, 32, -1, -2 },
  { 0, 183, 1, 17 },
  { 0, 162, 1, 11 },
  { 1, 36, 1, 3 },
  { 1, 35, 1, -1 },
  { 2, 27, -1, -2 },
  { 1, 43, 1, -2 },
  { 0, 158, -1, 1 },
  { 0, 161, 1, 4 },
  { 0, 160, 1, 2 },
  { 2, 26, -1, -2 },
  { 2, 46, -1, -2 },
  { 2, 29, -1, -2 },
  { 2, 30, 1, -2 },
  { 0, 171, -1, 1 },
  { 1, 41, -1, 1 },
  { 0, 173, 1, -1 },
  { 2, 26, -1, -2 },
  { 0, 203, 1, 12 },
  { 2, 29, -1, 1 },
  { 2, 75, 1, -3 },
  { 0, 198, 1, 5 },
  { 1, 36, 1, -2 },
  { 1, 35, -2, 1 },
  { 0, 188, 1, -2 },
  { 2, 34, -1, -2 },
  { 0, 199, 1, -2 },
  { 1, 42, -2, 1 },
  { 1, 43, 1, -2 },
  { 2, 39, -1, -2 },
  { 2, 75, 1, -3 },
  { 1, 39, 1, 2 },
  { 2, 23, -1, -2 },
  { 1, 45, 1, -2 },
  { 1, 44, 1, 5 },
  { 0, 207, 1, 2 },
  { 2, 35, -1, -2 },
  { 1, 43, -2, 1 },
  { 2, 31, -1, -2 },
  { 2, 30, -1, -2 },
  { 2, 30, 1, 8 },
  { 2, 29, -1, 1 },
  { 0, 205, 1, -1 },
  { 0, 188, 1, -2 },
  { 0, 180, 1, -1 },
  { 1, 42, 1, -1 },
  { 0, 171, -1, 1 },
  { 1, 40, -1, -2 },
  { 2, 76, -2, -3 },
  { 0, 183, 1, 11 },
  { 2, 29, -1, 1 },
  { 1, 40, 1, 5 },
  { 2, 30, 1, -2 },
  { 1, 39, 1, 2 },
  { 0, 164, -2, -1 },
  { 0, 173, -1, -2 },
  { 0, 176, -2, 1 },
  { 1, 42, -2, 1 },
  { 0, 178, 1, -2 },
  { 2, 30, -1, -2 },
  { 1, 40, 1, 29 },
  { 0, 204, 1, 22 },
  { 0, 196, 1, 14 },
  { 2, 29, -1, 1 },
  { 0, 191, 1, 8 },
  { 1, 39, 1, 5 },
  { 0, 188, -2, 1 },
  { 0, 189, 1, -2 },
  { 1, 38, -2, 1 },
  { 2, 71, -2, -3 },
  { 0, 187, 1, -2 },
  { 2, 35, -1, -2 },
  { 1, 39, 1, -2 },
  { 0, 195, 1, -2 },
  { 1, 36, -2, 1 },
  { 2, 76, -2, -3 },
  { 1, 37, 1, 4 },
  { 0, 202, 1, 2 },
  { 2, 49, -1, -3 },
  { 2, 32, -1, -2 },
  { 2, 28, -1, 1 },
  { 1, 38, -2, 1 },
  { 2, 75, -2, -3 },
  { 1, 38, 1, 2 },
  { 0, 208, -3, -2 },
  { 1, 39, 1, 3 },
  { 0, 205, 1, -2 },
  { 2, 113, -2, -3 },
  { 2, 97, -2, -3 },
  { 0, 202, 1, 24 },
  { 1, 42, 1, 10 },
  { 1, 41, 1, 4 },
  { 0, 198, 1, -1 },
  { 2, 34, -1, 1 },
  { 2, 70, -2, -3 },
  { 0, 200, 1, -1 },
  { 2, 29, -1, 1 },
  { 0, 188, 1, 2 },
  { 2, 32, -1, -2 },
  { 2, 115, -2, -3 },
  { 1, 44, 1, 6 },
  { 2, 30, -1, 1 },
  { 0, 190, -2, 1 },
  { 1, 43, 1, 2 },
  { 2, 73, -2, -3 },
  { 0, 194, -3, -2 },
  { 1, 47, 1, -1 },
  { 0, 200, 1, -2 },
  { 0, 196, 1, 2 },
  { 2, 48, -1, -2 },
  { 1, 46, 1, 2 },
  { 2, 35, -1, -2 },
  { 0, 197, -2, -1 },
  { 1, 49, 1, -3 },
  { 1, 47, 1, -2 },
  { 2, 32, -1, 1 },
  { 2, 79, -2, -3 },
  { 2, 29, -1, 1 },
  { 1, 49, 1, -3 },
  { 1, 41, 1, 8 },
  { 2, 75, 1, 6 },
  { 2, 30, 1, -2 },
  { 0, 171, 1, 2 },
  { 1, 37, -2, -1 },
  { 1, 36, 1, -2 },
  { 1, 35, -2, -1 },
  { 0, 189, -2, -3 },
  { 2, 75, 1, 13 },
  { 1, 42, 1, 5 },
  { 0, 168, 1, 2 },
  { 0, 166, -2, -1 },
  { 0, 187, 1, -2 },
  { 2, 32, -1, -2 },
  { 0, 175, 1, 2 },
  { 0, 172, -2, -1 },
  { 0, 198, -2, 1 },
  { 0, 206, 1, -2 },
  { 2, 33, 1, -2 },
  { 1, 43, -1, 1 },
  { 0, 203, -2, -1 },
  { 1, 42, -3, 1 },
  { 0, 182, -2, -3 },
  { 2, 29, -1, 1 },
  { 0, 196, 1, 23 },
  { 1, 38, 1, 5 },
  { 0, 191, 1, 3 },
  { 1, 37, -2, 1 },
  { 2, 30, -1, -2 },
  { 2, 73, -2, -3 },
  { 0, 181, 1, 8 },
  { 2, 30, 1, -2 },
  { 1, 41, 1, 4 },
  { 1, 39, -1, 1 },
  { 0, 173, -1, 1 },
  { 0, 178, -2, -1 },
  { 0, 172, 1, -1 },
  { 0, 169, -1, -2 },
  { 1, 42, 1, 7 },
  { 2, 76, 1, -3 },
  { 1, 40, -2, 1 },
  { 2, 75, 1, -3 },
  { 1, 41, -2, 1 },
  { 2, 30, 1, -2 },
  { 0, 188, -1, -2 },
  { 0, 190, -2, 1 },
  { 2, 75, -2, -3 },
  { 2, 75, 1, -3 },
  { 1, 42, -2, 1 },
  { 0, 199, 1, 4 },
  { 0, 198, -2, 1 },
  { 1, 43, 1, -2 },
  { 2, 39, -1, -2 },
  { 2, 31, 1, -2 },
  { 0, 203, -2, -1 },
  { 1, 38, 1, 12 },
  { 1, 35, 1, 2 },
  { 2, 29, -1, -2 },
  { 0, 183, 1, 4 },
  { 1, 37, 1, 2 },
  { 2, 31, -1, -2 },
  { 2, 30, -1, -2 },
  { 2, 28, -1, 1 },
  { 1, 37, 1, -2 },
  { 1, 36, 1, 2 },
  { 2, 40, -1, -2 },
  { 2, 75, -2, -3 },
  { 2, 30, 1, 14 },
  { 1, 41, 1, 3 },
  { 0, 204, -1, 1 },
  { 0, 206, -2, -1 },
  { 1, 44, 1, -1 },
  { 1, 43, 1, 7 },
  { 2, 29, -1, 1 },
  { 1, 42, 1, 4 },
  { 0, 169, -1, 1 },
  { 0, 188, 1, -2 },
  { 0, 179, -2, -1 },
  { 0, 188, -1, -1 },
  { 0, 194, -1, 1 },
  { 0, 201, -2, -1 },
  { 1, 43, 1, 11 },
  { 1, 42, 1, 8 },
  { 0, 207, 1, 6 },
  { 1, 39, 1, 4 },
  { 2, 75, -2, 1 },
  { 2, 76, 1, -3 },
  { 0, 189, -2, -3 },
  { 2, 76, -2, -3 },
  { 2, 100, -2, -3 },
  { 2, 73, -2, 1 },
  { 0, 182, -2, -3 },
  { 0, 194, 1, -2 },
  { 1, 44, -3, -2 },
  { 1, 45, 1, 44 },
  { 1, 42, 1, 21 },
  { 1, 38, 1, 10 },
  { 2, 29, -1, 1 },
  { 0, 192, 1, 7 },
  { 0, 181, -2, 1 },
  { 1, 35, -2, 1 },
  { 1, 36, 1, 3 },
  { 0, 188, 1, -2 },
  { 2, 34, -1, -2 },
  { 2, 30, -1, -2 },
  { 2, 74, -2, -3 },
  { 2, 29, -1, 1 },
  { 2, 75, 1, -3 },
  { 0, 181, 1, 6 },
  { 0, 180, 1, 3 },
  { 1, 39, 1, -2 },
  { 2, 31, -1, -2 },
  { 1, 39, -2, 1 },
  { 2, 32, -1, -2 },
  { 2, 30, 1, -2 },
  { 0, 188, -1, -2 },
  { 1, 43, 1, 8 },
  { 2, 30, 1, 3 },
  { 2, 29, -1, 1 },
  { 0, 188, -1, -1 },
  { 0, 196, 1, 2 },
  { 2, 75, -2, -3 },
  { 0, 211, 1, -2 },
  { 2, 73, -2, -3 },
  { 0, 190, 1, 3 },
  { 0, 179, 1, -1 },
  { 2, 28, -1, -2 },
  { 1, 44, 1, -2 },
  { 0, 210, 1, 5 },
  { 2, 32, 1, 3 },
  { 2, 28, -1, 1 },
  { 0, 203, -2, -1 },
  { 2, 74, -2, -3 },
  { 0, 222, 1, -3 },
  { 0, 215, 1, 3 },
  { 0, 213, 1, -2 },
  { 2, 42, -1, -2 },
  { 2, 36, -1, -2 },
  { 0, 196, 1, 2 },
  { 2, 29, -1, -2 },
  { 1, 49, 1, -3 },
  { 1, 47, 1, 3 },
  { 0, 199, 1, -2 },
  { 2, 26, -1, -2 },
  { 2, 29, -1, -2 },
  { 0, 180, 1, 10 },
  { 0, 179, 1, 7 },
  { 0, 178, 1, 5 },
  { 2, 30, 1, -2 },
  { 2, 29, -1, 1 },
  { 0, 171, -1, 1 },
  { 1, 42, -2, -1 },
  { 2, 30, -1, -2 },
  { 1, 42, 1, -1 },
  { 2, 36, -1, -2 },
  { 2, 29, -1, 1 },
  { 1, 42, 1, 7 },
  { 2, 75, 1, -3 },
  { 0, 188, 1, -2 },
  { 1, 36, 1, -2 },
  { 0, 187, -2, 1 },
  { 1, 35, -2, 1 },
  { 2, 34, -1, -2 },
  { 0, 226, 1, -3 },
  { 0, 207, 1, 11 },
  { 0, 205, 1, 7 },
  { 1, 43, 1, 5 },
  { 0, 196, 1, 2 },
  { 2, 74, -2, -3 },
  { 0, 203, 1, -2 },
  { 2, 73, -2, -3 },
  { 2, 76, -2, -3 },
  { 0, 206, 1, 2 },
  { 2, 37, -1, -2 },
  { 2, 86, -2, -3 },
  { 0, 219, -2, 1 },
  { 0, 220, -3, -2 },
  { 2, 29, -1, 1 },
  { 0, 196, 1, 18 },
  { 0, 188, 1, 8 },
  { 2, 30, 1, -2 },
  { 0, 187, 1, 4 },
  { 0, 176, 1, -1 },
  { 0, 171, 1, -2 },
  { 1, 38, -2, -1 },
  { 1, 36, 1, -2 },
  { 1, 35, -2, -1 },
  { 1, 39, 1, 2 },
  { 2, 75, -2, -3 },
  { 0, 190, -2, 1 },
  { 1, 42, -2, 1 },
  { 1, 43, 1, -2 },
  { 0, 191, 1, 2 },
  { 2, 63, -2, -3 },
  { 0, 194, -2, 1 },
  { 2, 70, -2, -3 },
  { 2, 75, 1, -3 },
  { 1, 42, -2, 1 },
  { 2, 31, 1, -2 },
  { 1, 43, -2, -2 },
  { 2, 29, -1, 1 },
  { 0, 199, 1, 12 },
  { 2, 75, 1, 10 },
  { 0, 188, 1, -2 },
  { 1, 41, 1, 7 },
  { 2, 30, 1, -2 },
  { 1, 35, -2, 1 },
  { 0, 179, 1, 2 },
  { 1, 39, -2, -2 },
  { 0, 187, -1, 1 },
  { 1, 36, -1, -2 },
  { 2, 30, -1, -2 },
  { 0, 189, -2, -3 },
  { 0, 226, 1, -3 },
  { 0, 202, 1, 4 },
  { 0, 201, 1, 2 },
  { 2, 76, -2, -3 },
  { 2, 101, -2, -3 },
  { 1, 49, 1, -3 },
  { 0, 212, 1, -2 },
  { 1, 43, 1, 2 },
  { 2, 84, -2, -3 },
  { 1, 45, 1, -2 },
  { 2, 32, -1, -2 },
  { 1, 49, 1, 53 },
  { 0, 173, 1, 2 },
  { 2, 29, -1, -2 },
  { 0, 199, 1, 19 },
  { 1, 45, 1, 15 },
  { 2, 29, -1, 1 },
  { 1, 42, 1, 7 },
  { 2, 75, 1, -3 },
  { 1, 38, -2, 1 },
  { 2, 30, 1, -2 },
  { 1, 39, -1, 1 },
  { 0, 187, 1, -2 },
  { 0, 181, -2, -1 },
  { 0, 193, -2, 1 },
  { 0, 197, 1, 3 },
  { 1, 43, 1, -3 },
  { 2, 74, -2, -3 },
  { 1, 43, 1, -2 },
  { 2, 54, -2, -3 },
  { 0, 180, 1, 2 },
  { 0, 178, -1, -2 },
  { 2, 28, -1, -2 },
  { 0, 208, 1, 24 },
  { 1, 40, 1, 14 },
  { 0, 204, 1, 5 },
  { 1, 38, 1, -2 },
  { 2, 38, -1, 1 },
  { 0, 202, 1, -2 },
  { 2, 71, -2, -3 },
  { 0, 205, 1, 2 },
  { 2, 65, -2, -3 },
  { 1, 39, -2, 1 },
  { 0, 207, 1, 4 },
  { 2, 31, -1, 1 },
  { 0, 206, 1, -2 },
  { 2, 106, -2, -3 },
  { 2, 97, -2, -3 },
  { 2, 29, -1, 1 },
  { 0, 206, 1, 6 },
  { 1, 43, 1, -2 },
  { 0, 203, 1, -2 },
  { 0, 200, -2, 1 },
  { 1, 42, -2, 1 },
  { 2, 75, -2, -3 },
  { 1, 42, -2, 1 },
  { 1, 43, -3, -2 },
  { 2, 113, 1, -3 },
  { 0, 216, 1, -2 },
  { 1, 43, -2, 1 },
  { 0, 215, 1, 3 },
  { 1, 44, 1, -2 },
  { 2, 30, -1, -2 },
  { 2, 36, -1, -2 },
  { 0, 197, -1, -3 },
  { 1, 45, 1, 25 },
  { 1, 43, 1, 17 },
  { 2, 29, -1, 1 },
  { 2, 75, 1, 14 },
  { 1, 39, 1, 7 },
  { 1, 36, 1, 4 },
  { 1, 35, -2, 1 },
  { 0, 190, 1, -2 },
  { 2, 34, -1, -2 },
  { 2, 30, 1, -2 },
  { 0, 187, -2, -2 },
  { 0, 181, 1, 4 },
  { 2, 30, 1, -2 },
  { 0, 173, -1, 1 },
  { 0, 178, -2, -1 },
  { 2, 30, 1, -2 },
  { 1, 42, -2, -1 },
  { 0, 189, -2, -3 },
  { 1, 44, 1, 5 },
  { 0, 190, -1, 1 },
  { 0, 223, 1, -3 },
  { 0, 205, -2, 1 },
  { 2, 32, -1, -2 },
  { 0, 204, 1, -2 },
  { 2, 35, -1, -2 },
  { 1, 47, 1, 4 },
  { 1, 46, 1, 2 },
  { 0, 199, -1, -2 },
  { 2, 32, -1, -2 },
  { 2, 20, -1, -2 },
  { 0, 196, 1, 30 },
  { 0, 178, 1, 9 },
  { 2, 30, 1, -2 },
  { 1, 38, -1, 1 },
  { 1, 40, 1, -1 },
  { 1, 39, 1, 3 },
  { 0, 176, -1, 1 },
  { 2, 25, -1, -1 },
  { 2, 29, -1, 1 },
  { 0, 173, -1, -2 },
  { 1, 42, 1, 16 },
  { 1, 38, 1, 7 },
  { 2, 30, 1, 4 },
  { 2, 29, -1, 1 },
  { 1, 36, -1, 1 },
  { 1, 37, -2, -1 },
  { 1, 36, -2, 1 },
  { 2, 75, -2, -3 },
  { 2, 29, -1, 1 },
  { 1, 39, 1, 4 },
  { 0, 194, 1, 2 },
  { 2, 76, -2, -3 },
  { 2, 91, -2, -3 },
  { 1, 40, 1, 2 },
  { 2, 32, -1, -2 },
  { 2, 115, -2, -3 },
  { 2, 30, -1, 1 },
  { 1, 43, 1, -2 },
  { 0, 190, -2, 1 },
  { 2, 74, -2, -3 },
  { 1, 40, 1, 26 },
  { 0, 199, 1, 10 },
  { 1, 38, -1, 1 },
  { 0, 198, 1, 6 },
  { 1, 39, 1, 3 },
  { 2, 26, -1, 1 },
  { 2, 82, -2, -3 },
  { 0, 197, -2, 1 },
  { 2, 32, -1, -2 },
  { 1, 39, 1, -1 },
  { 2, 37, -1, -2 },
  { 0, 208, 1, 14 },
  { 0, 204, 1, 5 },
  { 0, 202, 1, -2 },
  { 2, 74, 1, -3 },
  { 0, 200, 1, -2 },
  { 2, 31, -1, -2 },
  { 0, 206, 1, 5 },
  { 1, 39, 1, 3 },
  { 0, 205, 1, -2 },
  { 2, 113, -2, -3 },
  { 2, 106, -2, -3 },
  { 0, 207, -2, 1 },
  { 1, 39, -2, 1 },
  { 2, 97, -2, -3 },
  { 2, 119, -2, -3 },
  { 2, 31, -1, 1 },
  { 2, 74, -2, -3 },
  { 2, 29, -1, 1 },
  { 0, 196, 1, 13 },
  { 0, 190, 1, 11 },
  { 1, 46, 1, 9 },
  { 1, 38, 1, 3 },
  { 2, 30, 1, -2 },
  { 1, 35, -2, -1 },
  { 0, 187, 1, -2 },
  { 2, 31, 1, -2 },
  { 0, 176, 1, -1 },
  { 1, 39, -1, 1 },
  { 0, 169, -1, -2 },
  { 2, 36, -1, -2 },
  { 2, 75, -2, -3 },
  { 2, 74, 1, -3 },
  { 0, 199, 1, -2 },
  { 1, 42, -2, 1 },
  { 1, 43, 1, -2 },
  { 2, 39, -1, -2 },
  { 2, 30, 1, 22 },
  { 1, 47, 1, 20 },
  { 0, 200, 1, 17 },
  { 0, 171, 1, 3 },
  { 1, 35, 1, -1 },
  { 2, 28, -1, -2 },
  { 0, 189, 1, -1 },
  { 0, 187, 1, 6 },
  { 2, 29, -1, 1 },
  { 0, 172, -2, 1 },
  { 0, 180, 1, -1 },
  { 1, 41, 1, -1 },
  { 0, 176, -2, -1 },
  { 0, 188, 1, 4 },
  { 1, 37, 1, -1 },
  { 1, 35, -2, 1 },
  { 1, 36, -1, -2 },
  { 1, 40, -1, 1 },
  { 2, 24, -1, -2 },
  { 2, 29, -1, 1 },
  { 1, 42, -2, -1 },
  { 2, 19, -1, -2 },
  { 2, 75, -2, 1 },
  { 0, 188, -2, -3 },
  { 1, 38, 1, 9 },
  { 2, 30, 1, 5 },
  { 1, 37, 1, -1 },
  { 0, 187, -1, 1 },
  { 2, 29, -1, 1 },
  { 1, 36, -1, -2 },
  { 1, 37, 1, -2 },
  { 1, 36, -2, 1 },
  { 2, 75, -2, -3 },
  { 0, 188, 1, 11 },
  { 1, 39, 1, 2 },
  { 2, 28, -1, -2 },
  { 2, 31, 1, -2 },
  { 1, 42, 1, -1 },
  { 1, 41, 1, 4 },
  { 0, 175, -1, 1 },
  { 2, 29, -1, 1 },
  { 0, 178, -2, -1 },
  { 0, 173, 1, -1 },
  { 2, 29, -1, -2 },
  { 2, 29, -1, 1 },
  { 1, 42, 1, 2 },
  { 2, 75, -2, -3 },
  { 1, 43, 1, 4 },
  { 2, 73, 1, -3 },
  { 0, 201, 1, -2 },
  { 2, 30, -1, -2 },
  { 1, 49, 1, -3 },
  { 2, 31, 1, 2 },
  { 0, 203, -2, -1 },
  { 2, 76, -2, -3 },
  { 0, 178, 1, 12 },
  { 1, 40, 1, 5 },
  { 2, 29, -1, 1 },
  { 2, 31, 1, -2 },
  { 1, 37, -2, 1 },
  { 0, 176, -2, -1 },
  { 1, 41, 1, 2 },
  { 0, 173, -1, -2 },
  { 2, 30, 1, -2 },
  { 1, 42, 1, -1 },
  { 0, 171, -1, 1 },
  { 2, 29, -1, -2 },
  { 2, 29, -1, 1 },
  { 1, 49, 1, -3 },
  { 0, 190, 1, 4 },
  { 1, 39, -2, 1 },
  { 1, 40, 1, -2 },
  { 0, 183, -1, -2 },
  { 0, 225, 1, -3 },
  { 2, 75, 1, -3 },
  { 2, 30, 1, -2 },
  { 0, 205, 1, -1 },
  { 1, 41, -2, 1 },
  { 1, 43, -1, -2 },
  { 1, 40, 1, 25 },
  { 0, 183, 1, 4 },
  { 0, 161, 1, 2 },
  { 2, 26, -1, -2 },
  { 2, 31, -1, -2 },
  { 0, 200, 1, 9 },
  { 2, 29, -1, 1 },
  { 2, 75, 1, 6 },
  { 1, 36, 1, -2 },
  { 0, 187, -2, 1 },
  { 1, 35, -2, 1 },
  { 0, 188, 1, -2 },
  { 2, 34, -1, -2 },
  { 0, 189, -2, -3 },
  { 0, 208, 1, 10 },
  { 1, 38, 1, 3 },
  { 0, 204, -1, 1 },
  { 0, 206, -3, -2 },
  { 1, 39, 1, 3 },
  { 0, 201, -2, 1 },
  { 2, 104, -2, -3 },
  { 0, 203, -2, 1 },
  { 2, 71, 1, -3 },
  { 2, 31, -1, -2 },
  { 2, 119, -2, -3 },
  { 1, 42, 1, 6 },
  { 2, 29, -1, 1 },
  { 1, 41, -2, 1 },
  { 2, 115, 1, -3 },
  { 0, 173, 1, -2 },
  { 2, 35, -1, -2 },
  { 2, 30, 1, 5 },
  { 2, 29, -1, 1 },
  { 0, 184, -1, 1 },
  { 1, 43, -2, 1 },
  { 1, 46, -1, -2 },
  { 1, 43, 1, 2 },
  { 2, 77, -2, -3 },
  { 0, 225, 1, -3 },
  { 2, 76, -2, -3 },
  { 0, 183, 1, 6 },
  { 1, 36, 1, 2 },
  { 2, 29, -1, -2 },
  { 2, 29, -1, 1 },
  { 2, 30, 1, -2 },
  { 0, 173, -1, -2 },
  { 2, 29, -1, 1 },
  { 0, 191, 1, 10 },
  { 1, 36, 1, 4 },
  { 1, 35, -2, 1 },
  { 0, 188, 1, -2 },
  { 2, 34, -1, -2 },
  { 1, 42, 1, 4 },
  { 1, 39, -2, 1 },
  { 2, 31, 1, -2 },
  { 1, 41, -1, -2 },
  { 2, 74, -2, -3 },
  { 2, 75, -2, -3 },
  { 1, 49, 1, -3 },
  { 2, 29, -1, 1 },
  { 0, 190, 1, 11 },
  { 1, 38, 1, 4 },
  { 1, 37, -2, 1 },
  { 0, 179, -2, 1 },
  { 2, 30, -1, -2 },
  { 2, 30, 1, 5 },
  { 0, 187, 1, -2 },
  { 0, 175, -1, 1 },
  { 0, 181, 1, -1 },
  { 1, 41, -1, -1 },
  { 2, 76, -2, -3 },
  { 2, 75, 1, -3 },
  { 0, 198, -2, 1 },
  { 1, 42, -2, 1 },
  { 0, 199, 1, 3 },
  { 1, 43, 1, -2 },
  { 2, 39, -1, -2 },
  { 0, 206, 1, -2 },
  { 1, 43, -2, 1 },
  { 0, 205, -2, 1 },
  { 2, 37, -1, -2 },
  { 1, 38, 1, 28 },
  { 0, 183, 1, 5 },
  { 0, 175, 1, 2 },
  { 2, 29, -1, -2 },
  { 1, 36, -2, 1 },
  { 2, 30, -1, -2 },
  { 0, 191, 1, 9 },
  { 0, 185, 1, 2 },
  { 2, 30, -1, -2 },
  { 2, 29, -1, 1 },
  { 1, 36, 1, -2 },
  { 0, 187, -2, 1 },
  { 1, 35, -2, 1 },
  { 0, 188, 1, -2 },
  { 2, 34, -1, -2 },
  { 1, 37, 1, 12 },
  { 1, 36, 1, 2 },
  { 2, 34, -1, -2 },
  { 0, 204, 1, 8 },
  { 0, 202, 1, 6 },
  { 2, 29, -1, 1 },
  { 0, 198, 1, 3 },
  { 0, 193, 1, -2 },
  { 2, 58, -2, -3 },
  { 2, 71, -2, -3 },
  { 2, 32, -1, -2 },
  { 0, 206, -3, -2 },
  { 2, 31, -1, -2 },
  { 2, 29, -1, 1 },
  { 2, 75, 1, 9 },
  { 2, 30, 1, -2 },
  { 0, 185, 1, 4 },
  { 1, 39, -1, 1 },
  { 0, 174, -1, 1 },
  { 0, 178, -2, -1 },
  { 0, 198, -2, 1 },
  { 1, 41, -2, 1 },
  { 1, 43, -1, -1 },
  { 2, 76, 1, -3 },
  { 0, 189, -2, -3 },
  { 0, 184, 1, 12 },
  { 2, 30, 1, -2 },
  { 0, 161, 1, 3 },
  { 1, 36, 1, -1 },
  { 2, 16, -1, -2 },
  { 1, 41, 1, 5 },
  { 2, 29, -1, 1 },
  { 1, 38, -1, 1 },
  { 1, 39, 1, -1 },
  { 0, 172, -1, -1 },
  { 1, 42, 1, -1 },
  { 2, 29, -1, -2 },
  { 1, 40, 1, 24 },
  { 0, 200, 1, 12 },
  { 2, 30, 1, 8 },
  { 1, 35, 1, 3 },
  { 0, 187, -1, 1 },
  { 0, 190, -2, -1 },
  { 2, 29, -1, 1 },
  { 0, 193, 1, -2 },
  { 1, 36, -1, 1 },
  { 1, 38, -2, -1 },
  { 2, 75, -2, 1 },
  { 1, 38, -3, 1 },
  { 0, 188, -2, -3 },
  { 1, 39, 1, 9 },
  { 1, 38, 1, 4 },
  { 2, 32, -1, 1 },
  { 0, 206, 1, -2 },
  { 0, 204, -2, -3 },
  { 0, 202, 1, 3 },
  { 0, 201, -2, 1 },
  { 2, 100, -2, -3 },
  { 2, 120, -2, -3 },
  { 2, 73, 1, -3 },
  { 2, 26, -1, -2 },
  { 1, 46, 1, 8 },
  { 2, 30, -1, 1 },
  { 1, 42, 1, 4 },
  { 0, 191, 1, -2 },
  { 1, 41, 1, -2 },
  { 2, 66, -2, -3 },
  { 0, 193, -2, 1 },
  { 2, 74, -2, -3 },
  { 0, 196, -1, -2 },
  { 2, 29, -1, 1 },
  { 1, 49, 1, -3 },
  { 2, 75, 1, 24 },
  { 1, 41, 1, 8 },
  { 2, 30, 1, -2 },
  { 1, 37, -2, 1 },
  { 1, 38, -1, 1 },
  { 1, 39, 1, 3 },
  { 0, 172, -1, 1 },
  { 0, 187, -2, -2 },
  { 0, 188, -1, -2 },
  { 1, 44, 1, 14 },
  { 0, 187, 1, 9 },
  { 0, 186, 1, 7 },
  { 1, 43, 1, -2 },
  { 1, 42, 1, 3 },
  { 0, 169, 1, -2 },
  { 0, 166, -2, -1 },
  { 0, 178, 1, -2 },
  { 2, 30, -1, -2 },
  { 1, 42, -1, -2 },
  { 2, 30, 1, -2 },
  { 1, 42, -2, 1 },
  { 0, 203, 1, -1 },
  { 1, 43, -1, -2 },
  { 2, 31, -1, -2 },
  { 1, 42, -3, 1 },
  { 0, 180, -2, -3 },
  { 2, 29, -1, 1 },
  { 1, 42, 1, 27 },
  { 0, 196, 1, 10 },
  { 0, 192, 1, 8 },
  { 1, 41, 1, 5 },
  { 2, 76, 1, -3 },
  { 1, 39, -2, 1 },
  { 0, 184, -2, 1 },
  { 2, 31, -1, -2 },
  { 2, 30, 1, -2 },
  { 0, 188, -1, -2 },
  { 2, 75, -2, -3 },
  { 0, 208, 1, -2 },
  { 0, 204, 1, 6 },
  { 1, 38, 1, 2 },
  { 2, 71, -2, -3 },
  { 0, 197, 1, 2 },
  { 2, 74, -2, -3 },
  { 2, 72, -2, -3 },
  { 1, 38, 1, 2 },
  { 2, 67, -2, -3 },
  { 1, 39, 1, 2 },
  { 2, 114, -2, -3 },
  { 1, 41, 1, 4 },
  { 0, 207, 1, 2 },
  { 2, 106, -2, -3 },
  { 2, 97, -2, -3 },
  { 2, 81, -2, -3 },
  { 0, 207, 1, 13 },
  { 0, 190, 1, 3 },
  { 1, 45, -2, 1 },
  { 2, 36, -1, -2 },
  { 1, 43, 1, 5 },
  { 0, 206, 1, -3 },
  { 2, 73, 1, -3 },
  { 0, 197, -2, 1 },
  { 0, 199, -1, -2 },
  { 2, 76, 1, -3 },
  { 1, 45, 1, -2 },
  { 2, 33, 1, -2 },
  { 0, 203, -2, -1 },
  { 1, 49, 1, -3 },
  { 1, 43, 1, -2 },
  { 0, 211, 1, -2 },
  { 2, 102, -2, -3 },
  { 0, 179, 1, 8 },
  { 2, 30, 1, -2 },
  { 0, 161, 1, 2 },
  { 2, 29, -1, -2 },
  { 2, 29, -1, 1 },
  { 1, 41, 1, -1 },
  { 1, 39, -1, 1 },
  { 0, 173, -1, -2 },
  { 0, 203, 1, 28 },
  { 1, 42, 1, 18 },
  { 2, 30, 1, 7 },
  { 1, 38, -1, 1 },
  { 0, 197, 1, 4 },
  { 0, 189, -1, 1 },
  { 1, 41, -1, 1 },
  { 2, 29, -1, -2 },
  { 2, 29, -1, -2 },
  { 0, 191, 1, 3 },
  { 0, 190, -2, 1 },
  { 2, 75, -2, -3 },
  { 1, 38, 1, 5 },
  { 0, 199, 1, 3 },
  { 0, 193, 1, -2 },
  { 1, 36, -2, -3 },
  { 2, 71, -2, -3 },
  { 0, 198, 1, -2 },
  { 2, 74, -2, -3 },
  { 1, 43, 1, 7 },
  { 2, 30, 1, 2 },
  { 2, 29, -1, -1 },
  { 0, 202, 1, -3 },
  { 0, 193, 1, -2 },
  { 0, 189, -2, 1 },
  { 2, 63, -2, -3 },
  { 2, 29, -1, 1 },
  { 2, 76, -2, -3 },
  { 2, 74, 1, -3 },
  { 0, 217, 1, -2 },
  { 1, 46, 1, 3 },
  { 1, 42, -2, 1 },
  { 2, 31, -1, -2 },
  { 1, 47, -1, -2 },
  { 0, 174, 1, 9 },
  { 1, 49, 1, -1 },
  { 1, 46, 1, 6 },
  { 2, 30, 1, -2 },
  { 1, 35, 1, -1 },
  { 0, 161, 1, -1 },
  { 0, 160, -1, 1 },
  { 2, 16, -1, -2 },
  { 2, 36, -1, -2 },
  { 1, 40, 1, 43 },
  { 1, 39, 1, 32 },
  { 0, 183, 1, 6 },
  { 1, 38, 1, 2 },
  { 2, 31, -1, -2 },
  { 0, 176, 1, 2 },
  { 2, 19, -1, -2 },
  { 2, 29, -1, -2 },
  { 1, 37, 1, 12 },
  { 2, 29, -1, 1 },
  { 0, 198, 1, 7 },
  { 2, 75, 1, -3 },
  { 0, 187, -2, 1 },
  { 0, 189, 1, -2 },
  { 2, 34, 1, -2 },
  { 1, 35, -2, 1 },
  { 1, 36, -1, -2 },
  { 0, 208, 1, -2 },
  { 0, 202, 1, -3 },
  { 2, 65, -2, -3 },
  { 1, 38, 1, 7 },
  { 0, 186, 1, 4 },
  { 0, 185, 1, 2 },
  { 2, 28, -1, -2 },
  { 2, 29, -1, -2 },
  { 2, 32, -1, 1 },
  { 2, 77, -2, -3 },
  { 0, 197, 1, 5 },
  { 0, 196, 1, -1 },
  { 2, 30, -1, 1 },
  { 2, 75, -2, 1 },
  { 0, 189, -2, -3 },
  { 2, 110, -2, -3 },
  { 0, 192, 1, 2 },
  { 2, 29, -1, -2 },
  { 0, 198, 1, 4 },
  { 2, 25, -1, 1 },
  { 0, 197, -2, 1 },
  { 2, 72, -2, -3 },
  { 0, 213, 1, -2 },
  { 2, 105, 1, -3 },
  { 0, 206, -2, 1 },
  { 2, 31, -1, -2 },
  { 2, 29, -1, 1 },
  { 1, 42, 1, 8 },
  { 0, 205, 1, 5 },
  { 1, 41, -2, 1 },
  { 0, 187, 1, 2 },
  { 0, 185, -2, -1 },
  { 2, 115, -2, -3 },
  { 1, 41, -2, 1 },
  { 2, 81, -2, -3 },
  { 2, 75, 1, -3 },
  { 0, 178, 1, 2 },
  { 2, 30, -1, -2 },
  { 2, 30, 1, -2 },
  { 1, 43, -1, 1 },
  { 0, 203, -2, -1 },
  { 1, 40, 1, 16 },
  { 2, 30, 1, 14 },
  { 1, 35, 1, 4 },
  { 0, 187, 1, -2 },
  { 0, 161, 1, -1 },
  { 2, 25, -1, -2 },
  { 1, 39, 1, 5 },
  { 2, 29, -1, 1 },
  { 0, 194, 1, -2 },
  { 1, 36, -1, 1 },
  { 1, 38, -2, -1 },
  { 0, 175, -1, 1 },
  { 2, 29, -1, 1 },
  { 0, 181, -2, 1 },
  { 0, 195, -1, -2 },
  { 2, 75, -2, -3 },
  { 2, 29, -1, 1 },
  { 2, 75, 1, -3 },
  { 1, 41, -2, 1 },
  { 1, 47, 1, -2 },
  { 1, 46, 1, 5 },
  { 2, 30, 1, -2 },
  { 0, 169, -1, 1 },
  { 1, 42, -2, 1 },
  { 1, 43, -1, -1 },
  { 0, 185, 1, -2 },
  { 2, 36, -1, -2 },
  { 0, 183, 1, 16 },
  { 0, 174, 1, 6 },
  { 2, 31, 1, -2 },
  { 2, 29, -1, 1 },
  { 0, 164, -2, 1 },
  { 1, 41, -1, 1 },
  { 0, 169, -1, -2 },
  { 2, 30, 1, -2 },
  { 0, 177, 1, -1 },
  { 1, 40, 1, -1 },
  { 0, 175, -1, 1 },
  { 0, 176, 1, 3 },
  { 1, 39, -1, 1 },
  { 2, 26, -1, -2 },
  { 1, 38, -1, 1 },
  { 2, 27, -1, -1 },
  { 0, 202, 1, 33 },
  { 0, 191, 1, 26 },
  { 1, 42, 1, 24 },
  { 1, 39, 1, 17 },
  { 0, 189, 1, 10 },
  { 0, 186, 1, 4 },
  { 0, 185, 1, 2 },
  { 2, 28, -1, -2 },
  { 2, 31, -1, -2 },
  { 1, 36, 1, 4 },
  { 2, 35, 1, -2 },
  { 1, 35, 1, -1 },
  { 2, 24, -1, -2 },
  { 2, 30, -1, -2 },
  { 1, 38, 1, 5 },
  { 0, 190, 1, 3 },
  { 1, 37, -1, 1 },
  { 2, 31, -1, -2 },
  { 2, 32, -1, -2 },
  { 2, 30, -1, -2 },
  { 0, 186, 1, 2 },
  { 2, 34, -1, -2 },
  { 2, 29, -1, 1 },
  { 0, 190, -2, 1 },
  { 1, 40, -2, 1 },
  { 1, 41, -3, -2 },
  { 2, 28, -1, -2 },
  { 2, 29, -1, 1 },
  { 2, 75, 1, -3 },
  { 0, 198, -2, 1 },
  { 1, 42, -2, 1 },
  { 2, 40, 1, -2 },
  { 0, 199, -1, -2 },
  { 2, 78, 1, -3 },
  { 2, 31, 1, -2 },
  { 0, 205, 1, -1 },
  { 0, 204, -1, 1 },
  { 1, 43, -2, -1 },
  { 1, 45, 1, 28 },
  { 0, 184, 1, 7 },
  { 2, 30, 1, -2 },
  { 2, 29, -1, 1 },
  { 1, 41, 1, -2 },
  { 1, 39, -1, 1 },
  { 0, 178, 1, -1 },
  { 0, 173, -1, -2 },
  { 2, 29, -1, 1 },
  { 0, 193, 1, 12 },
  { 0, 187, 1, 5 },
  { 1, 41, 1, 2 },
  { 2, 31, -1, -2 },
  { 1, 42, 1, -2 },
  { 2, 32, -1, -2 },
  { 0, 190, -2, 1 },
  { 0, 191, 1, -2 },
  { 1, 42, 1, 3 },
  { 1, 40, -2, 1 },
  { 2, 75, -2, -3 },
  { 2, 63, -2, -3 },
  { 1, 42, 1, 2 },
  { 2, 75, -2, -3 },
  { 1, 43, 1, 2 },
  { 2, 72, -2, -3 },
  { 0, 196, -3, 1 },
  { 2, 32, 1, -2 },
  { 0, 203, -2, -1 },
  { 1, 46, 1, 2 },
  { 0, 200, -1, -2 },
  { 0, 196, 1, -2 },
  { 2, 28, -1, -2 },
  { 1, 38, 1, 19 },
  { 0, 183, 1, 4 },
  { 2, 29, -1, 1 },
  { 2, 30, 1, -2 },
  { 1, 36, -2, -1 },
  { 1, 35, 1, 2 },
  { 2, 32, -1, -2 },
  { 1, 37, 1, 6 },
  { 2, 33, -1, 1 },
  { 1, 36, -2, 1 },
  { 0, 198, -2, 1 },
  { 0, 202, 1, -2 },
  { 2, 71, -2, -3 },
  { 0, 193, 1, 4 },
  { 0, 191, 1, 2 },
  { 2, 28, -1, -2 },
  { 0, 192, -1, -3 },
  { 0, 194, -2, 1 },
  { 2, 27, -1, -2 },
  { 1, 40, 1, 16 },
  { 1, 39, 1, 8 },
  { 2, 29, -1, 1 },
  { 2, 76, 1, -3 },
  { 2, 30, 1, 3 },
  { 0, 187, 1, -2 },
  { 0, 172, -1, -1 },
  { 2, 75, -2, 1 },
  { 0, 189, -2, -3 },
  { 2, 29, -1, 1 },
  { 0, 187, 1, 5 },
  { 0, 183, 1, 3 },
  { 2, 31, 1, -2 },
  { 0, 173, -1, -2 },
  { 2, 35, -1, -2 },
  { 2, 75, -2, -3 },
  { 2, 29, -1, 1 },
  { 2, 75, 1, -3 },
  { 0, 173, 1, 2 },
  { 2, 35, -1, -2 },
  { 1, 42, -2, 1 },
  { 0, 205, 1, 4 },
  { 0, 198, -2, 1 },
  { 2, 31, 1, -2 },
  { 1, 43, -1, -2 },
  { 1, 44, 1, -2 },
  { 2, 32, -1, -2 },
  { 0, 186, 1, 51 },
  { 0, 159, 1, 6 },
  { 0, 157, 1, 3 },
  { 1, 36, -1, 1 },
  { 0, 152, -2, -1 },
  { 1, 38, 1, -2 },
  { 2, 27, -1, -2 },
  { 1, 43, 1, 39 },
  { 1, 42, 1, 35 },
  { 0, 173, 1, 17 },
  { 1, 41, 1, 13 },
  { 0, 166, 1, 9 },
  { 0, 161, 1, 2 },
  { 2, 30, -1, -2 },
  { 0, 162, 1, 2 },
  { 2, 32, -1, -2 },
  { 0, 163, 1, 3 },
  { 1, 36, -2, 1 },
  { 2, 43, -1, -2 },
  { 2, 36, -1, -2 },
  { 1, 40, 1, 2 },
  { 2, 31, -1, -2 },
  { 2, 40, -1, -2 },
  { 2, 29, -1, 1 },
  { 0, 166, -2, 1 },
  { 0, 168, -1, -2 },
  { 0, 174, 1, 3 },
  { 1, 40, 1, -2 },
  { 2, 27, -1, -2 },
  { 1, 41, 1, 13 },
  { 1, 40, 1, 8 },
  { 2, 29, -1, 1 },
  { 0, 176, -2, 1 },
  { 1, 39, 1, 4 },
  { 0, 178, -2, 1 },
  { 1, 37, -2, 1 },
  { 2, 31, -1, -2 },
  { 2, 31, -1, -2 },
  { 0, 184, 1, 2 },
  { 2, 30, -1, -2 },
  { 0, 185, -1, 1 },
  { 2, 43, -1, -2 },
  { 2, 29, -1, -2 },
  { 0, 165, -2, 1 },
  { 0, 168, -1, 1 },
  { 2, 29, -1, -2 },
  { 1, 47, 1, 4 },
  { 1, 45, 1, -1 },
  { 0, 170, 1, -1 },
  { 0, 167, -1, -2 },
  { 0, 171, -1, -2 },
  { 0, 198, 1, 50 },
  { 1, 42, 1, 34 },
  { 1, 38, 1, 18 },
  { 1, 36, 1, 4 },
  { 0, 187, 1, 2 },
  { 2, 31, -1, -2 },
  { 2, 29, -1, -2 },
  { 1, 37, 1, 9 },
  { 0, 191, 1, 5 },
  { 0, 188, 1, 3 },
  { 0, 187, 1, -2 },
  { 2, 27, -1, -2 },
  { 2, 32, -1, -2 },
  { 2, 28, -1, 1 },
  { 0, 194, 1, -2 },
  { 2, 58, -2, -3 },
  { 2, 29, -1, 1 },
  { 0, 192, -2, 1 },
  { 0, 193, 1, -2 },
  { 2, 65, -2, -3 },
  { 1, 39, 1, 10 },
  { 0, 196, 1, 8 },
  { 0, 194, 1, 5 },
  { 2, 30, -1, 1 },
  { 2, 75, -2, 1 },
  { 2, 76, 1, -3 },
  { 0, 189, -2, -3 },
  { 2, 30, -1, 1 },
  { 2, 91, -2, -3 },
  { 0, 197, -3, -2 },
  { 2, 29, -1, 1 },
  { 0, 187, 1, 2 },
  { 2, 32, -1, -2 },
  { 1, 40, -2, 1 },
  { 2, 75, -2, -3 },
  { 0, 189, -1, 1 },
  { 1, 44, 1, 13 },
  { 0, 193, 1, 6 },
  { 2, 33, -1, 1 },
  { 1, 43, 1, -2 },
  { 0, 190, -2, 1 },
  { 0, 191, 1, -2 },
  { 2, 66, -2, -3 },
  { 2, 32, -1, 1 },
  { 0, 194, 1, 3 },
  { 1, 43, 1, -3 },
  { 2, 73, -2, -3 },
  { 1, 43, 1, -2 },
  { 2, 74, -2, -3 },
  { 2, 28, -1, -2 },
  { 0, 225, 1, -3 },
  { 0, 207, 1, 7 },
  { 2, 76, 1, -3 },
  { 2, 28, -1, 1 },
  { 1, 43, 1, 3 },
  { 2, 31, 1, -2 },
  { 0, 200, -2, -2 },
  { 2, 33, -1, -2 },
  { 0, 210, 1, 2 },
  { 2, 95, -2, -3 },
  { 2, 32, -1, 1 },
  { 0, 211, 1, -2 },
  { 1, 43, 1, -2 },
  { 2, 86, -2, -3 },
  { 0, 179, 1, 8 },
  { 2, 30, 1, -2 },
  { 0, 175, 1, 4 },
  { 0, 161, 1, -1 },
  { 0, 160, -1, 1 },
  { 2, 20, -1, -2 },
  { 2, 29, -1, 1 },
  { 1, 39, -1, -2 },
  { 0, 198, 1, 7 },
  { 2, 29, -1, 1 },
  { 2, 75, 1, 3 },
  { 2, 30, 1, -2 },
  { 0, 187, -1, -2 },
  { 1, 39, 1, -3 },
  { 0, 188, -2, -3 },
  { 1, 40, 1, 7 },
  { 2, 74, 1, -3 },
  { 1, 38, 1, 4 },
  { 1, 37, 1, 2 },
  { 2, 33, -1, -2 },
  { 2, 30, -1, -2 },
  { 2, 28, -1, -2 },
  { 2, 74, 1, -3 },
  { 2, 29, -1, -2 },
  { 1, 40, 1, 38 },
  { 1, 38, 1, 6 },
  { 2, 30, 1, 4 },
  { 2, 29, -1, 1 },
  { 1, 35, -2, 1 },
  { 1, 36, -1, -2 },
  { 2, 77, -2, -3 },
  { 0, 193, 1, 17 },
  { 1, 39, 1, 7 },
  { 0, 165, -2, 1 },
  { 0, 167, -1, 1 },
  { 2, 29, -1, 1 },
  { 0, 188, 1, 2 },
  { 2, 31, -2, -2 },
  { 2, 76, -2, -3 },
  { 0, 187, 1, 7 },
  { 0, 165, 1, 2 },
  { 2, 38, -1, -2 },
  { 2, 29, -1, 1 },
  { 2, 31, 1, -2 },
  { 0, 173, -1, 1 },
  { 0, 178, -2, -1 },
  { 0, 192, 1, -1 },
  { 2, 31, -1, -2 },
  { 1, 39, 1, 3 },
  { 2, 72, 1, -3 },
  { 2, 29, -1, -2 },
  { 0, 203, 1, 10 },
  { 0, 194, -2, 1 },
  { 0, 195, -1, 1 },
  { 0, 197, 1, 3 },
  { 0, 196, 1, -2 },
  { 2, 26, -1, -2 },
  { 0, 198, 1, 3 },
  { 2, 29, -1, 1 },
  { 2, 71, -2, -3 },
  { 2, 29, -1, -2 },
  { 2, 102, -2, -3 },
  { 1, 45, 1, 30 },
  { 1, 43, 1, 18 },
  { 1, 42, 1, 10 },
  { 2, 29, -1, 1 },
  { 0, 205, 1, 7 },
  { 1, 41, 1, 2 },
  { 2, 69, -2, -3 },
  { 0, 192, 1, 3 },
  { 2, 31, 1, -2 },
  { 0, 169, -1, -2 },
  { 2, 110, -2, -3 },
  { 2, 81, -2, -3 },
  { 2, 32, 1, 2 },
  { 0, 198, -1, -1 },
  { 0, 200, 1, 4 },
  { 0, 190, -2, 1 },
  { 0, 191, 1, -2 },
  { 2, 66, -2, -3 },
  { 2, 69, -2, -3 },
  { 1, 44, 1, 9 },
  { 0, 189, 1, 3 },
  { 0, 178, -1, 1 },
  { 0, 179, -2, -1 },
  { 0, 194, 1, 3 },
  { 2, 66, 1, -3 },
  { 0, 191, -2, -1 },
  { 0, 222, 1, -3 },
  { 2, 27, -1, -2 },
  { 0, 212, 1, -2 },
  { 0, 183, -2, -1 },
  { 1, 47, 1, 5 },
  { 1, 46, 1, 3 },
  { 0, 199, 1, -2 },
  { 2, 37, -1, -2 },
  { 2, 33, -1, -2 },
  { 2, 24, -1, -2 },
  { 0, 178, 1, 9 },
  { 1, 36, 1, 3 },
  { 1, 35, 1, -1 },
  { 2, 29, -1, -2 },
  { 2, 30, 1, -2 },
  { 0, 176, -1, 1 },
  { 0, 177, 1, -1 },
  { 1, 40, 1, -1 },
  { 2, 27, -1, -1 },
  { 1, 42, 1, 16 },
  { 1, 38, 1, 9 },
  { 1, 37, 1, 7 },
  { 1, 36, 1, 4 },
  { 1, 35, 1, 2 },
  { 2, 29, -1, -2 },
  { 0, 186, -1, -2 },
  { 2, 31, -1, 1 },
  { 2, 73, -2, -3 },
  { 2, 29, -1, -2 },
  { 2, 29, -1, 1 },
  { 1, 40, 1, -2 },
  { 2, 75, 1, -3 },
  { 1, 39, -2, 1 },
  { 0, 181, 1, -2 },
  { 2, 32, -1, -2 },
  { 1, 43, 1, 4 },
  { 2, 29, -1, 1 },
  { 2, 73, 1, -3 },
  { 2, 30, -2, -2 },
  { 0, 198, 1, 7 },
  { 1, 47, 1, -2 },
  { 1, 45, 1, -1 },
  { 0, 190, 1, 2 },
  { 2, 31, -1, -2 },
  { 2, 26, -1, 1 },
  { 2, 76, -2, -3 },
  { 1, 49, 1, -3 },
  { 2, 30, -1, 1 },
  { 1, 44, 1, -2 },
  { 0, 219, -2, -3 },
  { 0, 182, 1, 8 },
  { 1, 38, 1, 2 },
  { 2, 30, -1, -2 },
  { 1, 39, 1, 4 },
  { 2, 31, 1, -2 },
  { 2, 29, -1, 1 },
  { 0, 172, -1, -2 },
  { 2, 30, -1, -2 },
  { 0, 202, 1, 18 },
  { 2, 29, -1, 1 },
  { 0, 190, 1, 11 },
  { 0, 183, 1, 2 },
  { 2, 30, -1, -2 },
  { 2, 76, 1, -3 },
  { 0, 188, 1, -2 },
  { 0, 185, -2, 1 },
  { 1, 36, 1, 3 },
  { 0, 187, -2, 1 },
  { 1, 35, -2, -1 },
  { 0, 186, 1, -2 },
  { 2, 31, -1, -2 },
  { 2, 75, 1, -3 },
  { 2, 30, 1, -2 },
  { 0, 198, -2, 1 },
  { 1, 41, -2, 1 },
  { 0, 199, -1, -2 },
  { 0, 207, 1, 3 },
  { 2, 31, -1, 1 },
  { 2, 76, -2, -3 },
  { 1, 49, 1, -3 },
  { 1, 43, 1, 2 },
  { 2, 100, -2, -3 },
  { 0, 225, 1, -3 },
  { 1, 44, 1, -2 },
  { 0, 211, -2, 1 },
  { 2, 35, -1, -2 },
  { 1, 38, 1, 22 },
  { 0, 183, 1, 4 },
  { 2, 30, 1, -2 },
  { 2, 29, -1, 1 },
  { 0, 172, -2, -1 },
  { 1, 37, 1, 10 },
  { 2, 29, -1, 1 },
  { 0, 198, 1, 7 },
  { 0, 188, 1, 4 },
  { 1, 35, -2, 1 },
  { 1, 36, 1, -2 },
  { 2, 34, -1, -2 },
  { 0, 193, 1, -2 },
  { 2, 69, -2, -3 },
  { 0, 208, -3, -2 },
  { 0, 189, 1, 2 },
  { 2, 28, -1, -2 },
  { 0, 192, 1, 2 },
  { 2, 32, -1, -2 },
  { 0, 193, 1, 2 },
  { 2, 65, -2, -3 },
  { 2, 27, -1, -2 },
  { 1, 40, 1, 7 },
  { 2, 29, -1, 1 },
  { 2, 76, 1, -3 },
  { 0, 186, 1, -2 },
  { 1, 39, -2, 1 },
  { 2, 31, 1, -2 },
  { 0, 181, -2, -1 },
  { 2, 29, -1, 1 },
  { 0, 190, 1, 4 },
  { 0, 186, -2, 1 },
  { 2, 31, 1, -2 },
  { 0, 188, -1, -2 },
  { 0, 226, 1, -3 },
  { 2, 75, 1, -3 },
  { 1, 42, -2, 1 },
  { 0, 206, 1, -2 },
  { 2, 31, 1, -2 },
  { 0, 203, 1, -1 },
  { 1, 43, -1, -2 },
  { 0, 183, 1, 12 },
  { 2, 30, 1, -2 },
  { 0, 171, 1, 3 },
  { 2, 29, -1, 1 },
  { 1, 37, -2, -1 },
  { 0, 177, 1, -1 },
  { 0, 176, 1, 3 },
  { 2, 29, -1, 1 },
  { 1, 44, -2, -1 },
  { 1, 38, -1, 1 },
  { 1, 40, 1, -1 },
  { 2, 27, -1, -2 },
  { 1, 41, 1, 52 },
  { 0, 200, 1, 41 },
  { 0, 191, 1, 14 },
  { 0, 184, 1, 4 },
  { 1, 38, 1, 2 },
  { 2, 30, -1, -2 },
  { 2, 35, -1, -2 },
  { 0, 188, 1, 7 },
  { 0, 187, 1, 5 },
  { 0, 185, 1, 3 },
  { 1, 38, 1, -2 },
  { 2, 28, -1, -2 },
  { 2, 31, -1, -2 },
  { 2, 29, -1, -2 },
  { 2, 29, -1, 1 },
  { 2, 74, -2, -3 },
  { 0, 195, 1, 14 },
  { 0, 193, 1, 3 },
  { 2, 30, -1, 1 },
  { 2, 75, -2, -3 },
  { 1, 40, 1, 9 },
  { 1, 38, 1, 4 },
  { 0, 194, 1, 2 },
  { 2, 34, -1, -2 },
  { 2, 27, -1, -2 },
  { 2, 74, 1, -3 },
  { 0, 194, 1, 2 },
  { 2, 43, -1, -2 },
  { 2, 30, -1, -2 },
  { 2, 32, -1, -2 },
  { 0, 197, 1, 7 },
  { 1, 36, -2, 1 },
  { 1, 39, 1, 3 },
  { 2, 33, -1, 1 },
  { 0, 196, -2, -3 },
  { 0, 196, 1, -2 },
  { 2, 33, -1, -2 },
  { 2, 28, -1, 1 },
  { 0, 198, 1, 2 },
  { 2, 72, -2, -3 },
  { 0, 199, -2, 1 },
  { 1, 38, -3, -2 },
  { 1, 39, 1, 7 },
  { 0, 206, 1, -2 },
  { 0, 203, 1, 3 },
  { 0, 202, -2, 1 },
  { 2, 32, -1, -2 },
  { 0, 204, -1, 1 },
  { 2, 113, -2, -3 },
  { 0, 208, 1, -2 },
  { 2, 73, 1, -3 },
  { 2, 26, -1, -2 },
  { 2, 29, -1, 1 },
  { 2, 76, 1, -3 },
  { 2, 30, 1, -2 },
  { 0, 188, -1, 1 },
  { 0, 202, -2, -1 },
  { 0, 180, 1, 27 },
  { 1, 36, 1, 6 },
  { 1, 35, 1, -1 },
  { 0, 161, 1, -1 },
  { 0, 155, -2, 1 },
  { 0, 160, -1, 1 },
  { 2, 16, -1, -2 },
  { 1, 40, 1, 15 },
  { 0, 162, 1, 2 },
  { 2, 26, -1, -2 },
  { 1, 38, 1, 8 },
  { 1, 37, 1, 3 },
  { 0, 165, -1, 1 },
  { 2, 31, -1, -2 },
  { 0, 164, 1, 2 },
  { 2, 42, -1, -2 },
  { 0, 168, 1, -1 },
  { 2, 34, -1, -2 },
  { 2, 31, 1, -2 },
  { 2, 29, -1, 1 },
  { 1, 39, -1, 1 },
  { 0, 173, -1, -2 },
  { 2, 30, 1, -2 },
  { 1, 41, -1, 1 },
  { 2, 29, -1, 1 },
  { 1, 42, 1, -1 },
  { 0, 169, -1, -2 },
  { 0, 202, 1, 36 },
  { 0, 194, 1, 16 },
  { 2, 29, -1, 1 },
  { 0, 191, 1, 13 },
  { 2, 75, 1, 11 },
  { 0, 183, 1, 4 },
  { 1, 38, 1, -2 },
  { 0, 182, -2, 1 },
  { 2, 30, -1, -2 },
  { 0, 187, 1, -2 },
  { 0, 185, -2, 1 },
  { 0, 186, 1, 2 },
  { 2, 31, -1, -2 },
  { 1, 41, -2, 1 },
  { 2, 38, -1, -2 },
  { 0, 188, -2, -3 },
  { 2, 75, -2, -3 },
  { 2, 29, -1, 1 },
  { 1, 42, 1, 10 },
  { 1, 40, 1, -2 },
  { 0, 201, 1, 7 },
  { 1, 37, 1, 3 },
  { 0, 198, -2, 1 },
  { 2, 65, -2, -3 },
  { 1, 39, 1, 2 },
  { 2, 70, -2, -3 },
  { 2, 75, -2, -3 },
  { 2, 103, -2, -3 },
  { 0, 200, 1, 4 },
  { 2, 73, 1, -3 },
  { 0, 198, -2, 1 },
  { 2, 33, -1, -2 },
  { 0, 201, 1, 3 },
  { 1, 43, 1, -2 },
  { 2, 67, -2, -3 },
  { 1, 43, -3, -2 },
  { 0, 207, 1, 18 },
  { 0, 206, 1, 11 },
  { 1, 46, 1, -1 },
  { 0, 203, 1, 2 },
  { 2, 96, -2, -3 },
  { 1, 38, 1, 3 },
  { 0, 204, 1, -3 },
  { 2, 32, -1, -2 },
  { 1, 43, 1, 3 },
  { 1, 39, 1, -2 },
  { 2, 114, -2, -3 },
  { 0, 205, -2, -1 },
  { 1, 41, 1, 3 },
  { 1, 39, -2, 1 },
  { 2, 31, -1, -2 },
  { 1, 43, 1, -2 },
  { 2, 81, 1, -3 },
  { 1, 42, -2, -1 },
  { 2, 75, 1, -3 },
  { 1, 43, -2, 1 },
  { 1, 44, 1, -2 },
  { 2, 31, -1, -2 },
  { 2, 30, 1, 15 },
  { 2, 29, -1, 1 },
  { 0, 187, 1, 7 },
  { 0, 164, -2, 1 },
  { 0, 179, 1, -1 },
  { 0, 171, -1, 1 },
  { 0, 172, -2, 1 },
  { 1, 41, 1, -1 },
  { 0, 176, -2, -2 },
  { 0, 205, 1, -1 },
  { 1, 36, 1, 2 },
  { 1, 35, -2, -1 },
  { 1, 42, -2, 1 },
  { 0, 195, -2, 1 },
  { 1, 43, -1, -2 },
  { 2, 75, -2, 1 },
  { 0, 178, -2, -3 },
  { 1, 44, 1, 21 },
  { 2, 29, -1, 1 },
  { 1, 42, 1, 16 },
  { 2, 75, 1, -3 },
  { 0, 188, 1, -2 },
  { 0, 166, -2, 1 },
  { 1, 38, 1, 3 },
  { 2, 30, 1, -2 },
  { 1, 35, -2, -1 },
  { 0, 167, 1, 4 },
  { 1, 41, 1, 2 },
  { 2, 31, -1, -2 },
  { 2, 36, -1, -2 },
  { 0, 176, 1, 4 },
  { 2, 31, 1, -2 },
  { 1, 41, 1, -2 },
  { 0, 173, -1, -2 },
  { 2, 31, -1, -2 },
  { 2, 77, 1, -3 },
  { 2, 30, 1, -2 },
  { 0, 199, -1, -2 },
  { 2, 34, -1, 1 },
  { 2, 77, -2, -3 },
  { 2, 29, -1, 1 },
  { 0, 188, 1, 21 },
  { 1, 38, 1, 6 },
  { 2, 30, 1, -2 },
  { 0, 172, -2, 1 },
  { 0, 185, -1, 1 },
  { 1, 35, -2, 1 },
  { 1, 36, -1, -2 },
  { 1, 40, 1, 8 },
  { 0, 167, 1, 3 },
  { 0, 163, -2, 1 },
  { 2, 41, -1, -2 },
  { 2, 31, 1, -2 },
  { 0, 173, -1, 1 },
  { 0, 176, -2, 1 },
  { 0, 179, -1, -1 },
  { 0, 177, 1, -2 },
  { 0, 176, 1, 4 },
  { 1, 41, -2, 1 },
  { 2, 32, 1, -2 },
  { 0, 169, -1, -2 },
  { 2, 30, -1, -2 },
  { 1, 43, 1, 2 },
  { 2, 75, -2, -3 },
  { 1, 49, -2, -3 },
  { 2, 29, -1, 1 },
  { 1, 42, 1, 17 },
  { 0, 192, 1, 15 },
  { 2, 30, 1, 7 },
  { 0, 187, 1, 4 },
  { 0, 164, -2, 1 },
  { 1, 38, -1, 1 },
  { 1, 39, -1, -1 },
  { 1, 36, 1, -2 },
  { 1, 35, -2, -1 },
  { 1, 38, -2, 1 },
  { 1, 41, 1, -2 },
  { 0, 190, 1, 2 },
  { 2, 76, -2, -3 },
  { 0, 191, 1, 2 },
  { 2, 65, -2, -3 },
  { 2, 75, -2, -3 },
  { 2, 75, -2, -3 },
  { 2, 77, 1, -3 },
  { 1, 43, 1, 2 },
  { 2, 33, -1, -2 },
  { 2, 31, 1, -2 },
  { 0, 203, -2, -1 },
  { 0, 184, 1, 8 },
  { 2, 30, 1, -2 },
  { 2, 29, -1, 1 },
  { 1, 41, 1, 4 },
  { 1, 39, 1, -1 },
  { 0, 172, -1, 1 },
  { 1, 38, -1, -2 },
  { 0, 174, -2, -1 },
  { 2, 29, -1, 1 },
  { 0, 190, 1, 10 },
  { 0, 188, 1, 7 },
  { 1, 39, 1, 5 },
  { 0, 187, -2, 1 },
  { 1, 36, 1, -2 },
  { 1, 35, -2, 1 },
  { 2, 34, -1, -2 },
  { 2, 31, -1, -2 },
  { 0, 189, 1, -2 },
  { 2, 75, -2, -3 },
  { 1, 49, 1, -3 },
  { 2, 75, 1, -3 },
  { 0, 198, -2, 1 },
  { 2, 31, 1, -2 },
  { 1, 41, -2, -2 },
  { 0, 183, 1, 9 },
  { 2, 30, 1, -2 },
  { 1, 35, 1, 3 },
  { 0, 161, 1, -1 },
  { 2, 26, -1, -2 },
  { 1, 41, -1, 1 },
  { 1, 42, 1, -1 },
  { 2, 29, -1, 1 },
  { 0, 169, -1, -2 },
  { 0, 202, 1, 54 },
  { 1, 39, 1, 34 },
  { 1, 36, 1, 7 },
  { 1, 35, 1, 5 },
  { 0, 190, 1, -2 },
  { 0, 188, 1, 2 },
  { 2, 30, -1, -2 },
  { 2, 29, -1, -2 },
  { 0, 186, -1, -2 },
  { 0, 193, 1, 13 },
  { 1, 38, 1, 3 },
  { 2, 29, -1, 1 },
  { 2, 75, -2, -3 },
  { 0, 190, 1, 7 },
  { 0, 184, -1, 1 },
  { 0, 188, -2, 1 },
  { 0, 189, 1, 3 },
  { 2, 38, -1, 1 },
  { 2, 71, -2, -3 },
  { 2, 30, -1, -2 },
  { 2, 29, -1, 1 },
  { 2, 73, -2, -3 },
  { 0, 201, 1, 12 },
  { 1, 38, 1, 7 },
  { 0, 197, 1, 2 },
  { 2, 27, -1, -2 },
  { 0, 199, 1, 2 },
  { 2, 30, -1, -2 },
  { 2, 36, -1, 1 },
  { 2, 65, -2, -3 },
  { 2, 74, 1, -3 },
  { 0, 194, 1, 2 },
  { 2, 31, -1, -2 },
  { 2, 28, -1, -2 },
  { 2, 101, -2, -3 },
  { 0, 187, 1, 3 },
  { 1, 43, 1, -1 },
  { 2, 32, -1, -2 },
  { 1, 42, 1, 12 },
  { 2, 29, -1, 1 },
  { 0, 190, -2, 1 },
  { 1, 40, 1, 3 },
  { 0, 197, -2, 1 },
  { 2, 75, -2, -3 },
  { 0, 191, 1, 3 },
  { 1, 41, 1, -2 },
  { 2, 54, -2, -3 },
  { 0, 193, 1, -2 },
  { 1, 41, -2, 1 },
  { 2, 110, -2, -3 },
  { 2, 29, -1, 1 },
  { 2, 74, 1, -3 },
  { 1, 43, 1, -2 },
  { 2, 38, -1, -2 },
  { 0, 208, 1, 7 },
  { 1, 46, 1, 5 },
  { 2, 76, 1, -3 },
  { 1, 40, 1, 2 },
  { 2, 26, -1, -2 },
  { 2, 33, -1, -2 },
  { 2, 24, -1, -2 },
  { 2, 77, -2, -3 },
  { 1, 40, 1, 25 },
  { 0, 183, 1, 8 },
  { 2, 30, 1, -2 },
  { 1, 38, -1, 1 },
  { 0, 175, -1, 1 },
  { 1, 39, 1, 2 },
  { 2, 27, -1, -1 },
  { 0, 177, 1, -1 },
  { 2, 26, -1, -2 },
  { 0, 198, 1, 8 },
  { 1, 38, 1, 5 },
  { 2, 29, -1, 1 },
  { 1, 37, -2, 1 },
  { 0, 192, -2, 1 },
  { 2, 67, -2, -3 },
  { 2, 30, -1, 1 },
  { 2, 75, -2, -3 },
  { 1, 37, 1, 5 },
  { 2, 72, 1, -3 },
  { 0, 202, 1, 2 },
  { 2, 38, -1, -2 },
  { 2, 32, -1, -2 },
  { 2, 100, 1, -3 },
  { 0, 207, 1, -2 },
  { 2, 27, -1, -2 },
  { 2, 30, 1, 10 },
  { 1, 47, 1, 7 },
  { 2, 29, -1, 1 },
  { 1, 45, 1, -1 },
  { 0, 183, -1, 1 },
  { 1, 42, -2, 1 },
  { 1, 43, -2, 1 },
  { 0, 203, -2, -1 },
  { 0, 182, -1, 1 },
  { 2, 23, -1, -2 },
  { 1, 49, 1, -3 },
  { 0, 190, -2, 1 },
  { 1, 43, 1, 3 },
  { 0, 211, 1, -2 },
  { 2, 75, -2, -3 },
  { 0, 226, 1, -3 },
  { 1, 44, 1, -2 },
  { 2, 75, -2, -3 },
  { 2, 29, -1, 1 },
  { 0, 196, 1, 18 },
  { 2, 75, 1, -3 },
  { 0, 183, 1, 8 },
  { 1, 46, 1, 5 },
  { 2, 30, 1, -2 },
  { 1, 41, 1, -1 },
  { 1, 38, -1, 1 },
  { 0, 179, -2, -1 },
  { 0, 172, -2, 1 },
  { 2, 31, -1, -2 },
  { 1, 36, 1, 5 },
  { 0, 187, -2, 1 },
  { 0, 188, 1, -2 },
  { 1, 35, -2, 1 },
  { 2, 35, -1, -2 },
  { 0, 186, 1, -2 },
  { 0, 185, -2, 1 },
  { 2, 31, -1, -2 },
  { 0, 197, 1, 2 },
  { 2, 60, -2, -3 },
  { 0, 212, 1, -2 },
  { 0, 201, 1, 6 },
  { 0, 200, 1, 4 },
  { 2, 75, 1, -3 },
  { 2, 31, 1, -2 },
  { 1, 43, -1, -2 },
  { 2, 65, -2, -3 },
  { 0, 210, 1, 2 },
  { 2, 75, -2, -3 },
  { 1, 43, 1, -2 },
  { 0, 211, 1, 2 },
  { 2, 107, -2, -3 },
  { 1, 41, 1, -2 },
  { 1, 38, -2, 1 },
  { 2, 112, -2, -3 },
  { 1, 39, 1, 31 },
  { 0, 183, 1, 19 },
  { 0, 160, 1, 5 },
  { 1, 36, 1, 3 },
  { 1, 35, 1, -1 },
  { 2, 36, -1, -2 },
  { 2, 30, -1, -2 },
  { 1, 38, 1, 4 },
  { 2, 29, -1, 1 },
  { 0, 182, -2, 1 },
  { 2, 31, -1, -2 },
  { 0, 178, 1, 4 },
  { 2, 32, 1, -2 },
  { 2, 29, -1, 1 },
  { 0, 172, -1, -1 },
  { 0, 180, 1, 3 },
  { 0, 179, 1, -2 },
  { 2, 33, -1, -2 },
  { 0, 181, 1, -1 },
  { 2, 36, -1, -2 },
  { 1, 38, 1, 9 },
  { 1, 37, 1, 4 },
  { 2, 29, -1, 1 },
  { 1, 36, -2, 1 },
  { 2, 73, -2, -3 },
  { 2, 28, -1, 1 },
  { 0, 192, -2, 1 },
  { 0, 193, 1, -2 },
  { 2, 65, -2, -3 },
  { 2, 29, -1, 1 },
  { 2, 76, -2, -3 },
  { 2, 30, 1, 14 },
  { 0, 198, 1, 8 },
  { 0, 195, 1, 5 },
  { 0, 172, 1, -1 },
  { 1, 41, -1, 1 },
  { 1, 42, 1, -1 },
  { 2, 29, -1, -2 },
  { 1, 41, 1, -1 },
  { 0, 197, -2, -1 },
  { 1, 42, -1, 1 },
  { 1, 44, 1, -1 },
  { 2, 29, -1, 1 },
  { 0, 203, 1, -1 },
  { 0, 199, -1, -2 },
  { 1, 43, 1, -2 },
  { 0, 196, 1, 7 },
  { 0, 190, -2, 1 },
  { 0, 195, 1, -2 },
  { 1, 42, 1, 3 },
  { 1, 41, -2, 1 },
  { 2, 115, -2, -3 },
  { 2, 74, -2, -3 },
  { 2, 75, -2, -3 },
  { 0, 178, 1, 29 },
  { 1, 36, 1, 8 },
  { 0, 163, 1, 5 },
  { 0, 162, 1, -2 },
  { 0, 155, -2, 1 },
  { 1, 35, 1, -1 },
  { 2, 27, -1, -2 },
  { 1, 35, 1, -1 },
  { 2, 42, -1, -2 },
  { 0, 160, 1, 6 },
  { 1, 39, 1, -1 },
  { 1, 37, -2, 1 },
  { 1, 38, 1, -2 },
  { 0, 157, 1, -2 },
  { 2, 33, -1, -2 },
  { 0, 174, 1, 6 },
  { 2, 31, 1, -2 },
  { 0, 171, -1, 1 },
  { 0, 172, 1, -1 },
  { 1, 41, -1, 1 },
  { 2, 29, -1, -2 },
  { 1, 43, 1, -1 },
  { 1, 42, 1, -2 },
  { 0, 176, 1, 3 },
  { 1, 41, 1, -1 },
  { 2, 29, -1, -2 },
  { 2, 32, 1, -2 },
  { 0, 177, 1, -1 },
  { 2, 27, -1, -1 },
  { 1, 41, 1, 42 },
  { 1, 36, 1, 3 },
  { 0, 192, 1, -2 },
  { 2, 29, -1, -2 },
  { 1, 38, 1, 14 },
  { 0, 206, 1, -2 },
  { 0, 188, 1, 4 },
  { 1, 37, 1, 2 },
  { 0, 182, -1, -2 },
  { 2, 29, -1, -2 },
  { 0, 204, 1, -3 },
  { 0, 189, -1, 1 },
  { 0, 195, 1, 3 },
  { 2, 31, -1, 1 },
  { 2, 67, -2, -3 },
  { 1, 37, 1, 2 },
  { 2, 33, -1, -2 },
  { 0, 197, -2, -1 },
  { 1, 39, 1, 12 },
  { 0, 197, 1, 7 },
  { 2, 30, -1, 1 },
  { 0, 196, 1, -3 },
  { 0, 193, 1, 3 },
  { 0, 188, -2, 1 },
  { 2, 76, -2, -3 },
  { 2, 75, -2, -3 },
  { 0, 205, 1, -2 },
  { 2, 27, -1, 1 },
  { 0, 204, -2, 1 },
  { 2, 107, -2, -3 },
  { 0, 207, 1, 10 },
  { 1, 40, 1, 5 },
  { 2, 28, -1, 1 },
  { 2, 75, 1, -3 },
  { 2, 31, 1, -2 },
  { 0, 188, -1, -2 },
  { 2, 31, -1, 1 },
  { 0, 190, -2, 1 },
  { 0, 193, 1, -2 },
  { 2, 54, -2, -3 },
  { 0, 208, 1, -2 },
  { 2, 93, -2, -3 },
  { 1, 43, 1, 5 },
  { 2, 29, -1, 1 },
  { 2, 73, 1, -3 },
  { 0, 188, 1, -2 },
  { 2, 32, -1, -2 },
  { 1, 49, 1, -3 },
  { 0, 196, 1, 8 },
  { 1, 47, 1, -2 },
  { 1, 45, 1, -1 },
  { 0, 189, 1, 2 },
  { 2, 33, -1, -2 },
  { 0, 191, 1, -1 },
  { 1, 44, -2, 1 },
  { 2, 45, -1, -2 },
  { 2, 31, 1, 4 },
  { 1, 45, 1, -1 },
  { 0, 201, 1, -1 },
  { 2, 27, -1, -2 },
  { 0, 226, -2, -3 },
  { 2, 30, 1, 11 },
  { 1, 42, 1, 7 },
  { 1, 36, -1, 1 },
  { 1, 37, 1, 2 },
  { 2, 29, -1, -2 },
  { 1, 38, -1, 1 },
  { 2, 29, -1, 1 },
  { 0, 185, -1, -2 },
  { 2, 29, -1, 1 },
  { 0, 199, -1, 1 },
  { 0, 203, -2, -1 },
  { 1, 42, 1, 3 },
  { 0, 188, -2, 1 },
  { 2, 75, -2, -3 },
  { 2, 74, -2, 1 },
  { 1, 43, 1, -3 },
  { 2, 77, 1, -3 },
  { 0, 182, -2, -3 },
  { 0, 186, 1, 36 },
  { 0, 174, 1, 12 },
  { 0, 160, 1, 7 },
  { 0, 150, -2, 1 },
  { 0, 153, -1, 1 },
  { 1, 39, 1, 3 },
  { 0, 155, -2, 1 },
  { 2, 30, -1, -2 },
  { 2, 37, -1, -2 },
  { 1, 44, 1, -1 },
  { 2, 31, 1, -2 },
  { 0, 161, 1, -1 },
  { 2, 26, -1, -2 },
  { 1, 43, 1, -1 },
  { 0, 178, 1, 10 },
  { 0, 175, 1, 2 },
  { 2, 32, -1, -2 },
  { 0, 176, 1, 2 },
  { 2, 30, -1, -2 },
  { 1, 42, 1, -2 },
  { 1, 41, 1, -1 },
  { 2, 31, 1, -2 },
  { 1, 38, -1, 1 },
  { 2, 27, -1, -1 },
  { 1, 38, 1, 2 },
  { 2, 29, -1, -2 },
  { 0, 182, 1, 2 },
  { 2, 32, -1, -2 },
  { 1, 39, 1, 2 },
  { 2, 28, -1, -2 },
  { 0, 184, 1, 5 },
  { 1, 40, -1, 1 },
  { 0, 183, 1, 2 },
  { 2, 35, -1, -2 },
  { 2, 36, -1, -2 },
  { 2, 34, -1, -2 },
  { 2, 29, -1, 1 },
  { 0, 226, 1, -3 },
  { 2, 75, 1, -3 },
  { 2, 30, 1, -2 },
  { 1, 42, 1, 2 },
  { 0, 187, -1, -2 },
  { 1, 43, -1, -2 },
  { 1, 40, 1, 14 },
  { 2, 29, -1, 1 },
  { 1, 35, -2, 1 },
  { 1, 36, 1, 2 },
  { 0, 188, -1, -2 },
  { 0, 191, 1, 8 },
  { 1, 38, -2, 1 },
  { 0, 167, 1, 3 },
  { 0, 165, -2, 1 },
  { 1, 39, -1, -2 },
  { 2, 31, 1, -2 },
  { 1, 39, -2, 1 },
  { 0, 178, -2, -1 },
  { 2, 75, -2, -3 },
  { 2, 30, 1, 10 },
  { 1, 42, 1, -1 },
  { 0, 188, 1, 4 },
  { 0, 171, -1, 1 },
  { 0, 172, 1, -1 },
  { 2, 29, -1, -2 },
  { 0, 190, 1, -1 },
  { 0, 189, 1, 2 },
  { 2, 24, -1, -2 },
  { 2, 28, -1, -2 },
  { 0, 219, 1, -3 },
  { 2, 75, -2, -3 },
  { 1, 45, 1, 69 },
  { 1, 38, 1, 8 },
  { 1, 37, 1, 5 },
  { 2, 29, -1, 1 },
  { 1, 36, -2, 1 },
  { 0, 198, -2, 1 },
  { 2, 65, -2, -3 },
  { 2, 30, -1, 1 },
  { 2, 80, -2, -3 },
  { 0, 198, 1, 44 },
  { 1, 43, 1, 40 },
  { 0, 173, 1, 14 },
  { 1, 40, 1, 8 },
  { 1, 39, 1, 6 },
  { 0, 168, 1, -1 },
  { 0, 164, -2, 1 },
  { 0, 166, -1, 1 },
  { 0, 167, 1, -2 },
  { 2, 31, -1, -2 },
  { 2, 31, -1, -2 },
  { 0, 166, 1, 2 },
  { 2, 34, -1, -2 },
  { 1, 41, -1, 1 },
  { 0, 170, 1, -1 },
  { 2, 34, -1, -2 },
  { 0, 188, 1, 23 },
  { 0, 174, 1, 2 },
  { 2, 25, -1, -2 },
  { 0, 177, 1, 12 },
  { 1, 41, 1, 9 },
  { 0, 176, 1, 7 },
  { 0, 175, 1, 2 },
  { 2, 27, -1, -2 },
  { 1, 39, -2, 1 },
  { 1, 40, 1, 2 },
  { 2, 28, -1, -2 },
  { 2, 31, -1, -2 },
  { 2, 27, -1, -2 },
  { 1, 42, -1, 1 },
  { 2, 33, -1, -2 },
  { 0, 181, 1, 7 },
  { 1, 40, 1, 3 },
  { 0, 178, -2, 1 },
  { 2, 36, -1, -2 },
  { 0, 179, 1, -2 },
  { 1, 42, -2, 1 },
  { 2, 34, -1, -2 },
  { 2, 31, -1, -2 },
  { 2, 29, -1, 1 },
  { 2, 75, -2, -3 },
  { 2, 33, -1, 1 },
  { 1, 44, 1, -2 },
  { 2, 66, -2, -3 },
  { 2, 29, -1, 1 },
  { 1, 39, -2, 1 },
  { 1, 43, 1, 11 },
  { 0, 202, 1, 4 },
  { 1, 42, -2, 1 },
  { 0, 200, -3, 1 },
  { 2, 66, -2, -3 },
  { 1, 42, 1, 3 },
  { 1, 40, 1, -2 },
  { 2, 76, -2, -3 },
  { 0, 206, -2, 1 },
  { 0, 212, 1, -2 },
  { 2, 86, -2, -3 },
  { 2, 78, 1, -3 },
  { 2, 33, 1, -2 },
  { 0, 203, -2, -1 },
  { 2, 31, -1, 1 },
  { 2, 69, -2, -3 },
  { 0, 178, 1, 7 },
  { 2, 30, 1, -2 },
  { 2, 29, -1, 1 },
  { 1, 37, -2, 1 },
  { 0, 171, -1, 1 },
  { 1, 42, 1, -1 },
  { 0, 176, -2, -2 },
  { 1, 40, 1, 16 },
  { 2, 29, -1, 1 },
  { 1, 39, 1, 13 },
  { 1, 36, 1, 5 },
  { 0, 188, 1, -2 },
  { 0, 187, -2, 1 },
  { 1, 35, -2, 1 },
  { 2, 34, -1, -2 },
  { 1, 38, 1, 5 },
  { 0, 198, 1, 2 },
  { 2, 75, -2, -3 },
  { 0, 202, 1, -2 },
  { 2, 65, -2, -3 },
  { 2, 75, -2, 1 },
  { 0, 189, -2, -3 },
  { 2, 75, -2, -3 },
  { 2, 29, -1, 1 },
  { 0, 192, 1, 6 },
  { 0, 186, -2, 1 },
  { 0, 188, 1, 3 },
  { 1, 42, 1, -2 },
  { 2, 32, -1, -2 },
  { 2, 76, -2, -3 },
  { 0, 202, 1, 2 },
  { 2, 73, -2, -3 },
  { 0, 205, 1, 4 },
  { 0, 203, 1, -2 },
  { 1, 43, 1, -2 },
  { 2, 96, -2, -3 },
  { 2, 75, 1, -3 },
  { 0, 206, 1, -2 },
  { 2, 37, -1, -2 },
  { 2, 29, -1, 1 },
  { 0, 188, 1, 10 },
  { 0, 183, 1, 6 },
  { 1, 42, 1, -2 },
  { 2, 30, 1, -2 },
  { 0, 179, 1, -1 },
  { 0, 171, 1, -2 },
  { 1, 37, -2, -1 },
  { 0, 186, -2, 1 },
  { 0, 187, 1, -2 },
  { 2, 32, -1, -2 },
  { 0, 226, 1, -3 },
  { 0, 208, 1, 5 },
  { 2, 75, 1, -3 },
  { 1, 42, -2, 1 },
  { 1, 43, 1, -2 },
  { 2, 30, -1, -2 },
  { 2, 113, -2, -3 },
  { 1, 40, 1, 35 },
  { 0, 184, 1, 8 },
  { 2, 29, -1, 1 },
  { 1, 39, 1, 4 },
  { 2, 30, 1, -2 },
  { 1, 36, -2, 1 },
  { 0, 180, -2, -1 },
  { 2, 31, 1, -2 },
  { 0, 178, -2, -1 },
  { 1, 38, 1, 3 },
  { 2, 29, -1, 1 },
  { 2, 76, -2, -3 },
  { 0, 199, 1, 12 },
  { 1, 39, 1, 6 },
  { 2, 29, -1, 1 },
  { 0, 197, 1, -2 },
  { 2, 75, -2, 1 },
  { 2, 76, 1, -3 },
  { 0, 189, -2, -3 },
  { 2, 31, 1, 3 },
  { 0, 195, -1, 1 },
  { 2, 29, -1, -2 },
  { 0, 197, -2, 1 },
  { 2, 72, -2, -3 },
  { 1, 39, 1, 9 },
  { 0, 206, 1, -2 },
  { 0, 201, -2, 1 },
  { 0, 202, 1, 2 },
  { 2, 103, -2, -3 },
  { 0, 204, 1, 3 },
  { 0, 203, 1, -2 },
  { 2, 32, -1, -2 },
  { 2, 113, -2, -3 },
  { 2, 103, 1, -3 },
  { 2, 25, -1, -2 },
  { 0, 188, 1, 14 },
  { 1, 42, 1, 10 },
  { 1, 41, 1, 8 },
  { 0, 173, 1, 2 },
  { 2, 44, -1, -2 },
  { 0, 183, 1, 3 },
  { 0, 179, 1, -2 },
  { 2, 34, -1, -2 },
  { 0, 185, -1, 1 },
  { 2, 25, -1, -2 },
  { 2, 31, -1, -2 },
  { 1, 45, 1, 2 },
  { 2, 30, -1, -2 },
  { 2, 43, -1, -2 },
  { 2, 29, -1, 1 },
  { 2, 75, 1, -3 },
  { 1, 42, -2, 1 },
  { 0, 207, 1, -2 },
  { 1, 45, 1, -2 },
  { 0, 205, 1, 3 },
  { 2, 30, 1, -2 },
  { 0, 199, -1, -2 },
  { 2, 37, -1, -2 },
  { 0, 178, 1, 17 },
  { 1, 36, 1, 3 },
  { 1, 35, 1, -1 },
  { 2, 37, -1, -2 },
  { 0, 160, 1, 6 },
  { 1, 37, 1, 2 },
  { 2, 29, -1, -2 },
  { 1, 38, 1, -2 },
  { 0, 150, -1, 1 },
  { 2, 26, -1, -2 },
  { 0, 175, 1, 2 },
  { 2, 31, -1, -2 },
  { 2, 27, -1, 1 },
  { 1, 42, 1, 3 },
  { 2, 31, 1, -2 },
  { 1, 39, -1, -2 },
  { 2, 33, -1, -2 },
  { 2, 30, 1, 9 },
  { 2, 29, -1, 1 },
  { 1, 38, -1, 1 },
  { 1, 39, -2, 1 },
  { 1, 41, -1, 1 },
  { 1, 43, 1, 3 },
  { 1, 42, 1, -1 },
  { 0, 188, -1, -2 },
  { 0, 203, -2, -1 },
  { 1, 38, 1, 4 },
  { 1, 37, 1, -2 },
  { 1, 36, -2, 1 },
  { 2, 75, -2, -3 },
  { 0, 190, -2, 1 },
  { 2, 75, -2, -3 },
  { 2, 30, 1, 15 },
  { 0, 187, 1, 7 },
  { 1, 38, -1, 1 },
  { 2, 29, -1, 1 },
  { 1, 39, -2, 1 },
  { 1, 41, -1, 1 },
  { 0, 179, 1, -1 },
  { 0, 169, -1, -2 },
  { 1, 47, 1, -2 },
  { 2, 29, -1, 1 },
  { 0, 188, 1, 3 },
  { 1, 35, -2, 1 },
  { 1, 36, -1, -2 },
  { 1, 43, -2, 1 },
  { 0, 203, -2, -1 },
  { 0, 226, 1, -3 },
  { 1, 49, 1, -3 },
  { 2, 75, -2, 1 },
  { 2, 76, 1, -3 },
  { 1, 40, 1, -3 },
  { 0, 189, -2, -3 },
  { 1, 40, 1, 58 },
  { 0, 184, 1, 17 },
  { 1, 38, 1, 4 },
  { 1, 37, 1, 2 },
  { 2, 29, -1, -2 },
  { 2, 30, -1, -2 },
  { 1, 39, 1, 7 },
  { 0, 182, 1, -1 },
  { 0, 179, 1, 4 },
  { 2, 31, 1, -2 },
  { 2, 29, -1, 1 },
  { 0, 172, -1, -2 },
  { 2, 31, -1, -2 },
  { 0, 183, 1, -1 },
  { 2, 29, -1, 1 },
  { 2, 31, 1, -2 },
  { 0, 173, -1, 1 },
  { 0, 178, -2, -1 },
  { 1, 39, 1, 36 },
  { 0, 196, 1, 27 },
  { 0, 188, 1, 10 },
  { 0, 186, 1, 4 },
  { 0, 185, 1, 2 },
  { 2, 28, -1, -2 },
  { 2, 29, -1, -2 },
  { 2, 29, -1, 1 },
  { 0, 187, -2, 1 },
  { 2, 33, 1, -2 },
  { 1, 35, -2, 1 },
  { 1, 36, -1, -2 },
  { 1, 35, 1, 4 },
  { 0, 192, 1, -2 },
  { 0, 190, 1, -1 },
  { 2, 29, -1, -2 },
  { 1, 38, 1, 10 },
  { 0, 195, 1, 8 },
  { 0, 192, 1, -2 },
  { 0, 191, 1, 5 },
  { 0, 189, -2, 1 },
  { 0, 190, 1, 2 },
  { 1, 37, -1, -2 },
  { 2, 31, -1, -2 },
  { 1, 36, -2, -1 },
  { 2, 33, -1, -2 },
  { 2, 29, -1, 1 },
  { 2, 75, -2, -3 },
  { 0, 197, 1, 2 },
  { 2, 49, -1, -3 },
  { 2, 74, 1, -3 },
  { 0, 200, 1, -2 },
  { 1, 38, -1, 1 },
  { 0, 198, -2, 1 },
  { 0, 199, 1, -2 },
  { 2, 36, -1, -2 },
  { 0, 196, 1, 2 },
  { 2, 31, -1, -2 },
  { 2, 78, 1, -3 },
  { 2, 30, -1, -2 },
  { 2, 30, 1, 5 },
  { 0, 188, -1, 1 },
  { 0, 189, 1, 2 },
  { 2, 21, -1, -2 },
  { 2, 29, -1, -2 },
  { 0, 226, 1, -3 },
  { 2, 74, -2, 1 },
  { 0, 179, -2, -3 },
  { 2, 30, 1, 24 },
  { 1, 47, 1, 21 },
  { 0, 187, 1, 5 },
  { 0, 171, -1, 1 },
  { 1, 41, -1, 1 },
  { 1, 42, 1, -1 },
  { 2, 29, -1, -2 },
  { 0, 190, 1, 12 },
  { 0, 189, 1, 8 },
  { 0, 188, 1, 4 },
  { 1, 37, 1, -1 },
  { 1, 36, -1, 1 },
  { 2, 29, -1, -2 },
  { 1, 40, -1, 1 },
  { 1, 43, 1, -1 },
  { 2, 24, -1, -2 },
  { 1, 41, -1, 1 },
  { 1, 42, 1, -1 },
  { 2, 28, -1, -2 },
  { 1, 39, 1, -1 },
  { 1, 38, -1, 1 },
  { 2, 27, -1, -2 },
  { 0, 196, 1, -1 },
  { 2, 24, -1, -2 },
  { 0, 190, 1, 3 },
  { 1, 38, -2, 1 },
  { 2, 76, -2, -3 },
  { 2, 75, -2, -3 },
  { 0, 186, 1, 16 },
  { 0, 175, 1, 7 },
  { 2, 32, 1, -2 },
  { 1, 35, 1, 2 },
  { 2, 28, -1, -2 },
  { 0, 171, -1, 1 },
  { 2, 29, -1, 1 },
  { 0, 172, -2, -1 },
  { 1, 43, 1, 7 },
  { 0, 177, 1, 5 },
  { 2, 29, -1, 1 },
  { 0, 176, -2, 1 },
  { 1, 41, -2, 1 },
  { 2, 30, -1, -2 },
  { 2, 30, -1, -2 },
  { 2, 30, -1, -2 },
  { 1, 40, 1, 16 },
  { 0, 199, 1, 8 },
  { 2, 29, -1, 1 },
  { 2, 75, 1, 4 },
  { 1, 36, 1, -2 },
  { 1, 35, -2, 1 },
  { 2, 34, -1, -2 },
  { 2, 76, 1, -3 },
  { 0, 192, -2, -3 },
  { 2, 76, 1, -3 },
  { 1, 38, 1, 2 },
  { 2, 36, -1, -2 },
  { 0, 206, -2, 1 },
  { 0, 207, 1, -2 },
  { 1, 39, -2, 1 },
  { 2, 31, -1, -2 },
  { 2, 29, -1, 1 },
  { 0, 219, 1, 15 },
  { 1, 43, 1, 11 },
  { 1, 42, 1, 7 },
  { 1, 41, 1, 3 },
  { 0, 191, 1, -2 },
  { 2, 65, -2, -3 },
  { 2, 115, 1, -3 },
  { 0, 187, 1, -2 },
  { 2, 32, -1, -2 },
  { 0, 197, 1, 2 },
  { 2, 74, -2, -3 },
  { 2, 66, -2, -3 },
  { 0, 194, 1, -2 },
  { 1, 44, 1, -2 },
  { 0, 192, -2, -3 },
  { 2, 75, -2, -3 } 
};

static const int32_t danger_air_classification_tree_roots[100] = { 0, 28, 41, 128, 154, 182, 245, 302, 341, 362, 418, 447, 493, 530, 559, 639, 746, 777, 836, 865, 891, 911, 935, 966, 1002, 1040, 1076, 1092, 1145, 1193, 1251, 1334, 1359, 1402, 1498, 1523, 1595, 1647, 1757, 1789, 1815, 1854, 1863, 1931, 1956, 1988, 2027, 2078, 2110, 2133, 2157, 2211, 2241, 2299, 2318, 2342, 2373, 2397, 2437, 2455, 2478, 2518, 2563, 2591, 2636, 2678, 2745, 2772, 2826, 2858, 2904, 3019, 3043, 3117, 3157, 3193, 3234, 3303, 3388, 3405, 3428, 3453, 3476, 3500, 3571, 3614, 3650, 3704, 3794, 3812, 3855, 3881, 3952, 3991, 4009, 4067, 4099, 4120, 4186, 4214 };

static const uint8_t danger_air_classification_leaves[3] = { 0, 1, 2 };

EmlTrees danger_air_classification = {
        4263,
        (EmlTreesNode *)(danger_air_classification_nodes),	  
        100,
        (int32_t *)(danger_air_classification_tree_roots),
        3,
        (uint8_t *)(danger_air_classification_leaves),
        0,
        3,
        3,
    };

static inline int32_t danger_air_classification_tree_0(const int16_t *features, int32_t features_length) {
          if (features[0] < 176) {
              if (features[1] < 36) {
                  if (features[2] < 32) {
                      return 0;
                  } else {
                      return 1;
                  }
              } else {
                  if (features[2] < 29) {
                      return 0;
                  } else {
                      if (features[2] < 31) {
                          if (features[0] < 169) {
                              return 0;
                          } else {
                              return 1;
                          }
                      } else {
                          return 1;
                      }
                  }
              }
          } else {
              if (features[0] < 202) {
                  if (features[0] < 190) {
                      if (features[2] < 30) {
                          if (features[1] < 41) {
                              if (features[1] < 35) {
                                  if (features[0] < 187) {
                                      return 0;
                                  } else {
                                      if (features[2] < 23) {
                                          return 0;
                                      } else {
                                          return 1;
                                      }
                                  }
                              } else {
                                  return 0;
                              }
                          } else {
                              if (features[2] < 29) {
                                  return 0;
                              } else {
                                  if (features[0] < 188) {
                                      return 0;
                                  } else {
                                      return 1;
                                  }
                              }
                          }
                      } else {
                          return 1;
                      }
                  } else {
                      if (features[2] < 29) {
                          return 0;
                      } else {
                          if (features[1] < 41) {
                              if (features[2] < 75) {
                                  return 1;
                              } else {
                                  return 2;
                              }
                          } else {
                              if (features[2] < 75) {
                                  if (features[0] < 198) {
                                      return 1;
                                  } else {
                                      if (features[1] < 43) {
                                          if (features[1] < 42) {
                                              return 1;
                                          } else {
                                              if (features[0] < 199) {
                                                  if (features[2] < 39) {
                                                      return 0;
                                                  } else {
                                                      return 1;
                                                  }
                                              } else {
                                                  return 1;
                                              }
                                          }
                                      } else {
                                          return 1;
                                      }
                                  }
                              } else {
                                  return 2;
                              }
                          }
                      }
                  }
              } else {
                  if (features[2] < 31) {
                      return 0;
                  } else {
                      if (features[1] < 42) {
                          if (features[2] < 74) {
                              return 1;
                          } else {
                              return 2;
                          }
                      } else {
                          if (features[2] < 100) {
                              return 1;
                          } else {
                              return 2;
                          }
                      }
                  }
              }
          }
        }
        

static inline int32_t danger_air_classification_tree_1(const int16_t *features, int32_t features_length) {
          if (features[2] < 29) {
              return 0;
          } else {
              if (features[2] < 76) {
                  if (features[2] < 30) {
                      if (features[1] < 37) {
                          return 1;
                      } else {
                          if (features[0] < 188) {
                              if (features[0] < 171) {
                                  return 0;
                              } else {
                                  if (features[0] < 179) {
                                      if (features[1] < 40) {
                                          return 0;
                                      } else {
                                          return 1;
                                      }
                                  } else {
                                      return 0;
                                  }
                              }
                          } else {
                              if (features[0] < 198) {
                                  return 1;
                              } else {
                                  if (features[1] < 43) {
                                      return 0;
                                  } else {
                                      return 1;
                                  }
                              }
                          }
                      }
                  } else {
                      if (features[0] < 197) {
                          return 1;
                      } else {
                          if (features[0] < 198) {
                              if (features[2] < 71) {
                                  return 1;
                              } else {
                                  return 2;
                              }
                          } else {
                              return 1;
                          }
                      }
                  }
              } else {
                  return 2;
              }
          }
        }
        

static inline int32_t danger_air_classification_tree_2(const int16_t *features, int32_t features_length) {
          if (features[1] < 41) {
              if (features[1] < 38) {
                  if (features[1] < 35) {
                      if (features[0] < 184) {
                          if (features[2] < 28) {
                              return 0;
                          } else {
                              return 1;
                          }
                      } else {
                          if (features[2] < 29) {
                              return 0;
                          } else {
                              return 1;
                          }
                      }
                  } else {
                      if (features[2] < 30) {
                          if (features[1] < 37) {
                              if (features[0] < 187) {
                                  return 0;
                              } else {
                                  if (features[2] < 29) {
                                      return 0;
                                  } else {
                                      return 1;
                                  }
                              }
                          } else {
                              return 0;
                          }
                      } else {
                          if (features[0] < 191) {
                              return 1;
                          } else {
                              if (features[1] < 37) {
                                  if (features[0] < 206) {
                                      if (features[1] < 36) {
                                          return 1;
                                      } else {
                                          if (features[2] < 73) {
                                              return 1;
                                          } else {
                                              return 2;
                                          }
                                      }
                                  } else {
                                      return 1;
                                  }
                              } else {
                                  if (features[2] < 67) {
                                      return 1;
                                  } else {
                                      return 2;
                                  }
                              }
                          }
                      }
                  }
              } else {
                  if (features[0] < 197) {
                      if (features[0] < 173) {
                          if (features[2] < 31) {
                              return 0;
                          } else {
                              return 1;
                          }
                      } else {
                          if (features[1] < 40) {
                              if (features[2] < 31) {
                                  if (features[1] < 39) {
                                      return 0;
                                  } else {
                                      if (features[0] < 177) {
                                          if (features[0] < 175) {
                                              return 0;
                                          } else {
                                              if (features[2] < 20) {
                                                  return 0;
                                              } else {
                                                  return 1;
                                              }
                                          }
                                      } else {
                                          if (features[2] < 29) {
                                              return 0;
                                          } else {
                                              if (features[0] < 188) {
                                                  return 0;
                                              } else {
                                                  return 1;
                                              }
                                          }
                                      }
                                  }
                              } else {
                                  if (features[1] < 39) {
                                      if (features[0] < 196) {
                                          if (features[0] < 191) {
                                              return 1;
