


    // !!! This file is generated using emlearn !!!

    #include <eml_trees.h>
    

static const EmlTreesNode temperature_prediction_model_nodes[12723] = {
  { 0, 32, 1, 35 },
  { 0, 31, 1, 12 },
  { 0, 31, 1, 4 },
  { 29, 3, -1, 1 },
  { 29, 4, 1, -2 },
  { 28, 59, -3, -2 },
  { 3, 31, -4, 1 },
  { 16, 60, 1, 2 },
  { 26, 0, -4, -3 },
  { 13, 61, -5, 1 },
  { 21, 31, -6, 1 },
  { 29, 4, 1, -7 },
  { 23, 1, -3, -3 },
  { 0, 31, 1, 11 },
  { 29, 24, 1, -7 },
  { 1, 57, -8, 1 },
  { 15, 32, 1, 6 },
  { 17, 2, 1, 3 },
  { 24, 31, -9, 1 },
  { 18, 31, -4, -10 },
  { 5, 2, -11, 1 },
  { 17, 3, -12, -4 },
  { 9, 31, -13, 1 },
  { 11, 2, -4, -4 },
  { 23, 30, 1, -14 },
  { 6, 32, 1, 8 },
  { 17, 6, 1, 5 },
  { 0, 32, -15, 1 },
  { 10, 56, -16, 1 },
  { 12, 32, -8, 1 },
  { 4, 56, -8, -17 },
  { 20, 3, 1, -13 },
  { 20, 0, -8, -8 },
  { 17, 2, 1, -8 },
  { 12, 32, -16, -18 },
  { 0, 33, 1, 37 },
  { 18, 32, 1, 10 },
  { 2, 620, 1, -19 },
  { 0, 33, 1, 7 },
  { 25, 68, 1, -20 },
  { 17, 5, -21, 1 },
  { 17, 10, 1, 2 },
  { 14, 0, -22, -14 },
  { 23, 1, -14, 1 },
  { 25, 50, -14, -14 },
  { 7, 51, -14, -19 },
  { 0, 33, 1, 11 },
  { 29, 38, 1, 7 },
  { 11, 12, 1, -14 },
  { 1, 45, 1, 2 },
  { 4, 45, -23, -24 },
  { 23, 6, 1, 2 },
  { 14, 0, -22, -22 },
  { 10, 45, -22, -19 },
  { 26, 296, 1, 2 },
  { 4, 48, -24, -14 },
  { 8, 59, -25, -22 },
  { 19, 63, 1, -22 },
  { 28, 42, 1, 8 },
  { 2, 0, 1, -26 },
  { 22, 41, 1, 3 },
  { 20, 3, -19, 1 },
  { 17, 2, -27, -27 },
  { 9, 33, 1, -28 },
  { 14, 14, 1, -27 },
  { 14, 3, -19, -19 },
  { 9, 33, 1, 5 },
  { 6, 33, 1, 2 },
  { 10, 46, -22, -19 },
  { 2, 18, -29, 1 },
  { 22, 44, -22, -19 },
  { 4, 59, -27, -19 },
  { 0, 33, 1, 19 },
  { 13, 59, 1, 17 },
  { 26, 24, 1, -28 },
  { 14, 17, 1, -28 },
  { 2, 1, 1, 11 },
  { 19, 45, 1, 6 },
  { 14, 5, 1, -28 },
  { 17, 20, 1, -28 },
  { 18, 33, 1, 2 },
  { 2, 0, -19, -27 },
  { 5, 7, -27, -19 },
  { 14, 0, 1, 2 },
  { 7, 52, -28, -30 },
  { 17, 2, 1, -27 },
  { 11, 4, -28, -27 },
  { 12, 33, 1, -19 },
  { 4, 52, 1, -19 },
  { 19, 42, -19, -31 },
  { 8, 3, -32, -28 },
  { 0, 34, 1, -33 },
  { 0, 33, 1, 19 },
  { 26, 1, 1, 16 },
  { 15, 33, -27, 1 },
  { 5, 34, 1, -27 },
  { 11, 5, 1, 10 },
  { 17, 26, 1, 8 },
  { 24, 33, 1, 2 },
  { 4, 43, -28, -34 },
  { 5, 11, 1, 4 },
  { 6, 33, -32, 1 },
  { 26, 0, -35, 1 },
  { 8, 1, -32, -28 },
  { 5, 23, -32, -32 },
  { 11, 1, -28, -27 },
  { 25, 43, -27, 1 },
  { 20, 1, -30, 1 },
  { 27, 33, -32, -28 },
  { 11, 0, -28, 1 },
  { 6, 33, -36, -28 },
  { 18, 33, 1, 2 },
  { 17, 11, -32, -33 },
  { 9, 33, 1, 9 },
  { 23, 0, 1, 7 },
  { 17, 0, 1, 3 },
  { 2, 1, 1, -28 },
  { 20, 26, -32, -28 },
  { 6, 33, 1, -28 },
  { 19, 52, -32, 1 },
  { 17, 2, -32, -32 },
  { 20, 62, -36, -28 },
  { 29, 43, 1, 6 },
  { 28, 42, 1, 3 },
  { 22, 42, 1, -28 },
  { 17, 6, -36, -28 },
  { 14, 24, -37, 1 },
  { 16, 46, -28, -32 },
  { 16, 60, -28, -28 },
  { 0, 32, 1, 46 },
  { 0, 31, 1, 19 },
  { 0, 31, 1, 10 },
  { 29, 3, 1, 7 },
  { 4, 56, -2, 1 },
  { 11, 0, 1, 3 },
  { 8, 2, -38, 1 },
  { 14, 33, -38, -2 },
  { 26, 2, -2, 1 },
  { 20, 5, -2, -2 },
  { 8, 1, -38, 1 },
  { 4, 57, -2, -3 },
  { 6, 31, 1, 7 },
  { 28, 62, -2, 1 },
  { 13, 61, -5, 1 },
  { 27, 31, -6, 1 },
  { 12, 31, 1, -3 },
  { 24, 31, -7, 1 },
  { 20, 2, -7, -7 },
  { 6, 31, -4, -3 },
  { 0, 31, 1, 15 },
  { 29, 24, 1, 13 },
  { 24, 32, 1, 10 },
  { 29, 3, 1, 7 },
  { 23, 14, 1, -4 },
  { 15, 31, 1, -4 },
  { 26, 0, 1, -4 },
  { 19, 58, 1, 2 },
  { 20, 1, -4, -4 },
  { 20, 1, -4, -4 },
  { 16, 63, 1, -39 },
  { 8, 2, -40, -4 },
  { 29, 1, 1, -41 },
  { 20, 0, -4, -4 },
  { 23, 2, -7, -4 },
  { 22, 56, -20, 1 },
  { 6, 32, 1, 9 },
  { 11, 9, 1, 7 },
  { 21, 32, 1, 3 },
  { 16, 62, 1, -13 },
  { 10, 57, -8, -8 },
  { 10, 56, -16, 1 },
  { 0, 32, -15, 1 },
  { 19, 57, -8, -42 },
  { 20, 4, -8, -13 },
  { 17, 2, -16, -8 },
  { 0, 33, 1, 25 },
  { 0, 33, 1, 9 },
  { 20, 619, 1, -22 },
  { 25, 68, 1, 6 },
  { 25, 48, -24, 1 },
  { 17, 5, -43, 1 },
  { 17, 10, 1, -44 },
  { 7, 53, -22, 1 },
  { 29, 1, -14, -14 },
  { 5, 1, -20, -14 },
  { 0, 33, 1, 6 },
  { 9, 33, -24, 1 },
  { 27, 33, -19, 1 },
  { 23, 13, 1, -19 },
  { 14, 27, 1, -23 },
  { 4, 55, -22, -22 },
  { 15, 33, 1, 6 },
  { 16, 64, 1, -22 },
  { 6, 33, 1, 2 },
  { 15, 33, -19, -22 },
  { 2, 19, -45, 1 },
  { 2, 22, -22, -19 },
  { 6, 33, 1, -19 },
  { 24, 33, -28, 1 },
  { 11, 2, -19, -27 },
  { 0, 33, 1, 15 },
  { 8, 3, 1, 8 },
  { 17, 22, 1, -28 },
  { 9, 33, 1, -30 },
  { 4, 43, -19, 1 },
  { 11, 3, 1, 2 },
  { 7, 44, -27, -27 },
  { 26, 0, -19, 1 },
  { 10, 45, -27, -27 },
  { 24, 33, 1, 3 },
  { 28, 45, 1, -28 },
  { 23, 17, -27, -19 },
  { 29, 7, 1, -27 },
  { 7, 43, -28, 1 },
  { 10, 52, -28, -28 },
  { 0, 33, 1, 23 },
  { 24, 33, 1, 3 },
  { 3, 33, 1, -27 },
  { 19, 41, -28, -32 },
  { 5, 4, 1, 18 },
  { 14, 2, 1, 13 },
  { 11, 2, 1, 6 },
  { 24, 33, 1, 2 },
  { 0, 33, -28, -32 },
  { 11, 0, 1, 2 },
  { 1, 42, -28, -46 },
  { 13, 52, -28, -32 },
  { 8, 2, 1, 5 },
  { 23, 0, 1, -32 },
  { 9, 33, 1, 2 },
  { 18, 33, -30, -34 },
  { 7, 44, -28, -28 },
  { 3, 33, -27, -34 },
  { 6, 33, 1, -28 },
  { 20, 5, 1, -28 },
  { 8, 9, -32, 1 },
  { 27, 33, -28, -32 },
  { 23, 3, -27, -32 },
  { 28, 39, -27, 1 },
  { 17, 18, 1, 18 },
  { 29, 43, 1, 16 },
  { 14, 17, 1, 14 },
  { 3, 33, 1, 4 },
  { 17, 2, 1, -36 },
  { 6, 33, -32, 1 },
  { 10, 43, -28, -28 },
  { 28, 42, 1, 3 },
  { 22, 42, 1, -28 },
  { 17, 6, -36, -28 },
  { 29, 3, -47, 1 },
  { 9, 33, 1, 2 },
  { 26, 1, -28, -32 },
  { 8, 2, 1, 2 },
  { 15, 33, -32, -32 },
  { 28, 51, -28, -32 },
  { 20, 2, -32, -28 },
  { 8, 2, -28, -28 },
  { 1, 43, -33, -36 },
  { 0, 32, 1, 33 },
  { 0, 31, 1, 9 },
  { 0, 31, 1, 4 },
  { 29, 3, -1, 1 },
  { 13, 58, 1, -2 },
  { 8, 3, -3, -2 },
  { 28, 61, -4, 1 },
  { 0, 31, 1, -7 },
  { 27, 31, -3, 1 },
  { 12, 31, -7, -3 },
  { 0, 31, 1, 15 },
  { 4, 57, -8, 1 },
  { 29, 24, 1, 12 },
  { 29, 3, 1, 8 },
  { 24, 32, 1, 6 },
  { 17, 2, 1, 2 },
  { 9, 31, -4, -48 },
  { 10, 68, 1, 2 },
  { 24, 31, -4, -9 },
  { 1, 68, -12, -4 },
  { 14, 2, -13, -4 },
  { 28, 63, 1, -9 },
  { 23, 1, 1, -40 },
  { 8, 1, -4, -4 },
  { 8, 3, -4, -7 },
  { 22, 56, -20, 1 },
  { 3, 32, 1, -16 },
  { 10, 56, -16, 1 },
  { 20, 4, 1, 3 },
  { 18, 32, 1, -42 },
  { 24, 32, -8, -13 },
  { 20, 6, -13, 1 },
  { 17, 0, -49, -15 },
  { 0, 33, 1, 27 },
  { 0, 32, 1, 9 },
  { 21, 33, 1, 7 },
  { 16, 50, -22, 1 },
  { 25, 68, 1, 4 },
  { 17, 5, -21, 1 },
  { 17, 9, 1, -44 },
  { 10, 53, -22, -14 },
  { 26, 5, -20, -20 },
  { 15, 33, -14, -8 },
  { 20, 38, 1, 15 },
  { 6, 33, 1, 6 },
  { 4, 45, -24, 1 },
  { 20, 11, 1, -14 },
  { 23, 5, -22, 1 },
  { 18, 33, 1, -22 },
  { 28, 45, -19, -19 },
  { 4, 64, 1, -22 },
  { 9, 33, 1, 2 },
  { 15, 33, -19, -22 },
  { 2, 19, 1, 4 },
  { 2, 17, 1, -27 },
  { 3, 33, -45, 1 },
  { 9, 33, -27, -26 },
  { 2, 22, -22, -19 },
  { 5, 16, 1, -14 },
  { 20, 65, -24, -19 },
  { 0, 33, 1, 14 },
  { 13, 59, 1, 12 },
  { 6, 33, 1, 5 },
  { 12, 33, 1, 3 },
  { 17, 10, 1, -19 },
  { 13, 43, -27, -27 },
  { 5, 0, -28, -28 },
  { 14, 18, 1, -28 },
  { 25, 43, -19, 1 },
  { 21, 33, -30, 1 },
  { 8, 3, 1, 2 },
  { 7, 59, -27, -19 },
  { 29, 0, -28, -27 },
  { 14, 1, -28, -32 },
  { 0, 33, 1, 22 },
  { 5, 2, 1, 14 },
  { 9, 33, 1, 2 },
  { 10, 52, -36, -28 },
  { 10, 42, -27, 1 },
  { 17, 25, 1, 9 },
  { 16, 43, -32, 1 },
  { 24, 33, -32, 1 },
  { 27, 33, 1, 2 },
  { 11, 1, -28, -34 },
  { 10, 44, 1, 2 },
  { 18, 33, -28, -28 },
  { 6, 33, -32, 1 },
  { 15, 33, -28, -28 },
  { 29, 3, -27, -32 },
  { 11, 2, 1, 5 },
  { 26, 0, 1, -27 },
  { 20, 3, 1, 2 },
  { 29, 1, -32, -28 },
  { 24, 33, -34, -30 },
  { 8, 1, -32, 1 },
  { 26, 1, -28, -32 },
  { 1, 40, 1, 2 },
  { 24, 33, -33, -32 },
  { 29, 138, 1, -28 },
  { 20, 42, 1, 12 },
  { 14, 17, 1, 10 },
  { 28, 42, 1, 3 },
  { 7, 43, 1, -28 },
  { 17, 7, -32, -28 },
  { 29, 3, -50, 1 },
  { 9, 33, 1, 2 },
  { 25, 56, -32, -28 },
  { 8, 2, 1, 2 },
  { 16, 45, -36, -36 },
  { 1, 45, -28, -32 },
  { 14, 26, -28, -32 },
  { 3, 33, -28, -32 },
  { 0, 32, 1, 34 },
  { 0, 31, 1, 15 },
  { 0, 31, 1, 4 },
  { 0, 30, -38, 1 },
  { 6, 31, 1, -2 },
  { 3, 30, -5, -3 },
  { 22, 60, 1, 2 },
  { 26, 0, -4, -3 },
  { 0, 31, 1, -7 },
  { 25, 62, -5, 1 },
  { 26, 14, 1, -3 },
  { 1, 66, -3, 1 },
  { 27, 31, 1, 3 },
  { 2, 1, -3, 1 },
  { 14, 4, -51, -3 },
  { 17, 3, -3, -3 },
  { 0, 32, 1, 11 },
  { 23, 1, -52, 1 },
  { 23, 3, 1, 6 },
  { 2, 1, 1, -11 },
  { 29, 10, 1, 3 },
  { 11, 0, 1, -4 },
  { 28, 64, -40, -12 },
  { 16, 63, -4, -4 },
  { 4, 63, -9, 1 },
  { 29, 4, -9, 1 },
  { 1, 68, -4, -4 },
  { 16, 56, -20, 1 },
  { 3, 32, 1, -16 },
  { 21, 32, 1, 4 },
  { 4, 62, 1, -13 },
  { 29, 0, -8, 1 },
  { 7, 57, -8, -8 },
  { 10, 56, -16, -53 },
  { 0, 33, 1, 30 },
  { 0, 32, 1, 6 },
  { 14, 621, 1, -22 },
  { 3, 33, 1, 3 },
  { 25, 68, -54, 1 },
  { 19, 68, -14, -20 },
  { 4, 57, -14, -8 },
  { 0, 33, 1, 9 },
  { 20, 12, 1, 7 },
  { 9, 33, 1, 3 },
  { 26, 207, 1, -25 },
  { 8, 0, -14, -24 },
  { 8, 22, 1, -19 },
  { 11, 5, 1, -19 },
  { 1, 46, -22, -22 },
  { 26, 15, -14, -24 },
  { 23, 343, 1, -14 },
  { 15, 33, 1, 10 },
  { 16, 64, 1, -22 },
  { 3, 33, 1, 7 },
  { 26, 12, 1, 5 },
  { 6, 33, 1, 2 },
  { 19, 45, -22, -26 },
  { 14, 21, -29, 1 },
  { 14, 26, -27, -26 },
  { 28, 41, -27, -26 },
  { 27, 33, -19, -27 },
  { 20, 15, 1, -28 },
  { 5, 15, 1, -28 },
  { 12, 33, -27, -26 },
  { 0, 33, 1, 14 },
  { 17, 2, 1, 10 },
  { 29, 0, 1, 5 },
  { 0, 33, 1, 2 },
  { 18, 33, -27, -28 },
  { 2, 11, 1, -32 },
  { 14, 3, -35, -30 },
  { 5, 15, 1, -28 },
  { 14, 1, 1, -27 },
  { 8, 3, 1, -27 },
  { 4, 42, -19, -19 },
  { 4, 43, 1, 2 },
  { 9, 33, -19, -27 },
  { 17, 3, -28, -27 },
  { 3, 34, 1, 46 },
  { 0, 33, 1, 22 },
  { 24, 33, 1, 8 },
  { 29, 5, 1, 5 },
  { 5, 1, 1, 3 },
  { 18, 33, 1, -30 },
  { 7, 50, -32, -28 },
  { 26, 11, -34, -27 },
  { 4, 51, -28, 1 },
  { 15, 33, -32, -32 },
  { 17, 26, 1, 12 },
  { 29, 1, 1, 9 },
  { 9, 33, -32, 1 },
  { 14, 23, 1, -30 },
  { 24, 33, 1, 3 },
  { 10, 43, -28, 1 },
  { 25, 44, -28, -46 },
  { 26, 1, 1, -32 },
  { 5, 6, 1, -32 },
  { 13, 43, -32, -28 },
  { 11, 13, -46, 1 },
  { 29, 3, -27, -34 },
  { 12, 33, -27, -28 },
  { 28, 39, -27, 1 },
  { 3, 33, 1, 4 },
  { 12, 33, 1, -28 },
  { 23, 1, -32, 1 },
  { 5, 1, -28, -28 },
  { 14, 21, 1, 17 },
  { 29, 138, 1, -28 },
  { 5, 0, 1, 4 },
  { 28, 42, 1, -36 },
  { 4, 43, 1, -28 },
  { 6, 33, -32, -32 },
  { 5, 1, 1, 3 },
  { 29, 2, 1, -28 },
  { 28, 43, -32, -32 },
  { 28, 59, 1, 7 },
  { 1, 42, 1, 2 },
  { 20, 0, -28, -32 },
  { 22, 45, 1, 3 },
  { 21, 33, -32, 1 },
  { 2, 2, -32, -32 },
  { 18, 33, -32, -55 },
  { 21, 33, -28, -32 },
  { 13, 52, -28, -32 },
  { 16, 42, -32, -33 },
  { 0, 32, 1, 25 },
  { 0, 31, 1, 9 },
  { 0, 30, -56, 1 },
  { 28, 58, -4, 1 },
  { 23, 14, 1, 5 },
  { 3, 30, -5, 1 },
  { 0, 31, 1, 2 },
  { 27, 31, -3, -57 },
  { 8, 2, -3, -7 },
  { 18, 31, -2, -3 },
  { 0, 31, 1, 7 },
  { 10, 58, -8, 1 },
  { 29, 21, 1, 4 },
  { 29, 3, 1, 2 },
  { 18, 31, -4, -58 },
  { 13, 63, -40, -9 },
  { 26, 9, -7, -4 },
  { 12, 33, 1, -14 },
  { 3, 32, 1, 6 },
  { 17, 6, 1, 3 },
  { 0, 32, -15, 1 },
  { 19, 57, -8, -53 },
  { 17, 9, -13, 1 },
  { 0, 32, -8, -8 },
  { 17, 2, -16, -8 },
  { 0, 33, 1, 46 },
  { 0, 32, 1, 8 },
  { 20, 619, 1, -22 },
  { 25, 68, 1, 5 },
  { 17, 5, -14, 1 },
  { 17, 10, 1, 2 },
  { 8, 3, -22, -14 },
  { 22, 50, -14, -21 },
  { 19, 68, -14, -20 },
  { 0, 33, 1, 7 },
  { 19, 49, 1, 4 },
  { 14, 0, 1, 2 },
  { 0, 33, -22, -19 },
  { 4, 45, -23, -22 },
  { 26, 1, -22, 1 },
  { 28, 53, -25, -14 },
  { 0, 33, 1, 18 },
  { 5, 3, 1, 9 },
  { 3, 33, -22, 1 },
  { 14, 16, 1, 5 },
  { 2, 20, 1, 3 },
  { 6, 33, 1, -26 },
  { 10, 45, -22, -19 },
  { 14, 1, -22, -19 },
  { 1, 43, 1, -26 },
  { 10, 41, -19, -27 },
  { 2, 17, 1, 7 },
  { 20, 16, 1, 5 },
  { 18, 33, 1, 2 },
  { 5, 4, -19, -59 },
  { 21, 33, -28, 1 },
  { 11, 3, -26, -27 },
  { 18, 33, -19, -28 },
  { 7, 48, -19, -32 },
  { 16, 52, 1, 10 },
  { 6, 33, 1, 4 },
  { 23, 5, 1, 2 },
  { 5, 9, -27, -19 },
  { 13, 41, -28, -28 },
  { 22, 43, 1, 2 },
  { 3, 33, -34, -19 },
  { 3, 33, -19, 1 },
  { 5, 6, -31, 1 },
  { 20, 8, -19, -27 },
  { 17, 11, 1, -27 },
  { 3, 33, -28, -30 },
  { 0, 33, 1, 19 },
  { 0, 33, 1, 4 },
  { 0, 33, 1, 2 },
  { 23, 1, -32, -28 },
  { 14, 2, -27, -19 },
  { 6, 33, -32, 1 },
  { 7, 43, 1, 4 },
  { 15, 33, -27, 1 },
  { 11, 16, 1, -27 },
  { 27, 33, -28, -28 },
  { 25, 43, -32, 1 },
  { 11, 2, 1, 4 },
  { 5, 18, 1, -32 },
  { 13, 44, 1, -46 },
  { 5, 6, -28, -32 },
  { 8, 1, 1, 3 },
  { 11, 3, -34, 1 },
  { 15, 33, -28, -30 },
  { 26, 15, -28, -32 },
  { 24, 33, 1, 2 },
  { 23, 4, -32, -33 },
  { 28, 39, -27, 1 },
  { 3, 33, 1, 4 },
  { 6, 33, 1, 2 },
  { 15, 33, -28, -32 },
  { 24, 33, -28, -28 },
  { 29, 138, 1, -28 },
  { 29, 46, 1, 17 },
  { 27, 33, 1, 7 },
  { 17, 6, 1, -28 },
  { 14, 21, 1, -28 },
  { 29, 6, 1, 3 },
  { 2, 0, -55, 1 },
  { 9, 33, -32, -32 },
  { 9, 33, -28, -32 },
  { 29, 1, -47, 1 },
  { 4, 44, 1, 4 },
  { 11, 0, -32, 1 },
  { 11, 2, -28, 1 },
  { 2, 16, -32, -32 },
  { 11, 0, 1, 3 },
  { 5, 2, -32, 1 },
  { 4, 51, -32, -36 },
  { 22, 53, -32, -36 },
  { 5, 3, -28, -32 },
  { 9, 32, 1, 27 },
  { 0, 31, 1, 7 },
  { 0, 30, -2, 1 },
  { 0, 31, 1, 3 },
  { 27, 31, 1, -2 },
  { 2, 3, -3, -5 },
  { 0, 31, -60, 1 },
  { 14, 1, -61, -3 },
  { 0, 32, 1, 14 },
  { 3, 32, 1, -15 },
  { 29, 24, 1, 10 },
  { 23, 1, 1, 4 },
  { 23, 0, 1, -13 },
  { 27, 31, -62, 1 },
  { 26, 3, -4, -4 },
  { 29, 3, 1, 3 },
  { 17, 2, -9, 1 },
  { 17, 3, -12, -4 },
  { 25, 64, -40, 1 },
  { 20, 2, -4, -4 },
  { 23, 2, -7, 1 },
  { 17, 1, -4, -4 },
  { 3, 32, 1, 4 },
  { 17, 5, 1, 2 },
  { 10, 56, -16, -8 },
  { 20, 3, -8, -41 },
  { 22, 56, -20, -16 },
  { 0, 33, 1, 24 },
  { 0, 32, 1, 5 },
  { 3, 33, 1, 3 },
  { 25, 68, -54, 1 },
  { 2, 1, -20, -20 },
  { 22, 59, -14, -8 },
  { 0, 33, 1, 8 },
  { 2, 2, 1, 5 },
  { 23, 3, 1, 2 },
  { 19, 54, -24, -14 },
  { 24, 33, -25, 1 },
  { 2, 0, -23, -22 },
  { 8, 22, 1, -19 },
  { 16, 56, -22, -22 },
  { 4, 64, 1, -22 },
  { 15, 33, 1, 8 },
  { 2, 19, 1, 6 },
  { 8, 24, 1, 3 },
  { 14, 21, -63, 1 },
  { 22, 43, -27, -26 },
  { 26, 9, 1, -27 },
  { 22, 44, -19, -19 },
  { 2, 22, -22, -19 },
  { 8, 0, -27, -26 },
  { 0, 33, 1, 22 },
  { 18, 33, 1, 19 },
  { 17, 22, 1, 17 },
  { 26, 24, 1, -28 },
  { 14, 3, 1, 13 },
  { 28, 52, 1, 11 },
  { 0, 33, 1, -28 },
  { 5, 6, 1, 8 },
  { 8, 1, 1, 4 },
  { 21, 33, 1, 2 },
  { 29, 8, -34, -27 },
  { 27, 33, -27, -31 },
  { 28, 44, -19, 1 },
  { 8, 2, -19, 1 },
  { 12, 33, -27, -27 },
  { 14, 1, -27, -19 },
  { 22, 59, -19, -27 },
  { 3, 33, -28, 1 },
  { 0, 33, -27, -30 },
  { 22, 41, -27, -28 },
  { 20, 22, 1, -27 },
  { 0, 33, -28, -32 },
  { 0, 34, 1, 44 },
  { 0, 33, 1, 25 },
  { 12, 33, 1, 9 },
  { 5, 1, 1, 5 },
  { 27, 33, 1, 3 },
  { 3, 33, -32, 1 },
  { 26, 1, -28, -30 },
  { 11, 2, -28, -27 },
  { 29, 1, 1, 2 },
  { 4, 44, -27, -34 },
  { 27, 33, -28, -28 },
  { 11, 10, 1, 14 },
  { 5, 34, 1, -27 },
  { 5, 9, 1, 11 },
  { 17, 3, 1, 8 },
  { 8, 0, 1, 6 },
  { 14, 22, 1, -30 },
  { 28, 43, -32, 1 },
  { 10, 45, 1, 2 },
  { 17, 2, -46, -32 },
  { 15, 33, -32, -28 },
  { 26, 1, -28, -28 },
  { 11, 2, 1, -34 },
  { 14, 11, -28, -30 },
  { 23, 17, -32, -28 },
  { 29, 3, -32, -32 },
  { 28, 40, -27, 1 },
  { 3, 33, 1, 4 },
  { 2, 0, 1, 2 },
  { 6, 33, -36, -28 },
  { 2, 27, -28, -32 },
  { 24, 33, 1, 2 },
  { 14, 1, -33, -32 },
  { 9, 33, -28, 1 },
  { 29, 3, 1, 4 },
  { 29, 2, -37, 1 },
  { 5, 0, -32, 1 },
  { 5, 1, -28, -32 },
  { 23, 0, 1, 5 },
  { 29, 42, 1, -28 },
  { 5, 0, 1, 2 },
  { 10, 42, -32, -32 },
  { 5, 5, -28, -36 },
  { 21, 33, -32, -32 },
  { 24, 33, -33, -32 },
  { 0, 32, 1, 27 },
  { 0, 31, 1, 6 },
  { 0, 31, -64, 1 },
  { 16, 58, -4, 1 },
  { 27, 31, 1, 2 },
  { 18, 31, -3, -65 },
  { 23, 3, -3, -7 },
  { 0, 32, 1, 10 },
  { 23, 1, 1, 2 },
  { 21, 31, -4, -11 },
  { 10, 59, 1, 2 },
  { 26, 3, -4, -40 },
  { 17, 2, 1, 4 },
  { 10, 64, -4, 1 },
  { 22, 67, 1, -39 },
  { 8, 11, -4, -4 },
  { 17, 5, -12, -4 },
  { 12, 33, 1, -14 },
  { 0, 32, 1, 8 },
  { 11, 9, 1, 5 },
  { 21, 32, 1, 2 },
  { 27, 32, -49, -13 },
  { 27, 32, 1, -16 },
  { 4, 56, -16, -66 },
  { 11, 13, -13, 1 },
  { 26, 0, -8, -8 },
  { 6, 32, -20, -16 },
  { 0, 33, 1, 50 },
  { 0, 32, 1, 7 },
  { 3, 33, 1, -8 },
  { 25, 68, 1, 4 },
  { 17, 5, -21, 1 },
  { 17, 9, 1, -67 },
  { 10, 53, -22, -14 },
  { 3, 32, -20, -20 },
  { 0, 33, 1, 24 },
  { 0, 33, 1, 5 },
  { 9, 33, 1, 3 },
  { 2, 183, 1, -19 },
  { 27, 32, -25, -24 },
  { 17, 1, -19, -22 },
  { 21, 33, 1, 15 },
  { 2, 17, 1, 10 },
  { 6, 33, 1, 3 },
  { 25, 45, -22, 1 },
  { 8, 24, -19, -19 },
  { 25, 63, 1, -22 },
  { 12, 33, 1, 3 },
  { 14, 18, -29, 1 },
  { 16, 42, -27, -19 },
  { 8, 2, -26, 1 },
  { 21, 33, -27, -27 },
  { 2, 20, 1, 2 },
  { 1, 45, -27, -32 },
  { 2, 22, -22, 1 },
  { 28, 42, -19, -19 },
  { 9, 33, -28, 1 },
  { 18, 33, -27, 1 },
  { 27, 34, -19, -19 },
  { 19, 45, 1, 12 },
  { 5, 6, 1, 10 },
  { 29, 18, 1, 8 },
  { 23, 20, 1, 6 },
  { 17, 20, 1, 4 },
  { 2, 1, 1, -27 },
  { 28, 41, -27, 1 },
  { 13, 43, -27, -68 },
  { 17, 57, -19, -27 },
  { 23, 27, -34, -27 },
  { 22, 41, -19, -19 },
  { 11, 2, -19, -19 },
  { 18, 33, 1, 2 },
  { 27, 33, -27, -19 },
  { 14, 1, 1, 2 },
  { 8, 2, -30, -28 },
  { 9, 33, -28, 1 },
  { 12, 33, -27, -27 },
  { 0, 33, 1, 25 },
  { 0, 33, 1, 2 },
  { 6, 33, -28, -27 },
  { 4, 41, 1, 4 },
  { 5, 4, 1, -27 },
  { 14, 0, 1, -27 },
  { 27, 33, -28, -32 },
  { 17, 4, 1, 13 },
  { 28, 58, 1, 7 },
  { 26, 14, 1, -27 },
  { 6, 33, 1, -28 },
  { 23, 19, 1, -28 },
  { 12, 33, 1, -32 },
  { 29, 2, -32, 1 },
  { 5, 4, -30, -28 },
  { 21, 33, 1, 3 },
  { 26, 30, 1, -32 },
  { 7, 59, -28, -28 },
  { 11, 3, -27, 1 },
  { 5, 4, -30, -28 },
  { 15, 33, 1, 4 },
  { 3, 33, 1, 2 },
  { 27, 33, -34, -27 },
  { 2, 11, -30, -28 },
  { 25, 59, -28, -32 },
  { 1, 40, -33, 1 },
  { 28, 39, -27, 1 },
  { 29, 46, 1, 24 },
  { 20, 13, 1, 22 },
  { 9, 33, 1, 7 },
  { 2, 1, 1, 3 },
  { 28, 59, 1, -32 },
  { 5, 2, -32, -32 },
  { 17, 0, 1, -32 },
  { 11, 2, 1, -32 },
  { 18, 33, -28, -28 },
  { 3, 33, -28, 1 },
  { 1, 41, 1, 2 },
  { 2, 0, -28, -32 },
  { 29, 1, -47, 1 },
  { 8, 2, 1, 7 },
  { 2, 2, 1, 4 },
  { 12, 33, -32, 1 },
  { 11, 1, -32, 1 },
  { 23, 4, -32, -32 },
  { 29, 3, 1, -32 },
  { 20, 0, -28, -32 },
  { 16, 43, -28, 1 },
  { 8, 3, 1, -32 },
  { 4, 51, -28, -32 },
  { 24, 33, -33, -32 },
  { 5, 3, -28, -32 },
  { 6, 32, 1, 35 },
  { 0, 31, 1, 16 },
  { 0, 30, 1, 7 },
  { 29, 3, 1, 3 },
  { 4, 66, 1, -2 },
  { 2, 4, -1, -2 },
  { 29, 4, 1, 2 },
  { 13, 59, -3, -2 },
  { 15, 30, -2, -64 },
  { 25, 60, 1, 3 },
  { 0, 31, 1, -3 },
  { 5, 1, -4, -4 },
  { 0, 31, 1, 3 },
  { 5, 2, -2, 1 },
  { 28, 65, -3, -5 },
  { 10, 61, -5, 1 },
  { 19, 68, -51, -3 },
  { 0, 31, 1, 10 },
  { 26, 3, 1, 4 },
  { 24, 32, 1, 2 },
  { 6, 31, -4, -52 },
  { 29, 1, -4, -13 },
  { 28, 63, 1, 4 },
  { 26, 4, 1, 2 },
  { 20, 1, -40, -4 },
  { 26, 10, -4, -4 },
  { 11, 11, -39, -4 },
  { 18, 32, 1, 2 },
  { 18, 32, -8, -13 },
  { 10, 56, -16, 1 },
  { 0, 32, -15, 1 },
  { 3, 32, -8, 1 },
  { 24, 32, -8, 1 },
  { 5, 0, -53, 1 },
  { 4, 56, -8, -8 },
  { 0, 33, 1, 37 },
  { 0, 32, 1, 9 },
  { 0, 32, 1, 2 },
  { 29, 9, -16, -14 },
  { 20, 619, 1, -22 },
  { 18, 33, 1, 4 },
  { 28, 68, -21, 1 },
  { 29, 5, 1, -14 },
  { 8, 2, -20, -20 },
  { 17, 76, -8, -14 },
  { 23, 405, 1, 26 },
  { 0, 33, 1, 11 },
  { 20, 53, 1, -14 },
  { 9, 33, 1, 4 },
  { 4, 51, 1, 2 },
  { 18, 33, -14, -24 },
  { 22, 54, -19, -22 },
  { 1, 45, -23, 1 },
  { 18, 33, 1, 2 },
  { 18, 33, -22, -19 },
  { 26, 1, -22, 1 },
  { 27, 33, -22, -22 },
  { 2, 17, 1, 8 },
  { 6, 33, 1, 3 },
  { 16, 45, -22, 1 },
  { 23, 14, -19, -19 },
  { 9, 33, -26, 1 },
  { 14, 53, 1, -27 },
  { 29, 11, -19, 1 },
  { 7, 43, -19, -27 },
  { 2, 19, 1, 2 },
  { 16, 47, -27, -32 },
  { 22, 56, 1, -27 },
  { 22, 44, 1, 2 },
  { 22, 43, -19, -22 },
  { 11, 296, -19, -19 },
  { 16, 51, -25, -14 },
  { 0, 33, 1, 25 },
  { 13, 59, 1, 23 },
  { 8, 10, 1, -28 },
  { 9, 33, 1, 19 },
  { 14, 38, 1, -28 },
  { 21, 33, 1, 4 },
  { 4, 41, 1, 2 },
  { 29, 0, -27, -34 },
  { 7, 44, -28, -30 },
  { 18, 33, 1, 2 },
  { 29, 11, -28, -19 },
  { 23, 17, 1, 10 },
  { 2, 33, 1, -19 },
  { 5, 7, 1, 7 },
  { 3, 33, 1, 3 },
  { 29, 3, 1, -19 },
  { 8, 2, -27, -27 },
  { 18, 33, -27, 1 },
  { 9, 33, -27, 1 },
  { 1, 45, -27, -27 },
  { 25, 44, -19, -27 },
  { 18, 33, -19, -19 },
  { 26, 3, -27, 1 },
  { 7, 50, -28, -30 },
  { 20, 3, -28, -32 },
  { 0, 34, 1, 41 },
  { 0, 33, 1, 26 },
  { 26, 26, 1, 24 },
  { 5, 21, 1, -27 },
  { 26, 21, 1, -27 },
  { 2, 3, 1, 18 },
  { 11, 40, 1, -32 },
  { 17, 26, 1, -27 },
  { 2, 1, 1, 13 },
  { 11, 11, 1, -30 },
  { 3, 33, 1, 2 },
  { 16, 41, -27, -32 },
  { 6, 33, -32, 1 },
  { 6, 33, 1, 2 },
  { 17, 3, -28, -34 },
  { 9, 33, 1, 2 },
  { 1, 49, -32, -28 },
  { 23, 12, 1, 3 },
  { 5, 6, -28, 1 },
  { 24, 33, -28, -32 },
  { 29, 2, -28, -30 },
  { 7, 43, -27, 1 },
  { 4, 53, -32, -30 },
  { 2, 7, 1, -46 },
  { 29, 6, -32, 1 },
  { 15, 33, -28, -28 },
  { 17, 21, -32, -28 },
  { 28, 39, -27, 1 },
  { 29, 138, 1, -28 },
  { 28, 42, 1, 4 },
  { 9, 33, -28, 1 },
  { 8, 0, -32, 1 },
  { 8, 6, -28, -32 },
  { 26, 89, 1, -28 },
  { 29, 36, 1, 6 },
  { 29, 2, -69, 1 },
  { 5, 0, 1, 3 },
  { 24, 33, -32, 1 },
  { 3, 33, -32, -70 },
  { 5, 1, -28, -36 },
  { 23, 0, -28, -32 },
  { 5, 3, -33, -32 },
  { 0, 32, 1, 40 },
  { 0, 31, 1, 25 },
  { 0, 31, 1, 14 },
  { 0, 30, 1, 11 },
  { 29, 3, 1, 8 },
  { 2, 0, -71, 1 },
  { 2, 67, 1, -2 },
  { 22, 56, -2, 1 },
  { 8, 1, 1, -2 },
  { 9, 31, 1, 2 },
  { 1, 57, -2, -2 },
  { 7, 64, -2, -2 },
  { 11, 0, 1, -2 },
  { 16, 57, -2, -3 },
  { 5, 2, 1, -5 },
  { 16, 64, -2, -2 },
  { 4, 59, -4, 1 },
  { 28, 63, -5, 1 },
  { 0, 31, 1, 6 },
  { 24, 31, 1, 3 },
  { 8, 1, -72, 1 },
  { 5, 3, -73, -3 },
  { 18, 31, -7, 1 },
  { 14, 1, -3, -3 },
  { 24, 31, -3, 1 },
  { 5, 0, -7, -7 },
  { 0, 32, 1, 5 },
  { 4, 57, -8, 1 },
  { 29, 24, 1, 2 },
  { 6, 32, -74, -15 },
  { 14, 3, -4, -7 },
  { 12, 33, 1, -14 },
  { 6, 32, 1, 5 },
  { 11, 9, 1, 3 },
  { 21, 32, 1, -42 },
  { 25, 63, -8, -13 },
  { 28, 67, -13, -8 },
  { 0, 32, 1, 2 },
  { 5, 1, -8, -16 },
  { 9, 32, -16, -18 },
  { 0, 33, 1, 31 },
  { 0, 33, 1, 10 },
  { 19, 50, 1, 3 },
  { 3, 32, -22, 1 },
  { 15, 33, -14, -24 },
  { 17, 5, 1, 3 },
  { 0, 32, 1, -14 },
  { 14, 2, -20, -14 },
  { 17, 9, 1, 2 },
  { 7, 53, -22, -14 },
  { 10, 51, -21, -14 },
  { 0, 33, 1, 6 },
  { 24, 33, 1, 3 },
  { 4, 51, -14, 1 },
  { 10, 52, -25, -22 },
  { 23, 12, 1, -19 },
  { 4, 45, -23, -22 },
  { 2, 17, 1, 9 },
  { 25, 63, 1, 7 },
  { 28, 42, 1, -45 },
  { 5, 24, 1, 4 },
  { 14, 20, 1, -27 },
  { 14, 0, -19, 1 },
  { 14, 2, -27, -19 },
  { 4, 43, -28, -19 },
  { 28, 63, -22, -22 },
  { 2, 19, 1, 2 },
  { 29, 3, -32, -27 },
  { 4, 55, 1, -27 },
  { 19, 45, 1, -19 },
  { 10, 43, -19, -22 },
  { 0, 33, 1, 16 },
  { 18, 33, 1, 8 },
  { 0, 33, 1, 6 },
  { 23, 1, 1, 4 },
  { 25, 44, 1, 2 },
  { 14, 15, -19, -27 },
  { 2, 33, -27, -19 },
  { 17, 19, -27, -28 },
  { 6, 33, -28, -30 },
  { 11, 1, 1, 5 },
  { 21, 33, 1, 2 },
  { 7, 59, -27, -19 },
  { 29, 3, 1, -19 },
  { 17, 1, -28, -32 },
  { 11, 5, 1, -27 },
  { 9, 33, -46, -30 },
  { 0, 33, 1, 22 },
  { 23, 1, 1, 16 },
  { 5, 18, 1, -27 },
  { 28, 44, 1, 4 },
  { 29, 1, 1, 2 },
  { 13, 44, -32, -28 },
  { 21, 33, -28, -28 },
  { 24, 33, -34, 1 },
  { 15, 33, 1, 3 },
  { 20, 1, 1, -32 },
  { 2, 2, -28, -28 },
  { 8, 0, 1, 5 },
  { 17, 16, 1, -27 },
  { 11, 2, -28, 1 },
  { 11, 4, -34, 1 },
  { 4, 53, -30, -30 },
  { 1, 52, -28, -28 },
  { 23, 7, 1, 4 },
  { 29, 14, 1, -28 },
  { 17, 7, -36, 1 },
  { 17, 13, -28, -32 },
  { 14, 19, -46, -30 },
  { 0, 34, 1, 16 },
  { 28, 39, -27, 1 },
  { 17, 18, 1, 13 },
  { 3, 33, 1, 3 },
  { 2, 0, 1, -46 },
  { 20, 27, -32, -28 },
  { 14, 18, 1, 8 },
  { 29, 46, 1, 6 },
  { 29, 2, -75, 1 },
  { 22, 45, 1, 3 },
  { 5, 0, -36, 1 },
  { 5, 1, -28, -36 },
  { 12, 33, -32, -70 },
  { 1, 55, -32, -28 },
  { 8, 0, -28, -32 },
  { 15, 33, -33, -32 },
  { 13, 41, -32, -33 },
  { 0, 32, 1, 36 },
  { 0, 31, 1, 17 },
  { 0, 31, 1, 9 },
  { 2, 1, 1, 4 },
  { 28, 56, -38, 1 },
  { 4, 56, -2, 1 },
  { 25, 57, -38, -56 },
  { 8, 1, 1, 2 },
  { 27, 31, -76, -2 },
  { 2, 3, -3, 1 },
  { 16, 62, -2, -5 },
  { 3, 31, -4, 1 },
  { 4, 60, 1, 3 },
  { 4, 59, 1, -4 },
  { 0, 31, -3, -3 },
  { 13, 61, -5, 1 },
  { 27, 31, -65, 1 },
  { 18, 31, -7, -3 },
  { 0, 32, 1, 13 },
  { 29, 24, 1, 11 },
  { 21, 32, 1, 9 },
  { 17, 2, 1, 5 },
  { 7, 59, 1, 3 },
  { 9, 31, -4, 1 },
  { 1, 58, -4, -9 },
  { 27, 31, -4, -62 },
  { 17, 3, 1, 2 },
  { 7, 68, -4, -12 },
  { 20, 1, -4, -39 },
  { 17, 2, -4, -41 },
  { 28, 63, -4, -7 },
  { 23, 30, 1, -14 },
  { 3, 32, 1, 2 },
  { 10, 56, -16, -53 },
  { 17, 2, -18, 1 },
  { 15, 32, -8, -16 },
  { 0, 33, 1, 42 },
  { 0, 32, 1, 8 },
  { 18, 33, 1, -8 },
  { 25, 68, 1, 5 },
  { 17, 5, -14, 1 },
  { 17, 9, 1, 2 },
  { 10, 53, -22, -14 },
  { 17, 20, -14, -14 },
  { 16, 68, -20, -20 },
  { 0, 33, 1, 13 },
  { 28, 59, 1, 11 },
  { 13, 45, 1, 3 },
  { 29, 16, 1, -22 },
  { 7, 45, -24, -24 },
  { 23, 439, 1, -25 },
  { 19, 53, 1, 5 },
  { 11, 2, 1, 3 },
  { 20, 17, 1, -23 },
  { 27, 33, -19, -22 },
  { 15, 33, -19, -19 },
  { 20, 3, -14, -22 },
  { 12, 33, -14, -14 },
  { 11, 533, 1, -14 },
  { 15, 33, 1, 15 },
  { 2, 18, 1, 11 },
  { 6, 33, 1, 2 },
  { 15, 33, -19, -22 },
  { 4, 64, 1, -22 },
  { 9, 33, 1, 6 },
  { 8, 24, 1, 3 },
  { 14, 21, -45, 1 },
  { 25, 42, -27, -26 },
  { 26, 7, 1, -27 },
  { 16, 44, -19, -19 },
  { 26, 2, -19, -27 },
  { 2, 19, -32, 1 },
  { 2, 22, 1, -19 },
  { 15, 33, -19, -22 },
  { 9, 33, -28, 1 },
  { 6, 33, 1, 2 },
  { 24, 33, -28, -27 },
  { 17, 6, -19, -19 },
  { 0, 33, 1, 21 },
  { 28, 59, 1, 18 },
  { 8, 3, 1, 11 },
  { 14, 38, 1, -28 },
  { 17, 20, 1, -28 },
  { 26, 24, 1, -28 },
  { 5, 6, 1, -19 },
  { 11, 6, 1, 5 },
  { 18, 33, 1, 2 },
  { 29, 11, -27, -19 },
  { 3, 33, 1, -31 },
  { 9, 33, -27, -19 },
  { 5, 0, -27, -19 },
  { 8, 4, 1, 4 },
  { 2, 1, 1, -27 },
  { 18, 33, -27, 1 },
  { 24, 33, -28, -28 },
  { 6, 33, 1, -19 },
  { 2, 2, -27, -27 },
  { 29, 9, 1, -30 },
  { 0, 33, -28, -32 },
  { 0, 33, 1, 28 },
  { 18, 33, 1, 17 },
  { 5, 3, 1, 13 },
  { 17, 25, 1, -27 },
  { 3, 33, -27, 1 },
  { 11, 11, 1, 9 },
  { 5, 1, 1, 6 },
  { 26, 5, 1, 4 },
  { 11, 3, -28, 1 },
  { 6, 33, -32, 1 },
  { 14, 32, -28, -28 },
  { 11, 0, -28, -32 },
  { 26, 13, 1, -27 },
  { 13, 59, -30, -28 },
  { 27, 33, -30, -34 },
  { 2, 3, 1, 2 },
  { 8, 6, -27, -34 },
  { 28, 43, -28, -28 },
  { 25, 59, 1, 7 },
  { 5, 0, 1, 3 },
  { 22, 43, 1, -46 },
  { 1, 42, -28, -32 },
  { 8, 0, -32, 1 },
  { 12, 33, -32, 1 },
  { 1, 42, -28, -28 },
  { 19, 60, -34, 1 },
  { 23, 1, 1, -32 },
  { 26, 9, -30, -28 },
  { 24, 33, 1, 3 },
  { 12, 33, 1, -33 },
  { 14, 2, -28, -32 },
  { 20, 42, 1, 13 },
  { 29, 138, 1, -28 },
  { 27, 33, 1, 2 },
  { 17, 6, -36, -28 },
  { 9, 33, -28, 1 },
  { 3, 33, 1, 2 },
  { 1, 45, -28, -32 },
  { 14, 25, 1, 5 },
  { 29, 3, -47, 1 },
  { 8, 2, 1, 2 },
  { 7, 43, -32, -36 },
  { 29, 4, -28, -32 },
  { 14, 33, -28, -32 },
  { 24, 33, -28, -32 },
  { 0, 32, 1, 41 },
  { 0, 31, 1, 17 },
  { 0, 31, 1, 8 },
  { 0, 31, 1, 6 },
  { 29, 3, 1, 3 },
  { 7, 57, -38, 1 },
  { 19, 57, -2, -56 },
  { 2, 1, -2, 1 },
  { 21, 31, -3, -2 },
  { 11, 13, -2, -3 },
  { 7, 58, -4, 1 },
  { 29, 5, 1, 4 },
  { 29, 0, -72, 1 },
  { 15, 31, -3, 1 },
  { 7, 63, -3, -3 },
  { 21, 31, 1, -7 },
  { 16, 66, -3, 1 },
  { 5, 1, -3, -3 },
  { 0, 31, 1, 14 },
  { 12, 31, 1, 12 },
  { 23, 1, 1, 5 },
  { 22, 58, 1, -58 },
  { 17, 1, 1, 2 },
  { 26, 0, -4, -4 },
  { 13, 58, -4, -4 },
  { 23, 3, 1, 4 },
  { 26, 2, 1, -40 },
  { 17, 1, 1, -12 },
  { 4, 59, -4, -4 },
  { 16, 67, -9, 1 },
  { 14, 2, -9, -4 },
  { 29, 1, -4, -13 },
  { 0, 32, 1, 7 },
  { 20, 4, 1, 2 },
  { 10, 56, -16, -53 },
  { 20, 6, -13, 1 },
  { 0, 32, -15, 1 },
  { 15, 32, 1, -16 },
  { 5, 2, -8, -8 },
  { 9, 33, 1, -14 },
  { 16, 56, -20, -18 },
  { 0, 33, 1, 33 },
  { 0, 32, 1, 7 },
  { 3, 33, 1, 5 },
  { 25, 68, 1, -20 },
  { 10, 53, 1, -14 },
  { 19, 54, -44, 1 },
  { 20, 14, -22, -14 },
  { 28, 59, -14, -8 },
  { 23, 405, 1, 24 },
  { 0, 33, 1, 8 },
  { 20, 2, 1, 3 },
  { 8, 22, 1, -19 },
  { 10, 45, -22, -22 },
  { 18, 33, 1, 3 },
  { 9, 33, -19, 1 },
  { 26, 14, -23, -24 },
  { 13, 55, -24, -14 },
  { 4, 64, 1, -22 },
  { 15, 33, 1, 11 },
  { 3, 33, 1, 9 },
  { 2, 20, 1, 7 },
  { 2, 17, 1, 5 },
  { 6, 33, 1, 2 },
  { 21, 33, -19, -22 },
  { 8, 23, -45, 1 },
  { 10, 44, -27, -19 },
  { 29, 3, -19, -27 },
  { 2, 22, -22, -19 },
  { 26, 2, -19, -27 },
  { 6, 33, 1, -19 },
  { 13, 50, 1, -27 },
  { 29, 0, -28, -28 },
  { 16, 51, -25, -14 },
  { 0, 33, 1, 23 },
  { 13, 59, 1, 21 },
  { 2, 1, 1, 14 },
  { 23, 5, 1, 9 },
  { 29, 0, 1, 5 },
  { 20, 1, 1, 3 },
  { 15, 33, 1, -27 },
  { 2, 0, -28, -30 },
  { 5, 1, -27, -27 },
  { 21, 33, 1, -27 },
  { 29, 3, -27, 1 },
  { 6, 33, -19, -19 },
  { 17, 0, 1, 3 },
  { 10, 43, -34, 1 },
  { 10, 45, -27, -27 },
  { 15, 33, -28, -30 },
  { 29, 8, 1, -28 },
  { 29, 1, 1, 3 },
  { 23, 22, 1, -19 },
  { 28, 42, -27, -27 },
  { 5, 1, -19, 1 },
  { 13, 44, -19, -27 },
  { 20, 3, -28, -32 },
  { 0, 33, 1, 17 },
  { 15, 33, 1, 3 },
  { 6, 33, -32, 1 },
  { 10, 42, -27, -28 },
  { 5, 34, 1, -27 },
  { 14, 3, 1, 9 },
  { 5, 6, 1, 7 },
  { 18, 33, 1, 2 },
  { 13, 43, -28, -30 },
  { 17, 1, 1, 3 },
  { 12, 33, -28, 1 },
  { 9, 33, -28, -28 },
  { 23, 1, -32, -28 },
  { 12, 33, -28, -32 },
  { 17, 14, 1, -27 },
  { 8, 2, -30, 1 },
  { 11, 9, -28, -32 },
  { 1, 39, 1, 2 },
  { 9, 34, -33, -32 },
  { 17, 18, 1, 21 },
  { 3, 33, 1, 5 },
  { 2, 1, 1, 2 },
  { 20, 27, -32, -28 },
  { 20, 3, 1, -32 },
  { 17, 1, -28, -28 },
  { 14, 17, 1, 14 },
  { 29, 46, 1, 12 },
  { 25, 42, 1, 4 },
  { 22, 42, 1, -28 },
  { 17, 7, 1, -28 },
  { 16, 39, -32, -36 },
  { 29, 2, -75, 1 },
  { 5, 0, 1, 3 },
  { 10, 41, -32, 1 },
  { 26, 5, -32, -32 },
  { 5, 1, -28, 1 },
  { 28, 60, -32, 1 },
  { 9, 33, -28, -32 },
  { 17, 4, -28, -32 },
  { 8, 0, -28, -32 },
  { 20, 7, -32, -33 },
  { 0, 32, 1, 39 },
  { 0, 31, 1, 9 },
  { 0, 31, 1, 3 },
  { 0, 30, -77, 1 },
  { 12, 31, -5, -2 },
  { 10, 60, 1, 3 },
  { 26, 0, 1, -3 },
  { 22, 58, -4, -4 },
  { 28, 64, -5, 1 },
  { 14, 7, -65, -3 },
  { 0, 32, 1, 14 },
  { 29, 3, 1, 11 },
  { 5, 2, 1, 6 },
  { 15, 32, 1, 2 },
  { 27, 31, -4, -52 },
  { 17, 2, 1, -13 },
  { 9, 32, -4, 1 },
  { 14, 0, -4, -4 },
  { 5, 3, 1, 2 },
  { 1, 68, -78, -4 },
  { 16, 59, -4, 1 },
  { 7, 67, -4, -4 },
  { 29, 4, 1, -9 },
  { 1, 63, -40, -4 },
  { 0, 32, 1, 11 },
  { 11, 9, 1, 8 },
  { 4, 56, -16, 1 },
  { 21, 32, 1, 2 },
  { 21, 31, -8, -13 },
  { 15, 32, -8, 1 },
  { 6, 32, -8, 1 },
  { 26, 0, -53, 1 },
  { 6, 32, -8, -8 },
  { 13, 67, -13, 1 },
  { 2, 9, -8, -8 },
  { 14, 3, 1, 2 },
  { 5, 3, -16, -8 },
  { 3, 32, 1, -16 },
  { 1, 61, -20, -14 },
  { 0, 33, 1, 37 },
  { 0, 32, 1, 8 },
  { 15, 33, 1, 6 },
  { 6, 33, 1, 4 },
  { 19, 68, -54, 1 },
  { 7, 68, 1, -14 },
  { 2, 1, -20, -20 },
  { 25, 58, -14, -8 },
  { 20, 493, -14, -22 },
  { 0, 33, 1, 9 },
  { 19, 58, 1, 7 },
  { 2, 5, 1, 5 },
  { 26, 15, 1, 3 },
  { 15, 33, -23, 1 },
  { 20, 3, -22, -19 },
  { 29, 225, -24, -25 },
  { 13, 49, -22, -19 },
  { 29, 39, -14, -14 },
  { 18, 33, 1, 15 },
  { 5, 621, 1, -14 },
  { 4, 64, 1, -22 },
  { 2, 17, 1, 7 },
  { 8, 24, 1, 5 },
  { 6, 33, 1, 2 },
  { 2, 0, -22, -19 },
  { 14, 21, -26, 1 },
  { 4, 43, -27, -26 },
  { 22, 43, -27, -19 },
  { 2, 20, 1, 2 },
  { 19, 47, -27, -32 },
  { 17, 3, 1, 2 },
  { 2, 22, -22, -19 },
  { 14, 223, -27, -19 },
  { 22, 41, 1, 2 },
  { 18, 33, -27, -19 },
  { 2, 2, 1, -19 },
  { 10, 42, -28, -28 },
  { 0, 33, 1, 13 },
  { 8, 3, 1, 9 },
  { 14, 17, 1, 7 },
  { 5, 5, 1, 4 },
  { 29, 13, 1, -19 },
  { 24, 33, -34, 1 },
  { 21, 33, -19, -31 },
  { 4, 45, 1, -27 },
  { 23, 20, -19, -19 },
  { 14, 25, -28, -27 },
  { 21, 33, -27, 1 },
  { 29, 1, 1, -27 },
  { 18, 33, -28, -28 },
  { 0, 34, 1, 44 },
  { 0, 33, 1, 27 },
  { 6, 33, 1, 22 },
  { 15, 33, 1, 3 },
  { 27, 33, -27, 1 },
  { 17, 2, -28, -32 },
  { 14, 23, 1, -30 },
  { 25, 43, 1, 3 },
  { 21, 33, -28, 1 },
  { 12, 33, -32, -32 },
  { 8, 1, 1, 11 },
  { 20, 1, 1, 9 },
  { 17, 3, 1, 5 },
  { 17, 0, 1, 3 },
  { 5, 21, 1, -32 },
  { 12, 33, -28, -28 },
  { 14, 0, -28, -32 },
  { 6, 33, 1, 2 },
  { 22, 45, -28, -32 },
  { 18, 33, -30, -34 },
  { 11, 0, -32, -32 },
  { 24, 33, -34, 1 },
  { 16, 52, -28, 1 },
  { 15, 33, -28, -28 },
  { 5, 12, 1, 3 },
  { 11, 13, -28, 1 },
  { 3, 33, -34, -27 },
  { 8, 2, -27, -27 },
  { 28, 39, -27, 1 },
  { 3, 33, 1, 5 },
  { 6, 33, 1, 3 },
  { 26, 4, -32, 1 },
  { 9, 33, -28, -28 },
  { 29, 1, -28, -28 },
  { 14, 17, 1, 9 },
  { 25, 42, 1, 2 },
  { 7, 43, -32, -28 },
  { 2, 1, -47, 1 },
  { 22, 44, 1, 3 },
  { 2, 15, 1, -32 },
  { 5, 0, -32, -28 },
  { 29, 7, -55, 1 },
  { 18, 33, -28, -32 },
  { 14, 48, -28, -32 },
  { 11, 0, -33, -32 },
  { 0, 32, 1, 36 },
  { 0, 31, 1, 12 },
  { 0, 31, 1, 6 },
  { 0, 31, 1, 4 },
  { 19, 56, 1, -77 },
  { 11, 0, -2, 1 },
  { 29, 1, -2, -2 },
  { 12, 31, -3, -2 },
  { 1, 60, 1, 2 },
  { 29, 1, -4, -3 },
  { 13, 61, -5, 1 },
  { 27, 31, -72, 1 },
  { 18, 31, -7, -3 },
  { 0, 32, 1, 15 },
  { 7, 57, -8, 1 },
  { 3, 32, 1, -15 },
  { 29, 24, 1, 11 },
  { 23, 1, 1, 4 },
  { 23, 0, 1, -13 },
  { 9, 31, -4, 1 },
  { 6, 31, -4, -58 },
  { 23, 3, 1, 3 },
  { 26, 2, 1, -40 },
  { 17, 2, -4, -12 },
  { 28, 67, 1, -9 },
  { 20, 1, 1, -9 },
  { 8, 3, -4, -4 },
  { 22, 63, -4, -7 },
  { 23, 27, 1, -14 },
  { 3, 32, 1, 5 },
  { 11, 9, 1, 2 },
  { 10, 56, -16, -17 },
  { 22, 67, -13, 1 },
  { 17, 8, -8, -8 },
  { 17, 2, -16, 1 },
  { 26, 2, -8, -16 },
  { 0, 33, 1, 33 },
  { 0, 32, 1, 8 },
  { 14, 621, 1, 6 },
  { 19, 68, 1, 4 },
  { 17, 5, -14, 1 },
  { 17, 9, 1, -14 },
  { 10, 54, -22, -14 },
  { 0, 32, -20, -14 },
  { 18, 33, -14, -22 },
  { 0, 33, 1, 10 },
  { 20, 12, 1, 8 },
  { 9, 33, 1, 4 },
  { 4, 51, -14, 1 },
  { 28, 52, -25, 1 },
  { 17, 14, -22, -19 },
  { 26, 4, 1, -19 },
  { 20, 4, 1, -19 },
  { 16, 56, -79, -22 },
  { 6, 33, -14, -24 },
  { 12, 33, 1, 9 },
  { 2, 17, 1, 6 },
  { 3, 33, 1, 2 },
  { 6, 33, -22, -19 },
  { 28, 42, 1, -29 },
  { 14, 15, 1, -27 },
  { 8, 24, -26, -27 },
  { 2, 19, 1, -26 },
  { 11, 2, -27, -32 },
  { 20, 15, 1, -28 },
  { 29, 0, -19, 1 },
  { 12, 33, 1, -28 },
  { 20, 1, -19, 1 },
  { 8, 2, -19, -27 },
  { 0, 33, 1, 23 },
  { 3, 33, 1, 4 },
  { 23, 1, 1, 2 },
  { 5, 9, -27, -19 },
  { 6, 33, -28, -34 },
  { 13, 59, 1, 17 },
  { 23, 21, 1, -28 },
  { 14, 23, 1, -28 },
  { 13, 43, 1, 2 },
  { 6, 33, -27, -19 },
  { 21, 33, -30, 1 },
  { 20, 18, 1, 10 },
  { 23, 18, 1, -19 },
  { 11, 3, 1, 6 },
  { 12, 33, -27, 1 },
  { 27, 33, -27, 1 },
  { 16, 45, 1, -27 },
  { 17, 0, -27, 1 },
  { 5, 3, -27, -27 },
  { 2, 1, 1, -27 },
  { 23, 4, -28, -27 },
  { 2, 0, -27, -30 },
  { 18, 33, -28, -28 },
  { 0, 33, 1, 22 },
  { 15, 33, 1, 3 },
  { 5, 1, -32, 1 },
  { 17, 13, -27, -28 },
  { 6, 33, 1, 16 },
  { 17, 3, 1, 10 },
  { 29, 15, 1, 8 },
  { 14, 23, 1, -30 },
  { 2, 6, 1, 5 },
  { 23, 7, 1, 3 },
  { 21, 33, -28, 1 },
  { 7, 44, -36, -32 },
  { 11, 2, -28, -32 },
  { 1, 53, -28, -28 },
  { 3, 33, -28, -28 },
  { 15, 33, 1, 2 },
  { 14, 4, -32, -28 },
  { 8, 0, 1, -28 },
  { 24, 33, -30, 1 },
  { 21, 33, -34, -27 },
  { 1, 60, 1, -27 },
  { 11, 16, -28, -27 },
  { 28, 39, -27, 1 },
  { 0, 34, 1, 22 },
  { 17, 16, 1, 20 },
  { 14, 13, 1, 17 },
  { 29, 5, 1, 12 },
  { 17, 7, 1, 10 },
  { 29, 1, -50, 1 },
  { 7, 44, 1, 7 },
  { 4, 43, 1, 2 },
  { 13, 42, -36, -32 },
  { 26, 0, 1, 2 },
  { 20, 1, -28, -32 },
  { 29, 2, -32, 1 },
  { 17, 0, -32, -32 },
  { 27, 33, -32, -32 },
  { 16, 42, -28, -32 },
  { 10, 59, 1, 2 },
  { 15, 33, -28, -36 },
  { 20, 0, 1, -28 },
  { 11, 16, -32, -28 },
  { 9, 33, -28, 1 },
  { 8, 0, -28, -32 },
  { 21, 33, -33, -32 },
  { 19, 43, -32, 1 },
  { 21, 33, -33, -33 },
  { 0, 32, 1, 39 },
  { 0, 31, 1, 15 },
  { 0, 30, 1, 4 },
  { 29, 3, -77, 1 },
  { 2, 1, -38, 1 },
  { 2, 3, -3, -2 },
  { 7, 60, 1, 4 },
  { 3, 31, 1, 2 },
  { 9, 31, -4, -4 },
  { 29, 3, -3, -3 },
  { 0, 31, 1, 2 },
  { 5, 2, -2, -5 },
  { 0, 31, 1, -61 },
  { 24, 31, 1, 2 },
  { 4, 66, -57, -72 },
  { 15, 31, -7, -3 },
  { 0, 31, 1, 12 },
  { 29, 24, 1, 9 },
  { 29, 3, 1, 4 },
  { 4, 68, -52, 1 },
  { 1, 68, -12, 1 },
  { 28, 67, -4, -11 },
  { 28, 63, 1, -4 },
  { 29, 4, -40, 1 },
  { 20, 16, 1, -4 },
  { 5, 8, -4, -4 },
  { 2, 2, 1, -7 },
  { 4, 64, -4, -4 },
  { 11, 9, 1, 9 },
  { 3, 32, 1, 5 },
  { 10, 56, -16, 1 },
  { 18, 32, 1, 2 },
  { 18, 32, -8, -13 },
  { 0, 32, -15, -42 },
  { 13, 56, -20, 1 },
  { 17, 2, -16, 1 },
  { 21, 32, -8, -16 },
  { 26, 2, -41, 1 },
  { 1, 67, -8, -16 },
  { 0, 33, 1, 31 },
  { 0, 32, 1, 5 },
  { 18, 33, 1, 3 },
  { 25, 68, -54, 1 },
  { 6, 32, -20, -20 },
  { 1, 59, -14, -8 },
  { 0, 33, 1, 8 },
  { 6, 33, 1, 4 },
  { 28, 45, -22, 1 },
  { 25, 53, 1, -14 },
  { 13, 47, -24, -25 },
  { 4, 45, 1, 2 },
  { 26, 14, -23, -24 },
  { 20, 2, -22, -19 },
  { 11, 533, 1, -14 },
  { 15, 33, 1, 14 },
  { 4, 64, 1, -22 },
  { 28, 41, 1, 3 },
  { 14, 12, 1, -27 },
  { 26, 11, -26, -27 },
  { 15, 33, 1, -27 },
  { 6, 33, 1, 6 },
  { 2, 20, 1, 4 },
  { 3, 33, 1, 2 },
  { 6, 33, -22, -19 },
  { 26, 18, -26, -19 },
  { 2, 22, -22, -26 },
  { 26, 2, 1, -27 },
  { 18, 33, -19, -19 },
  { 28, 41, -19, 1 },
  { 26, 12, -28, -19 },
  { 0, 33, 1, 18 },
  { 14, 38, 1, -28 },
  { 16, 59, 1, 15 },
  { 29, 0, 1, 8 },
  { 20, 3, 1, 6 },
  { 2, 1, 1, 4 },
  { 12, 33, 1, 2 },
  { 2, 0, -28, -30 },
  { 19, 44, -19, -27 },
  { 16, 52, -27, -28 },
  { 25, 44, -19, -27 },
  { 11, 1, 1, 4 },
  { 25, 42, -19, 1 },
  { 7, 59, 1, -19 },
  { 7, 45, -27, -27 },
  { 4, 59, 1, -30 },
  { 11, 2, -34, -27 },
  { 10, 60, -28, -28 },
  { 0, 34, 1, -33 },
  { 0, 33, 1, 24 },
  { 5, 21, 1, 22 },
  { 20, 0, 1, 12 },
  { 27, 33, 1, 2 },
  { 14, 21, -27, -28 },
  { 17, 26, 1, -27 },
  { 11, 14, 1, 7 },
  { 28, 43, 1, 2 },
  { 11, 0, -28, -32 },
  { 14, 34, 1, -30 },
  { 3, 33, -32, 1 },
  { 6, 33, -30, 1 },
  { 5, 17, -28, -32 },
  { 10, 52, -30, -34 },
  { 14, 19, 1, -30 },
  { 8, 0, 1, 3 },
  { 21, 33, -32, 1 },
  { 2, 4, -28, -28 },
  { 5, 7, 1, 4 },
  { 6, 33, 1, 2 },
  { 17, 1, -28, -28 },
  { 23, 3, -28, -28 },
  { 16, 52, -32, -28 },
  { 9, 33, -32, -27 },
  { 28, 39, -27, 1 },
  { 3, 33, 1, 4 },
  { 6, 33, 1, -28 },
  { 2, 1, -32, 1 },
  { 6, 33, -28, -28 },
  { 20, 13, 1, 16 },
  { 29, 138, 1, -28 },
  { 14, 18, 1, 13 },
  { 5, 21, 1, 11 },
  { 29, 1, -55, 1 },
  { 2, 1, 1, 5 },
  { 25, 42, 1, 2 },
  { 28, 41, -32, -28 },
  { 19, 42, -32, 1 },
  { 21, 33, -32, -55 },
  { 5, 0, -36, 1 },
  { 23, 0, 1, 2 },
  { 14, 2, -28, -32 },
  { 11, 9, -32, -32 },
  { 17, 7, -36, -28 },
  { 8, 0, -28, -36 },
  { 25, 53, -33, -32 },
  { 0, 32, 1, 33 },
  { 0, 31, 1, 14 },
  { 0, 31, 1, 7 },
  { 3, 30, 1, 5 },
  { 5, 14, 1, -38 },
  { 8, 0, 1, -80 },
  { 16, 59, 1, -2 },
  { 1, 57, -38, -2 },
  { 11, 13, -2, -3 },
  { 25, 60, 1, 2 },
  { 2, 1, -4, -3 },
  { 13, 61, -5, 1 },
  { 27, 31, -72, 1 },
  { 29, 3, -3, 1 },
  { 17, 2, -7, -7 },
  { 0, 31, 1, 11 },
  { 7, 57, -8, 1 },
  { 29, 3, 1, 5 },
  { 18, 32, 1, 3 },
  { 23, 2, -48, 1 },
  { 23, 3, -12, -4 },
  { 29, 1, -4, -13 },
  { 20, 2, 1, -4 },
  { 8, 5, 1, -7 },
  { 20, 0, 1, -40 },
  { 28, 63, -4, -4 },
  { 11, 9, 1, 6 },
  { 3, 32, 1, 4 },
  { 0, 32, -15, 1 },
  { 10, 56, -16, 1 },
  { 15, 32, -8, -42 },
  { 7, 66, -16, -8 },
  { 26, 0, -13, -49 },
  { 0, 33, 1, 15 },
  { 0, 32, 1, 12 },
  { 0, 32, 1, 3 },
  { 28, 66, 1, -16 },
  { 2, 2, -14, -20 },
  { 3, 33, 1, -8 },
  { 18, 33, 1, -22 },
  { 25, 68, 1, 5 },
  { 17, 5, -14, 1 },
  { 17, 9, 1, 2 },
  { 1, 53, -22, -14 },
  { 13, 51, -14, -44 },
  { 2, 1, -20, -20 },
  { 24, 33, 1, -24 },
  { 29, 323, -22, -19 },
  { 0, 33, 1, 43 },
  { 0, 33, 1, 24 },
  { 0, 33, 1, 6 },
  { 10, 45, -24, 1 },
  { 27, 33, -19, 1 },
  { 14, 34, 1, -23 },
  { 23, 6, 1, -19 },
  { 1, 55, -22, -22 },
  { 1, 64, 1, 16 },
  { 2, 17, 1, 10 },
  { 21, 33, 1, 5 },
  { 28, 42, 1, -29 },
  { 8, 24, 1, -27 },
  { 14, 20, 1, -27 },
  { 23, 0, -19, -19 },
  { 20, 16, 1, -28 },
  { 29, 5, 1, 2 },
  { 5, 2, -19, -19 },
  { 9, 33, -27, -19 },
  { 2, 19, 1, 2 },
  { 17, 5, -32, -27 },
  { 9, 33, 1, -27 },
  { 5, 1, -19, 1 },
  { 19, 45, -22, -19 },
  { 29, 0, -22, -22 },
  { 8, 3, 1, 15 },
  { 14, 38, 1, -28 },
  { 29, 3, 1, 9 },
  { 5, 6, 1, 7 },
  { 21, 33, 1, -28 },
  { 23, 16, 1, 4 },
  { 9, 33, -27, 1 },
  { 19, 44, -27, 1 },
  { 3, 33, -27, -68 },
  { 22, 43, -34, -27 },
  { 9, 33, -19, -19 },
  { 20, 0, 1, 2 },
  { 6, 33, -27, -26 },
  { 24, 33, 1, -27 },
  { 16, 43, -27, -27 },
  { 29, 0, 1, 2 },
  { 8, 13, -28, -27 },
  { 13, 52, -27, -19 },
  { 0, 33, 1, 22 },
  { 10, 42, 1, 6 },
  { 14, 1, 1, 4 },
  { 17, 2, 1, -32 },
  { 20, 12, -68, 1 },
  { 1, 41, -27, -32 },
  { 11, 2, -28, -32 },
  { 5, 34, 1, -27 },
  { 11, 5, 1, 12 },
  { 17, 26, 1, 10 },
  { 21, 33, 1, 2 },
  { 2, 2, -30, -28 },
  { 6, 33, -32, 1 },
  { 5, 6, 1, 4 },
  { 26, 1, -35, 1 },
  { 21, 33, -32, 1 },
  { 18, 33, -28, -28 },
  { 11, 3, -32, 1 },
  { 10, 52, -28, -28 },
  { 11, 1, -28, -27 },
  { 20, 1, 1, -32 },
  { 8, 1, -30, -34 },
  { 28, 39, -27, 1 },
  { 0, 34, 1, -33 },
  { 3, 33, 1, 5 },
  { 17, 2, 1, -32 },
  { 8, 0, -28, 1 },
  { 26, 3, -32, 1 },
  { 15, 33, -28, -28 },
  { 17, 18, 1, 14 },
  { 29, 138, 1, -28 },
  { 14, 20, 1, -28 },
  { 29, 7, 1, 10 },
  { 29, 2, 1, 3 },
  { 27, 33, 1, -47 },
  { 26, 2, -28, -32 },
  { 28, 45, 1, 5 },
  { 8, 1, 1, 3 },
  { 11, 0, -32, 1 },
  { 11, 1, -28, -32 },
  { 29, 3, -32, -28 },
  { 22, 45, -32, -55 },
  { 20, 0, -36, -28 },
  { 4, 43, -33, -32 },
  { 6, 32, 1, 26 },
  { 0, 31, 1, 7 },
  { 0, 31, 1, 3 },
  { 0, 30, -56, 1 },
  { 0, 31, -5, -2 },
  { 4, 60, 1, -81 },
  { 29, 1, 1, -3 },
  { 11, 1, -4, -4 },
  { 0, 31, 1, 10 },
  { 4, 58, -8, 1 },
  { 24, 32, 1, 7 },
  { 23, 1, -52, 1 },
  { 23, 3, 1, -11 },
  { 1, 68, 1, -4 },
  { 14, 1, 1, 2 },
  { 19, 64, -40, -12 },
  { 11, 0, -4, -4 },
  { 29, 1, -4, -13 },
  { 11, 9, 1, 6 },
  { 10, 56, -16, 1 },
  { 0, 32, -15, 1 },
  { 16, 57, -8, 1 },
  { 24, 32, -8, 1 },
  { 13, 57, -8, -17 },
  { 14, 0, 1, -13 },
  { 5, 5, -8, -8 },
  { 0, 33, 1, 53 },
  { 0, 33, 1, 16 },
  { 6, 32, 1, 3 },
  { 29, 1, 1, -14 },
  { 20, 1, -8, -16 },
  { 0, 32, 1, 10 },
  { 18, 33, 1, 8 },
  { 25, 68, 1, 6 },
  { 17, 5, -67, 1 },
  { 17, 9, 1, 3 },
  { 7, 53, -22, 1 },
  { 5, 8, -14, -14 },
  { 11, 14, -21, -14 },
  { 29, 5, -20, -14 },
  { 14, 1, -14, -8 },
  { 4, 45, -24, 1 },
  { 27, 33, -19, -22 },
  { 23, 392, 1, 35 },
  { 0, 33, 1, 19 },
  { 0, 33, 1, 3 },
  { 6, 33, 1, -22 },
  { 9, 33, -24, -14 },
  { 1, 41, 1, 5 },
  { 29, 0, 1, 2 },
  { 2, 0, -19, -19 },
  { 17, 11, 1, -19 },
  { 23, 1, -27, -19 },
  { 4, 64, 1, -22 },
  { 6, 33, 1, 3 },
  { 15, 33, -19, 1 },
  { 14, 4, -22, -22 },
  { 11, 37, 1, 5 },
  { 2, 19, 1, 3 },
  { 14, 21, -29, 1 },
  { 13, 42, -27, -19 },
  { 2, 23, -22, -19 },
  { 11, 57, -27, -19 },
  { 19, 60, 1, -28 },
  { 14, 5, 1, 12 },
  { 29, 1, 1, 7 },
  { 20, 1, 1, 5 },
  { 23, 0, -28, 1 },
  { 6, 33, -28, 1 },
  { 25, 42, -34, 1 },
  { 8, 15, -27, -19 },
  { 5, 6, -27, -19 },
  { 14, 1, 1, 3 },
  { 11, 9, 1, -27 },
  { 23, 9, -26, -27 },
  { 26, 3, -27, -27 },
  { 9, 33, -28, 1 },
  { 15, 33, -27, -27 },
  { 26, 183, -14, -25 },
  { 0, 33, 1, 30 },
  { 0, 33, 1, 4 },
  { 21, 33, 1, 2 },
  { 4, 59, -27, -19 },
  { 23, 1, -32, -28 },
  { 3, 33, -27, 1 },
  { 24, 33, 1, 7 },
  { 5, 1, 1, 4 },
  { 8, 3, 1, -30 },
  { 17, 3, -28, 1 },
  { 14, 2, -32, -28 },
  { 3, 33, -28, 1 },
  { 7, 43, -27, -34 },
  { 6, 33, 1, 14 },
  { 9, 33, 1, 3 },
  { 17, 0, -28, 1 },
  { 26, 4, -32, -32 },
  { 17, 3, 1, 8 },
  { 17, 0, 1, 5 },
  { 3, 33, -30, 1 },
  { 1, 60, 1, 2 },
  { 11, 9, -28, -32 },
  { 15, 33, -32, -28 },
  { 14, 0, -32, 1 },
  { 7, 44, -32, -32 },
  { 8, 0, 1, -28 },
  { 15, 33, -30, -34 },
  { 19, 59, -28, 1 },
  { 24, 33, -28, 1 },
  { 10, 60, -34, -27 },
  { 1, 39, -33, 1 },
  { 28, 39, -27, 1 },
  { 29, 43, 1, 19 },
  { 3, 33, 1, 4 },
  { 2, 1, -32, 1 },
  { 9, 33, -28, 1 },
  { 9, 33, -28, -28 },
  { 14, 18, 1, 12 },
  { 29, 1, 1, 3 },
  { 17, 7, -75, 1 },
  { 24, 33, -28, -32 },
  { 5, 0, 1, 5 },
  { 25, 42, 1, 2 },
  { 18, 33, -32, -28 },
  { 1, 44, -55, 1 },
  { 1, 46, -36, -32 },
  { 5, 1, -28, 1 },
  { 9, 33, 1, -32 },
  { 24, 33, -32, -28 },
  { 8, 0, -28, 1 },
  { 1, 46, -32, -32 },
  { 16, 55, -32, -28 },
  { 0, 32, 1, 38 },
  { 0, 31, 1, 20 },
  { 0, 30, 1, 10 },
  { 29, 3, 1, 7 },
  { 4, 59, 1, 5 },
  { 2, 1, -64, 1 },
  { 17, 1, -76, 1 },
  { 8, 0, -2, 1 },
  { 28, 58, -2, -2 },
  { 10, 65, -2, -76 },
  { 29, 4, 1, -2 },
  { 22, 59, -3, -2 },
  { 4, 60, 1, 2 },
  { 19, 58, -4, -4 },
  { 25, 62, -5, 1 },
  { 3, 30, -5, 1 },
  { 0, 31, 1, -7 },
  { 27, 31, 1, 2 },
  { 3, 31, -3, -57 },
  { 11, 1, -7, 1 },
  { 29, 1, -3, -3 },
  { 0, 32, 1, 10 },
  { 3, 32, 1, -15 },
  { 29, 24, 1, 7 },
  { 23, 1, 1, 2 },
  { 23, 0, -11, -13 },
  { 29, 3, 1, 3 },
  { 13, 68, -62, 1 },
  { 1, 68, -12, -4 },
  { 22, 63, -40, -9 },
  { 14, 3, -4, -7 },
  { 12, 33, 1, -14 },
  { 0, 32, 1, 5 },
  { 18, 32, 1, 3 },
  { 5, 0, -13, 1 },
  { 19, 62, -8, -8 },
  { 10, 56, -16, -17 },
  { 6, 32, -8, -16 },
  { 0, 33, 1, 49 },
  { 0, 32, 1, 6 },
  { 3, 33, 1, 4 },
  { 20, 619, 1, -22 },
  { 25, 68, -82, 1 },
  { 14, 2, -20, -14 },
  { 29, 1, -8, -14 },
  { 6, 33, 1, 5 },
  { 2, 30, 1, 3 },
  { 3, 32, -22, 1 },
  { 10, 49, -24, -14 },
  { 13, 49, -22, -19 },
  { 21, 33, 1, 18 },
  { 0, 33, 1, 2 },
  { 20, 4, -22, -19 },
  { 0, 33, 1, 11 },
  { 2, 17, 1, 8 },
  { 3, 33, 1, 2 },
  { 10, 45, -19, -22 },
  { 25, 63, 1, -22 },
  { 25, 41, 1, 2 },
  { 2, 1, -27, -19 },
  { 6, 33, 1, -45 },
  { 8, 26, -22, -19 },
  { 2, 19, 1, -26 },
  { 17, 5, -32, -27 },
  { 17, 20, 1, -28 },
  { 23, 25, 1, -34 },
  { 26, 2, 1, -27 },
  { 11, 17, -19, -27 },
  { 20, 17, 1, 16 },
  { 0, 33, 1, 4 },
  { 21, 33, 1, 2 },
  { 23, 0, -27, -19 },
  { 14, 54, -19, -27 },
  { 14, 17, 1, -28 },
  { 8, 3, 1, 7 },
  { 28, 41, -19, 1 },
  { 8, 1, 1, 4 },
  { 22, 45, -27, 1 },
  { 12, 33, 1, -27 },
  { 23, 8, -27, -27 },
  { 27, 33, -19, -27 },
  { 19, 45, -27, 1 },
  { 20, 2, 1, -27 },
  { 25, 45, -28, -28 },
  { 20, 31, 1, 2 },
  { 17, 1, -30, -28 },
  { 12, 33, -27, -27 },
  { 0, 33, 1, 28 },
  { 18, 33, 1, 14 },
  { 24, 33, 1, 12 },
  { 5, 0, 1, 7 },
  { 3, 33, -32, 1 },
  { 23, 1, 1, -32 },
  { 6, 33, -30, 1 },
  { 11, 8, 1, -30 },
  { 18, 33, -28, 1 },
  { 1, 60, -28, -28 },
  { 2, 1, 1, 2 },
  { 15, 33, -27, -28 },
  { 12, 33, -28, 1 },
  { 18, 33, -27, -19 },
  { 16, 52, -27, -34 },
  { 11, 22, 1, -27 },
  { 9, 33, -32, 1 },
  { 2, 2, 1, 7 },
  { 23, 1, 1, 5 },
  { 11, 2, 1, 2 },
  { 27, 33, -28, -28 },
  { 7, 52, -28, 1 },
  { 5, 0, -34, -30 },
  { 5, 0, -28, -32 },
  { 17, 3, 1, 3 },
  { 2, 7, -32, 1 },
  { 14, 2, -28, -32 },
  { 2, 13, -28, -28 },
  { 1, 40, 1, 2 },
  { 24, 33, -33, -32 },
  { 17, 18, 1, 16 },
  { 29, 43, 1, 14 },
  { 9, 33, 1, 3 },
  { 14, 19, 1, -28 },
  { 29, 1, -32, -28 },
  { 3, 33, 1, 3 },
  { 2, 1, -32, 1 },
  { 4, 44, -28, -28 },
  { 14, 26, 1, 6 },
  { 29, 1, -50, 1 },
  { 11, 0, -55, 1 },
  { 11, 1, 1, 2 },
  { 10, 50, -28, -32 },
  { 22, 43, -28, -32 },
  { 22, 45, -28, -32 },
  { 23, 0, -28, -32 },
  { 14, 1, -33, -32 },
  { 0, 32, 1, 24 },
  { 0, 31, 1, 10 },
  { 0, 31, 1, 6 },
  { 0, 30, 1, 4 },
  { 29, 3, -56, 1 },
  { 19, 58, 1, -38 },
  { 20, 1, -3, -2 },
  { 19, 62, -2, -5 },
  { 27, 31, -3, 1 },
  { 12, 31, -7, 1 },
  { 1, 59, -3, -3 },
  { 3, 31, 1, 7 },
  { 4, 57, -8, 1 },
  { 29, 24, 1, 4 },
  { 12, 31, -4, 1 },
  { 12, 32, -13, 1 },
  { 11, 2, -4, -4 },
  { 14, 3, -4, -7 },
  { 23, 30, 1, -14 },
  { 0, 32, 1, -16 },
  { 6, 32, 1, -16 },
  { 10, 56, -16, 1 },
  { 15, 32, -8, 1 },
  { 27, 32, -8, -42 },
  { 0, 33, 1, 34 },
  { 0, 33, 1, 13 },
  { 0, 32, 1, 11 },
  { 18, 33, 1, 9 },
  { 17, 5, 1, 2 },
  { 25, 68, -43, -20 },
  { 17, 9, 1, 2 },
  { 4, 53, -22, -14 },
  { 1, 51, -21, 1 },
  { 17, 278, -14, 1 },
  { 20, 406, -14, 1 },
  { 7, 51, -14, -14 },
  { 2, 266, -8, -14 },
  { 24, 33, -19, -24 },
  { 0, 33, 1, 8 },
  { 23, 5, 1, 6 },
  { 20, 17, 1, -23 },
  { 22, 46, 1, 2 },
  { 19, 45, -22, -19 },
  { 16, 51, -22, 1 },
  { 24, 33, -22, -22 },
  { 3, 33, -25, -14 },
  { 6, 33, 1, 2 },
  { 9, 33, -19, -79 },
  { 5, 12, 1, 7 },
  { 28, 41, 1, 4 },
  { 14, 13, 1, 2 },
  { 26, 11, -19, -27 },
  { 27, 33, -27, -27 },
  { 14, 21, -29, 1 },
  { 25, 42, -27, -19 },
  { 5, 14, -32, 1 },
  { 12, 33, -26, 1 },
  { 1, 44, -28, -19 },
  { 0, 33, 1, 17 },
  { 14, 23, 1, -28 },
  { 13, 59, 1, 14 },
  { 6, 33, 1, 8 },
  { 29, 0, 1, 4 },
  { 17, 3, 1, -27 },
  { 20, 3, -28, 1 },
  { 23, 4, -27, -27 },
  { 23, 21, 1, -34 },
  { 3, 33, 1, -27 },
  { 10, 43, -27, -19 },
  { 13, 43, -26, 1 },
  { 29, 11, 1, -30 },
  { 21, 33, -30, 1 },
  { 2, 33, 1, -19 },
  { 12, 33, -27, -31 },
  { 0, 33, -32, -28 },
  { 0, 34, 1, -33 },
  { 0, 33, 1, 20 },
  { 6, 33, 1, 15 },
  { 24, 33, 1, 10 },
  { 9, 33, 1, 5 },
  { 29, 1, -32, 1 },
  { 26, 1, 1, 2 },
  { 12, 33, -28, -32 },
  { 15, 33, -30, -28 },
  { 7, 43, -27, 1 },
  { 12, 33, 1, -34 },
  { 17, 62, 1, -32 },
  { 17, 2, -28, -30 },
  { 14, 23, 1, -30 },
  { 2, 6, 1, -28 },
  { 26, 17, 1, -28 },
  { 17, 8, -36, -28 },
  { 2, 1, 1, -27 },
  { 29, 3, 1, -34 },
  { 23, 1, 1, -28 },
  { 18, 33, -28, -28 },
  { 28, 39, -27, 1 },
  { 3, 33, 1, 5 },
  { 6, 33, 1, -28 },
  { 26, 4, 1, 2 },
  { 23, 12, -32, -28 },
  { 17, 1, -28, -32 },
  { 24, 33, 1, 2 },
  { 20, 8, -32, -33 },
  { 29, 42, 1, -28 },
  { 14, 18, 1, 5 },
  { 29, 7, 1, 3 },
  { 28, 42, 1, -47 },
  { 22, 42, -32, -28 },
  { 24, 33, -28, -32 },
  { 14, 33, -28, -32 },
  { 0, 32, 1, 38 },
  { 0, 31, 1, 12 },
  { 0, 30, 1, 4 },
  { 29, 3, -56, 1 },
  { 29, 4, 1, -2 },
  { 16, 59, -3, -2 },
  { 13, 59, -4, 1 },
  { 13, 61, -5, 1 },
  { 0, 31, 1, 4 },
  { 3, 31, -5, 1 },
  { 29, 5, -83, 1 },
  { 24, 31, -3, -7 },
  { 24, 31, -3, -61 },
  { 0, 32, 1, 11 },
  { 7, 57, -8, 1 },
  { 29, 21, 1, -7 },
  { 29, 3, 1, 5 },
  { 23, 2, 1, 2 },
  { 15, 31, -9, -48 },
  { 23, 3, 1, -9 },
  { 15, 31, -4, -12 },
  { 16, 63, -40, 1 },
  { 19, 68, -4, 1 },
  { 23, 1, -4, -4 },
  { 0, 32, 1, 12 },
  { 21, 32, 1, 2 },
  { 10, 62, -8, -13 },
  { 11, 9, 1, 7 },
  { 6, 32, 1, -16 },
  { 14, 6, 1, -49 },
  { 19, 67, 1, -8 },
  { 20, 0, 1, 2 },
  { 1, 56, -8, -53 },
  { 23, 4, -8, -8 },
  { 28, 67, 1, -8 },
  { 19, 62, -8, -13 },
  { 21, 33, 1, -14 },
  { 16, 56, -20, -16 },
  { 0, 33, 1, 36 },
  { 0, 33, 1, 17 },
  { 19, 50, 1, 8 },
  { 9, 33, 1, 3 },
  { 5, 44, -24, 1 },
  { 5, 182, -14, -14 },
  { 4, 45, 1, 2 },
  { 26, 14, -23, -24 },
  { 2, 0, -19, 1 },
  { 23, 2, -22, -22 },
  { 3, 33, 1, 7 },
  { 22, 68, 1, 5 },
  { 17, 5, -44, 1 },
  { 17, 10, 1, 2 },
  { 25, 54, -14, -22 },
  { 10, 51, -14, -14 },
  { 26, 2, -14, -20 },
  { 20, 8, -22, -14 },
  { 23, 392, 1, -14 },
  { 20, 21, 1, 16 },
  { 2, 17, 1, 11 },
  { 9, 33, -22, 1 },
  { 19, 63, 1, -22 },
  { 14, 21, 1, 6 },
  { 6, 33, 1, 2 },
  { 20, 1, -22, -19 },
  { 20, 8, -29, 1 },
  { 28, 41, -27, 1 },
  { 17, 1, -19, -19 },
  { 1, 43, -27, 1 },
  { 24, 33, -19, -19 },
  { 26, 3, 1, 3 },
  { 28, 41, -27, 1 },
  { 2, 22, -22, -19 },
  { 12, 33, -32, -27 },
  { 4, 42, -28, -19 },
  { 0, 33, 1, 20 },
  { 6, 33, 1, 7 },
  { 27, 33, 1, 5 },
  { 11, 14, 1, -27 },
  { 23, 1, 1, 2 },
  { 10, 43, -28, -27 },
  { 11, 1, -28, -28 },
  { 2, 0, -27, -27 },
  { 13, 59, 1, 11 },
  { 8, 3, 1, 7 },
  { 29, 1, 1, 5 },
  { 27, 33, -34, 1 },
  { 5, 6, 1, 2 },
  { 26, 0, -27, -27 },
  { 21, 33, -27, -19 },
  { 17, 8, -26, -27 },
  { 29, 0, 1, 2 },
  { 26, 6, -28, -27 },
  { 25, 52, -27, -19 },
  { 0, 33, -32, -28 },
  { 0, 33, 1, 24 },
  { 21, 33, 1, 3 },
  { 5, 1, 1, -27 },
  { 25, 52, -30, -28 },
  { 14, 19, 1, 19 },
  { 24, 33, 1, 3 },
  { 6, 33, -32, 1 },
  { 10, 53, -30, -32 },
  { 9, 33, -27, 1 },
  { 17, 26, 1, 13 },
  { 6, 33, 1, 8 },
  { 11, 3, 1, 6 },
  { 5, 9, 1, -32 },
  { 20, 7, 1, 3 },
  { 25, 52, 1, -28 },
  { 15, 33, -28, -28 },
  { 26, 1, -28, -32 },
  { 26, 0, -28, -36 },
  { 5, 22, 1, -27 },
  { 29, 3, 1, -34 },
  { 14, 1, -46, 1 },
  { 11, 2, -28, -32 },
  { 11, 1, -28, -27 },
  { 6, 33, -30, -30 },
  { 28, 39, -27, 1 },
  { 29, 43, 1, -28 },
  { 14, 22, 1, 11 },
  { 3, 33, 1, 4 },
  { 14, 0, 1, -36 },
  { 4, 44, -32, 1 },
  { 21, 33, -28, -28 },
  { 29, 1, -50, 1 },
  { 25, 45, 1, -70 },
  { 8, 1, 1, 3 },
  { 5, 0, -32, 1 },
  { 5, 1, -28, -32 },
  { 15, 33, -32, -28 },
  { 27, 33, -28, -36 },
  { 0, 32, 1, 35 },
  { 0, 31, 1, 14 },
  { 0, 30, 1, 5 },
  { 29, 3, -1, 1 },
  { 2, 1, -76, 1 },
  { 2, 3, -3, 1 },
  { 13, 59, -2, -2 },
  { 16, 58, -4, 1 },
  { 28, 62, 1, 2 },
  { 2, 1, -3, -2 },
  { 25, 62, -5, 1 },
  { 3, 30, -5, 1 },
  { 0, 31, 1, 2 },
  { 15, 31, -3, -84 },
  { 17, 0, -3, -7 },
  { 3, 32, 1, 13 },
  { 1, 57, -8, 1 },
  { 0, 32, 1, -8 },
  { 29, 24, 1, 9 },
  { 29, 3, 1, 5 },
  { 27, 32, 1, 2 },
  { 12, 31, -4, -48 },
  { 29, 1, 1, -13 },
  { 12, 32, -4, -4 },
  { 10, 63, 1, 2 },
  { 29, 4, -40, -4 },
  { 19, 67, -4, -9 },
  { 28, 63, -4, -7 },
  { 6, 32, 1, -16 },
  { 11, 9, 1, 4 },
  { 10, 56, -16, 1 },
  { 0, 32, -15, 1 },
  { 19, 62, -8, -8 },
  { 17, 3, 1, -13 },
  { 19, 67, -8, -8 },
  { 0, 33, 1, 44 },
  { 0, 32, 1, 3 },
  { 28, 68, -54, 1 },
  { 14, 2, -20, -14 },
  { 0, 33, 1, 6 },
  { 13, 45, -24, 1 },
  { 10, 64, 1, -14 },
  { 5, 471, 1, -25 },
  { 11, 2, 1, -19 },
  { 2, 47, -22, -22 },
  { 0, 33, 1, 17 },
  { 15, 33, 1, 15 },
  { 25, 63, 1, 13 },
  { 6, 33, 1, 2 },
  { 15, 33, -19, -22 },
  { 5, 12, 1, 9 },
  { 3, 33, 1, 7 },
  { 26, 10, 1, 5 },
  { 2, 19, 1, 3 },
  { 14, 21, -19, 1 },
  { 19, 42, -27, -19 },
  { 5, 1, -26, -22 },
  { 16, 55, -19, -27 },
  { 16, 43, -19, -27 },
  { 5, 14, -32, -19 },
  { 11, 16, -22, -22 },
  { 24, 33, -28, -19 },
  { 14, 17, 1, 15 },
  { 11, 2, 1, 8 },
  { 23, 5, 1, 5 },
  { 18, 33, -19, 1 },
  { 2, 0, -27, 1 },
  { 19, 42, -27, 1 },
  { 21, 33, -27, -27 },
  { 6, 33, -28, 1 },
  { 28, 43, -34, -27 },
  { 26, 0, 1, 5 },
  { 20, 8, 1, 3 },
  { 15, 33, -27, 1 },
  { 14, 6, -85, -27 },
  { 25, 43, -27, -27 },
  { 11, 12, -27, -27 },
  { 18, 33, -27, 1 },
  { 15, 33, -28, -28 },
  { 0, 33, 1, 20 },
  { 26, 0, 1, 11 },
  { 17, 3, 1, 5 },
  { 5, 6, 1, 3 },
  { 3, 33, -32, 1 },
  { 24, 33, -28, -46 },
  { 11, 3, -32, -28 },
  { 25, 44, -28, 1 },
  { 14, 4, 1, 3 },
  { 11, 9, 1, -30 },
  { 19, 53, -27, -34 },
  { 6, 33, -28, -30 },
  { 23, 13, 1, 7 },
  { 14, 1, 1, 5 },
  { 6, 33, 1, 2 },
  { 15, 33, -30, -28 },
  { 29, 2, 1, -34 },
  { 20, 3, -27, -27 },
  { 23, 2, -28, -32 },
  { 22, 50, -27, -19 },
  { 0, 34, 1, 20 },
  { 25, 40, -27, 1 },
  { 17, 18, 1, 17 },
  { 20, 89, 1, -28 },
  { 29, 1, 1, 3 },
  { 15, 33, 1, -47 },
  { 8, 9, -28, -32 },
  { 8, 2, 1, 9 },
  { 18, 33, -28, 1 },
  { 28, 60, 1, 5 },
  { 2, 2, 1, 3 },
  { 16, 43, -32, 1 },
  { 19, 44, -36, -55 },
  { 20, 0, -28, -32 },
  { 20, 0, -32, 1 },
  { 14, 2, -28, -32 },
  { 16, 47, 1, 2 },
  { 23, 0, -28, -32 },
  { 2, 11, -32, -28 },
  { 20, 7, -36, -33 },
  { 25, 49, -33, -33 },
  { 0, 32, 1, 28 },
  { 0, 31, 1, 9 },
  { 0, 30, -80, 1 },
  { 16, 61, 1, 2 },
  { 12, 31, -2, -3 },
  { 0, 31, 1, 4 },
  { 0, 31, -5, 1 },
  { 13, 61, -5, 1 },
  { 28, 63, -3, -6 },
  { 27, 31, -3, -61 },
  { 0, 31, 1, 7 },
  { 27, 32, 1, 5 },
  { 23, 2, -4, 1 },
  { 23, 3, 1, 2 },
  { 17, 1, -4, -12 },
  { 20, 4, -4, -4 },
  { 18, 32, -4, -13 },
  { 11, 9, 1, 8 },
  { 6, 32, 1, 5 },
  { 0, 32, -15, 1 },
  { 9, 32, -8, 1 },
  { 7, 56, -8, 1 },
  { 15, 32, -8, -53 },
  { 17, 2, -16, 1 },
  { 2, 1, -16, -8 },
  { 11, 13, -41, 1 },
  { 24, 32, 1, -16 },
  { 11, 19, -8, -8 },
  { 0, 33, 1, 32 },
  { 0, 32, 1, 6 },
  { 3, 33, 1, 4 },
  { 20, 619, 1, -22 },
  { 25, 68, -43, 1 },
  { 14, 2, -20, -14 },
  { 16, 59, -14, -8 },
  { 6, 33, 1, 5 },
  { 4, 51, 1, 2 },
  { 15, 33, -14, -24 },
  { 17, 325, 1, -25 },
  { 10, 52, -19, -22 },
  { 11, 493, 1, -14 },
  { 15, 33, 1, 16 },
  { 6, 33, 1, 3 },
  { 18, 33, -19, 1 },
  { 23, 2, -22, -22 },
  { 2, 18, 1, 11 },
  { 4, 64, 1, -22 },
  { 0, 33, -22, 1 },
  { 8, 24, 1, 6 },
  { 14, 21, 1, 3 },
  { 3, 33, -29, 1 },
  { 26, 2, -26, -27 },
  { 22, 42, -27, 1 },
  { 19, 45, -19, -19 },
  { 26, 7, 1, -27 },
  { 18, 33, -19, -19 },
  { 2, 21, -32, -26 },
  { 24, 33, 1, 2 },
  { 25, 41, -19, -28 },
  { 11, 2, -19, -27 },
  { 0, 33, 1, 16 },
  { 1, 59, 1, 14 },
  { 17, 22, 1, -28 },
  { 14, 38, 1, -28 },
  { 18, 33, 1, 9 },
  { 6, 33, 1, 7 },
  { 5, 17, 1, -19 },
  { 17, 0, 1, 4 },
  { 5, 7, 1, -19 },
  { 3, 33, -19, 1 },
  { 26, 2, -27, -27 },
  { 12, 33, -27, -27 },
  { 5, 6, -19, -27 },
  { 15, 33, -28, 1 },
  { 18, 33, -27, -19 },
  { 26, 2, -28, -30 },
  { 0, 33, 1, 23 },
  { 2, 2, 1, 20 },
  { 20, 24, 1, -27 },
  { 13, 60, 1, 16 },
  { 28, 59, 1, 11 },
  { 3, 33, -27, 1 },
  { 24, 33, 1, 7 },
  { 5, 1, 1, 4 },
  { 28, 43, 1, 2 },
  { 19, 41, -28, -32 },
  { 21, 33, -30, -30 },
  { 16, 45, 1, -28 },
  { 27, 33, -27, -34 },
  { 11, 5, -35, 1 },
  { 26, 15, -32, -32 },
  { 5, 1, 1, 3 },
  { 14, 3, 1, -28 },
  { 26, 10, -34, -27 },
  { 13, 59, -30, -28 },
  { 15, 33, -36, 1 },
  { 8, 4, -30, -28 },
  { 4, 59, -32, 1 },
  { 14, 1, -28, -28 },
  { 28, 39, -27, 1 },
  { 0, 34, 1, 16 },
  { 20, 42, 1, 14 },
  { 20, 13, 1, 12 },
  { 14, 13, 1, 9 },
  { 5, 0, -86, 1 },
  { 25, 45, 1, 6 },
  { 17, 6, 1, -28 },
  { 29, 2, 1, 3 },
  { 8, 27, -55, 1 },
  { 7, 44, -32, -28 },
  { 2, 5, -28, -32 },
  { 5, 2, -36, -32 },
  { 2, 0, -32, 1 },
  { 14, 63, -46, -32 },
  { 21, 33, -33, -32 },
  { 17, 1, -28, -32 },
  { 6, 34, -33, -32 },
  { 0, 32, 1, 31 },
  { 0, 31, 1, 10 },
  { 0, 31, 1, 4 },
  { 0, 30, -56, 1 },
  { 14, 1, 1, -2 },
  { 17, 1, -3, -5 },
  { 27, 31, 1, 2 },
  { 13, 63, -5, -65 },
  { 18, 31, 1, -3 },
  { 20, 0, -7, 1 },
  { 23, 2, -61, -7 },
  { 0, 32, 1, 10 },
  { 7, 57, -8, 1 },
  { 3, 32, 1, -15 },
  { 23, 1, -58, 1 },
  { 23, 3, 1, 4 },
  { 1, 68, 1, -9 },
  { 29, 3, 1, -40 },
  { 28, 68, -4, -12 },
  { 7, 63, -9, 1 },
  { 23, 25, -4, -4 },
  { 11, 9, 1, 9 },
  { 18, 32, 1, 3 },
  { 18, 32, 1, -13 },
  { 16, 57, -8, -8 },
  { 20, 27, 1, -16 },
  { 9, 32, -8, 1 },
  { 7, 57, -8, 1 },
  { 6, 32, -8, 1 },
  { 1, 62, -8, -42 },
  { 20, 4, -8, -13 },
  { 0, 33, 1, 23 },
  { 0, 32, 1, 14 },
  { 0, 32, 1, 7 },
  { 23, 1, 1, 4 },
  { 10, 62, -8, 1 },
  { 21, 32, 1, -16 },
  { 29, 0, -16, -16 },
  { 9, 32, -16, 1 },
  { 1, 61, -20, -14 },
  { 21, 33, 1, -8 },
  { 25, 68, 1, 4 },
  { 7, 53, 1, -67 },
  { 22, 54, 1, -22 },
  { 25, 50, -14, -14 },
  { 14, 2, -20, -14 },
  { 6, 33, 1, 5 },
  { 3, 33, 1, 3 },
  { 18, 33, 1, -25 },
  { 16, 53, -19, -22 },
  { 22, 49, -24, -14 },
  { 4, 45, 1, 2 },
  { 2, 2, -23, -24 },
  { 18, 33, -19, -22 },
  { 0, 33, 1, 45 },
  { 0, 33, 1, 25 },
  { 5, 621, 1, -14 },
  { 4, 64, 1, 22 },
  { 18, 33, 1, 16 },
  { 8, 3, 1, 9 },
  { 6, 33, 1, 2 },
  { 28, 45, -22, -19 },
  { 15, 33, 1, 5 },
  { 2, 18, 1, 3 },
  { 11, 9, 1, -19 },
  { 1, 41, -19, -59 },
  { 2, 22, -22, -26 },
  { 4, 50, -19, -27 },
  { 2, 13, 1, 5 },
  { 3, 33, 1, -27 },
  { 26, 12, 1, 2 },
  { 13, 41, -19, -85 },
  { 1, 41, -27, -19 },
  { 2, 21, -32, -19 },
  { 20, 15, 1, -28 },
  { 20, 6, 1, -27 },
  { 29, 4, 1, 2 },
  { 9, 33, -19, -19 },
  { 19, 50, -27, -19 },
  { 2, 7, -22, -22 },
  { 19, 52, 1, 13 },
  { 0, 33, 1, 10 },
  { 28, 44, 1, 6 },
  { 5, 1, 1, -19 },
  { 29, 13, 1, -19 },
  { 23, 14, 1, -34 },
  { 6, 33, -27, 1 },
  { 25, 42, -27, -27 },
  { 26, 2, 1, 2 },
  { 27, 33, -27, -31 },
  { 12, 33, -27, -28 },
  { 2, 2, 1, -27 },
  { 5, 2, -30, -28 },
  { 23, 3, 1, 5 },
  { 20, 0, -27, 1 },
  { 17, 1, 1, -32 },
  { 5, 1, -28, 1 },
  { 20, 4, -28, -28 },
  { 6, 33, -19, -27 },
  { 0, 33, 1, 24 },
  { 26, 32, 1, 22 },
  { 5, 21, 1, 20 },
  { 26, 21, 1, -27 },
  { 5, 8, 1, 16 },
  { 2, 2, 1, 12 },
  { 8, 0, 1, 6 },
  { 21, 33, 1, 2 },
  { 28, 60, -28, -32 },
  { 5, 0, -27, 1 },
  { 1, 51, -28, 1 },
  { 10, 60, -30, -30 },
  { 9, 33, 1, 4 },
  { 1, 43, -28, 1 },
  { 15, 33, -30, 1 },
  { 24, 33, -34, -34 },
  { 23, 2, -28, -32 },
  { 11, 1, 1, 2 },
  { 21, 33, -28, -28 },
  { 16, 53, -32, -28 },
  { 14, 4, -32, 1 },
  { 27, 33, -28, -28 },
  { 12, 33, -27, -27 },
  { 6, 33, -32, -28 },
  { 3, 33, 1, 4 },
  { 6, 33, 1, 2 },
  { 8, 23, -32, -28 },
  { 14, 7, -28, -28 },
  { 29, 138, 1, -28 },
  { 14, 21, 1, 16 },
  { 29, 1, 1, 3 },
  { 17, 7, -75, 1 },
  { 27, 33, -28, -32 },
  { 2, 1, 1, 10 },
  { 25, 42, 1, 2 },
  { 18, 33, -32, -28 },
  { 8, 2, 1, 5 },
  { 22, 43, -32, 1 },
  { 8, 0, -55, 1 },
  { 17, 0, -32, 1 },
  { 9, 33, -32, -32 },
  { 8, 3, 1, -32 },
  { 13, 53, -28, -32 },
  { 2, 3, 1, -32 },
  { 8, 1, -28, -32 },
  { 16, 46, -28, 1 },
  { 16, 54, -32, -32 },
  { 6, 32, 1, 38 },
  { 0, 31, 1, 12 },
  { 0, 31, 1, 5 },
  { 0, 30, 1, 2 },
  { 3, 31, -80, -2 },
  { 9, 31, 1, -2 },
  { 8, 10, -3, -5 },
  { 1, 60, 1, 2 },
  { 3, 31, -4, -3 },
  { 0, 31, 1, 3 },
  { 20, 14, 1, -5 },
  { 15, 31, -3, -3 },
  { 27, 31, -3, -7 },
  { 0, 32, 1, 21 },
  { 7, 57, -8, 1 },
  { 3, 32, 1, -15 },
  { 26, 3, 1, 14 },
  { 27, 32, 1, 11 },
  { 23, 2, 1, 7 },
  { 16, 63, 1, 4 },
  { 10, 58, 1, 2 },
  { 6, 31, -4, -4 },
  { 7, 58, -4, -11 },
  { 22, 68, 1, -4 },
  { 27, 31, -4, -4 },
  { 17, 2, 1, 2 },
  { 15, 31, -4, -39 },
  { 23, 4, -12, -4 },
  { 26, 0, -13, 1 },
  { 12, 32, -4, -4 },
  { 26, 4, 1, 3 },
  { 4, 63, 1, -4 },
  { 23, 3, -40, -4 },
  { 20, 4, -9, -4 },
  { 22, 56, -20, 1 },
  { 3, 32, 1, 2 },
  { 6, 32, -8, -16 },
  { 11, 0, -16, -87 },
  { 0, 33, 1, 49 },
  { 0, 32, 1, 5 },
  { 3, 33, 1, -8 },
  { 9, 33, 1, -16 },
  { 25, 68, -43, 1 },
  { 13, 68, -20, -20 },
  { 6, 33, 1, 6 },
  { 21, 33, 1, 2 },
  { 8, 113, -22, -19 },
  { 23, 311, 1, -25 },
  { 29, 63, 1, -14 },
  { 11, 2, -24, -24 },
  { 0, 33, 1, 16 },
  { 11, 493, 1, -14 },
  { 0, 33, 1, 2 },
  { 17, 5, -19, -79 },
  { 2, 18, 1, 8 },
  { 21, 33, 1, 5 },
  { 4, 64, 1, 3 },
  { 9, 33, -29, 1 },
  { 8, 2, -19, -27 },
  { 4, 65, -22, -22 },
  { 23, 2, 1, -28 },
  { 29, 4, -19, -27 },
  { 5, 8, 1, -32 },
  { 12, 33, 1, -27 },
  { 5, 1, -26, 1 },
  { 19, 45, -22, -19 },
  { 4, 52, 1, 20 },
  { 29, 3, 1, 16 },
  { 17, 20, 1, -28 },
  { 24, 33, 1, 13 },
  { 19, 45, 1, 9 },
  { 5, 7, 1, 7 },
  { 8, 15, 1, -19 },
  { 3, 33, -34, 1 },
  { 27, 33, 1, 2 },
  { 20, 0, -27, -27 },
  { 23, 0, -27, 1 },
  { 2, 1, -27, -27 },
  { 7, 45, -19, -27 },
  { 23, 2, 1, 2 },
  { 18, 33, -27, -28 },
  { 12, 33, -27, -27 },
  { 28, 42, -28, -27 },
  { 18, 33, -26, 1 },
  { 21, 33, 1, -19 },
  { 23, 5, -27, -27 },
  { 23, 14, -30, -28 },
  { 0, 33, 1, 23 },
  { 22, 42, 1, 2 },
  { 26, 24, -27, -28 },
  { 0, 33, 1, 6 },
  { 29, 1, 1, 4 },
  { 6, 33, 1, -27 },
  { 14, 3, 1, -30 },
  { 27, 33, -28, -32 },
  { 22, 59, -19, -27 },
  { 28, 59, 1, 8 },
  { 17, 26, 1, -27 },
  { 23, 0, 1, 4 },
  { 6, 33, -34, 1 },
  { 21, 33, -32, 1 },
  { 8, 5, -28, -32 },
  { 23, 5, 1, -28 },
  { 3, 33, -28, -32 },
  { 15, 33, -32, 1 },
  { 18, 33, 1, 4 },
  { 13, 59, 1, 2 },
  { 20, 2, -34, -30 },
  { 10, 60, -28, -28 },
  { 27, 33, -34, -27 },
  { 0, 34, 1, 16 },
  { 28, 39, -27, 1 },
  { 29, 138, 1, -28 },
  { 20, 45, 1, 12 },
  { 28, 44, 1, 9 },
  { 17, 7, 1, 7 },
  { 7, 43, 1, 2 },
  { 22, 40, -32, -55 },
  { 25, 43, -28, 1 },
  { 29, 2, -55, 1 },
  { 11, 1, 1, -32 },
  { 26, 0, -28, -32 },
  { 10, 43, -28, -32 },
  { 29, 41, -69, 1 },
  { 29, 61, -28, -32 },
  { 18, 33, -28, -32 },
  { 1, 39, -33, -33 },
  { 3, 32, 1, 28 },
  { 0, 31, 1, 14 },
  { 0, 31, 1, 8 },
  { 8, 13, 1, 6 },
  { 0, 31, 1, 4 },
  { 29, 3, -64, 1 },
  { 11, 0, 1, -38 },
  { 10, 57, -2, -3 },
  { 5, 2, -2, -3 },
  { 25, 62, -2, -5 },
  { 27, 31, 1, 2 },
  { 6, 31, -3, -5 },
  { 0, 31, 1, 2 },
  { 4, 62, -3, -72 },
  { 6, 31, -7, -3 },
  { 6, 32, 1, 7 },
  { 7, 57, -8, 1 },
  { 29, 24, 1, 3 },
  { 15, 32, -11, 1 },
  { 9, 31, -41, -4 },
  { 11, 1, 1, -7 },
  { 25, 63, -4, -4 },
  { 0, 32, 1, 5 },
  { 20, 5, 1, 2 },
  { 10, 56, -16, -53 },
  { 17, 4, 1, -13 },
  { 29, 0, -15, -8 },
  { 28, 62, -20, -16 },
  { 0, 33, 1, 48 },
  { 0, 32, 1, 8 },
  { 18, 33, 1, -8 },
  { 28, 68, 1, 4 },
  { 17, 5, -14, 1 },
  { 17, 9, 1, -44 },
  { 5, 1, -22, -14 },
  { 2, 1, -20, 1 },
  { 17, 2, -20, -20 },
  { 0, 33, 1, 9 },
  { 2, 2, 1, 7 },
  { 6, 33, 1, 3 },
  { 28, 53, 1, -14 },
  { 27, 32, -25, -24 },
  { 17, 1, -14, 1 },
  { 21, 33, 1, -19 },
  { 29, 14, -23, -22 },
  { 23, 6, -22, -19 },
  { 0, 33, 1, 18 },
  { 2, 17, 1, 12 },
  { 16, 64, 1, -22 },
  { 14, 21, 1, 9 },
  { 9, 33, 1, 2 },
  { 7, 45, -19, -22 },
  { 25, 41, 1, 4 },
  { 20, 7, 1, -27 },
  { 20, 3, -26, 1 },
  { 8, 16, -19, -27 },
  { 21, 33, -26, 1 },
  { 4, 49, -27, -26 },
  { 10, 42, -27, -19 },
  { 2, 19, 1, 2 },
  { 2, 18, -27, -32 },
  { 28, 56, 1, -27 },
  { 2, 22, 1, -26 },
  { 16, 45, -22, -19 },
  { 13, 52, 1, -28 },
  { 6, 33, 1, 10 },
  { 29, 2, 1, 5 },
  { 20, 1, 1, -27 },
  { 22, 44, 1, 2 },
  { 15, 33, -34, -27 },
  { 12, 33, -28, -28 },
  { 27, 33, 1, 2 },
  { 8, 0, -27, -19 },
  { 3, 33, 1, -31 },
  { 17, 2, -19, -27 },
  { 28, 43, -19, -27 },
  { 0, 33, 1, 27 },
  { 26, 0, 1, 16 },
  { 2, 2, 1, 11 },
  { 5, 18, 1, -27 },
  { 14, 34, 1, -30 },
  { 18, 33, 1, 6 },
  { 17, 4, 1, -34 },
  { 29, 38, 1, -32 },
  { 24, 33, 1, 2 },
  { 6, 33, -28, -30 },
  { 22, 51, -28, -28 },
  { 24, 33, -32, 1 },
  { 5, 6, -28, -32 },
  { 4, 59, 1, 3 },
  { 2, 7, -32, 1 },
  { 19, 52, -28, -32 },
  { 19, 59, -28, -28 },
  { 5, 4, 1, 9 },
  { 3, 33, -27, 1 },
  { 17, 13, 1, -27 },
  { 11, 18, 1, -34 },
  { 11, 0, 1, 3 },
  { 15, 33, 1, -28 },
  { 5, 1, -30, -27 },
  { 9, 33, -32, 1 },
  { 8, 3, -28, -32 },
  { 18, 33, -27, -27 },
  { 1, 40, -33, 1 },
  { 14, 17, 1, 19 },
  { 3, 33, 1, 5 },
  { 20, 27, 1, 3 },
  { 2, 1, -32, 1 },
  { 28, 42, -28, -28 },
  { 8, 2, -28, -28 },
  { 29, 138, 1, -28 },
  { 29, 1, -50, 1 },
  { 28, 42, 1, 2 },
  { 18, 33, -32, -28 },
  { 28, 60, 1, 7 },
  { 28, 44, 1, 4 },
  { 11, 1, 1, 2 },
  { 2, 1, -32, -28 },
  { 21, 33, -32, -32 },
  { 14, 3, -32, 1 },
  { 22, 57, -32, -32 },
  { 20, 0, -32, 1 },
  { 26, 3, -28, -32 },
  { 8, 0, -28, 1 },
  { 8, 2, -32, -32 },
  { 0, 32, 1, 29 },
  { 0, 31, 1, 12 },
  { 0, 31, 1, 5 },
  { 29, 3, 1, 2 },
  { 19, 56, -2, -71 },
  { 11, 0, 1, -38 },
  { 8, 1, -2, -3 },
  { 7, 60, 1, 3 },
  { 6, 31, 1, -3 },
  { 2, 6, -4, -4 },
  { 0, 31, 1, 2 },
  { 10, 61, -5, -6 },
  { 3, 31, -7, -7 },
  { 3, 32, 1, 10 },
  { 7, 57, -8, 1 },
  { 29, 24, 1, 7 },
  { 23, 2, 1, 4 },
  { 15, 32, -62, 1 },
  { 12, 32, -13, 1 },
  { 9, 32, -4, -4 },
  { 23, 3, 1, -62 },
  { 17, 1, -4, -12 },
  { 5, 1, -4, -7 },
  { 0, 32, 1, 4 },
  { 10, 56, -16, 1 },
  { 0, 32, -15, 1 },
  { 19, 57, -8, -8 },
  { 22, 66, 1, -16 },
  { 3, 32, -14, -20 },
  { 0, 33, 1, 46 },
  { 0, 33, 1, 17 },
  { 0, 32, 1, 8 },
  { 19, 50, -22, 1 },
  { 18, 33, 1, -8 },
  { 19, 68, 1, 4 },
  { 17, 5, -14, 1 },
  { 17, 9, 1, -44 },
  { 26, 0, -22, -14 },
  { 14, 3, -20, -14 },
  { 2, 2, 1, 6 },
  { 3, 32, 1, 2 },
  { 28, 53, -25, -22 },
  { 7, 45, -23, 1 },
  { 28, 50, -24, 1 },
  { 26, 1, -14, -14 },
  { 7, 45, -24, 1 },
  { 23, 6, -79, -19 },
  { 5, 621, 1, -14 },
  { 0, 33, 1, 17 },
  { 15, 33, 1, 12 },
  { 8, 4, 1, 6 },
  { 4, 64, 1, -22 },
  { 2, 18, 1, 3 },
  { 6, 33, 1, -19 },
  { 18, 33, -19, -22 },
  { 2, 70, -22, -19 },
  { 8, 5, 1, 2 },
  { 20, 2, -32, -19 },
  { 1, 41, 1, 2 },
  { 8, 22, -19, -27 },
  { 25, 41, -19, -26 },
  { 6, 33, 1, -19 },
  { 24, 33, -28, 1 },
  { 17, 6, 1, -19 },
  { 20, 1, -27, -27 },
  { 3, 33, 1, 4 },
  { 29, 0, -28, 1 },
  { 13, 49, 1, -28 },
  { 23, 15, -27, -34 },
  { 26, 2, 1, 5 },
  { 19, 43, 1, 2 },
  { 20, 24, -26, -27 },
  { 20, 7, 1, -19 },
  { 2, 31, -27, -19 },
  { 18, 33, -27, -28 },
  { 0, 33, 1, 29 },
  { 12, 33, 1, 11 },
  { 5, 1, 1, 8 },
  { 12, 33, 1, -27 },
  { 26, 6, 1, 5 },
  { 16, 41, -27, 1 },
  { 21, 33, -30, 1 },
  { 18, 33, 1, -32 },
  { 28, 52, -28, -28 },
  { 21, 33, -28, -32 },
  { 3, 33, -28, 1 },
  { 8, 6, -27, -34 },
  { 6, 33, 1, 12 },
  { 14, 19, 1, -30 },
  { 5, 10, 1, 9 },
  { 26, 24, 1, -32 },
  { 27, 33, -32, 1 },
  { 11, 37, 1, -32 },
  { 24, 33, -30, 1 },
  { 1, 44, 1, -28 },
  { 29, 1, 1, 2 },
  { 5, 0, -28, -32 },
  { 16, 42, -28, -28 },
  { 20, 3, -32, -28 },
  { 11, 14, 1, 4 },
  { 0, 33, -27, 1 },
  { 5, 22, 1, -27 },
  { 13, 42, -28, -46 },
  { 15, 33, -34, -27 },
  { 0, 34, 1, 15 },
  { 28, 39, -27, 1 },
  { 17, 18, 1, 12 },
  { 29, 46, 1, 10 },
  { 26, 89, 1, 8 },
  { 11, 0, -50, 1 },
  { 11, 2, 1, -55 },
  { 16, 47, 1, 4 },
  { 8, 1, 1, -28 },
  { 10, 43, -32, 1 },
  { 29, 2, -32, -28 },
  { 14, 15, -36, -28 },
  { 7, 60, -32, -28 },
  { 5, 6, -28, -32 },
  { 21, 33, -33, -32 },
  { 20, 2, -32, -33 },
  { 0, 32, 1, 30 },
  { 9, 31, 1, 12 },
  { 0, 30, 1, 3 },
  { 11, 0, -2, 1 },
  { 2, 21, -71, -2 },
  { 0, 31, 1, -4 },
  { 0, 31, 1, 3 },
  { 20, 1, -2, 1 },
  { 23, 3, -3, -5 },
  { 0, 31, 1, 2 },
  { 13, 61, -5, -88 },
  { 24, 31, -3, 1 },
  { 24, 31, -7, -7 },
  { 3, 32, 1, 10 },
  { 0, 31, 1, 2 },
  { 7, 63, -4, -3 },
  { 29, 24, 1, 6 },
  { 17, 2, -48, 1 },
  { 5, 2, 1, 3 },
  { 28, 58, -4, 1 },
  { 9, 31, -4, -39 },
  { 28, 68, -4, -12 },
  { 26, 1, -7, -4 },
  { 3, 32, 1, 5 },
  { 20, 5, 1, 2 },
  { 10, 56, -16, -42 },
  { 17, 4, 1, -13 },
  { 0, 32, -15, -8 },
  { 17, 2, -16, 1 },
  { 2, 1, -16, -8 },
  { 0, 33, 1, 50 },
  { 0, 32, 1, 6 },
  { 28, 68, 1, 4 },
  { 17, 5, -21, 1 },
  { 17, 9, 1, -14 },
  { 4, 54, -22, -14 },
  { 5, 1, -20, -14 },
  { 18, 33, 1, 21 },
  { 17, 339, 1, -14 },
  { 10, 64, 1, -14 },
  { 0, 33, 1, 4 },
  { 23, 6, 1, 2 },
  { 7, 45, -23, -22 },
  { 1, 49, -19, -19 },
  { 0, 33, 1, 11 },
  { 2, 17, 1, 6 },
  { 4, 64, 1, -22 },
  { 6, 33, 1, 2 },
  { 25, 45, -22, -19 },
  { 14, 21, -29, 1 },
  { 19, 42, -27, -19 },
  { 2, 19, 1, 2 },
  { 22, 47, -27, -32 },
  { 2, 22, 1, -26 },
  { 28, 45, -22, -19 },
  { 6, 33, 1, 2 },
  { 2, 1, -34, -27 },
  { 12, 33, -19, -19 },
  { 14, 17, 1, 21 },
  { 20, 19, 1, -28 },
  { 16, 60, 1, -28 },
  { 21, 33, 1, 17 },
  { 18, 33, 1, -28 },
  { 7, 58, 1, 14 },
  { 5, 20, 1, -28 },
  { 24, 33, -19, 1 },
  { 8, 3, 1, 8 },
  { 21, 33, -19, 1 },
  { 5, 6, 1, 5 },
  { 3, 33, 1, 2 },
  { 23, 1, -27, -19 },
  { 20, 10, -31, 1 },
  { 13, 45, -27, -27 },
  { 23, 2, -19, -27 },
  { 6, 33, -28, 1 },
  { 28, 45, -27, 1 },
  { 20, 1, -28, -27 },
  { 12, 33, -26, -27 },
  { 18, 33, -27, -19 },
  { 3, 33, -28, -28 },
  { 0, 33, 1, 24 },
  { 0, 33, 1, 3 },
  { 6, 33, -28, 1 },
  { 17, 2, -27, -27 },
  { 10, 42, 1, 3 },
  { 3, 33, -36, 1 },
  { 8, 14, -27, -28 },
  { 17, 26, 1, 15 },
  { 11, 11, 1, 12 },
  { 19, 43, 1, 2 },
  { 17, 14, -32, -28 },
  { 15, 33, 1, 2 },
  { 14, 2, -30, -28 },
  { 25, 45, 1, 4 },
  { 5, 6, 1, 2 },
  { 26, 2, -28, -28 },
  { 15, 33, -28, -32 },
  { 11, 0, -28, 1 },
  { 12, 33, -32, 1 },
  { 1, 60, -28, -32 },
  { 22, 60, 1, -32 },
  { 22, 52, -30, -34 },
  { 7, 52, -27, 1 },
  { 22, 60, -28, -32 },
  { 3, 34, 1, -33 },
  { 28, 39, -27, 1 },
  { 3, 33, 1, 4 },
  { 26, 4, 1, 2 },
  { 10, 60, -32, -28 },
  { 18, 33, -28, -28 },
  { 18, 33, 1, 2 },
  { 14, 2, -33, -36 },
  { 29, 138, 1, -28 },
  { 29, 2, 1, 5 },
  { 14, 18, 1, 3 },
  { 5, 17, -75, 1 },
  { 24, 33, -28, -32 },
  { 7, 55, -32, -28 },
  { 23, 0, 1, 4 },
  { 5, 0, 1, 2 },
  { 22, 41, -32, -36 },
  { 14, 1, -28, -32 },
  { 8, 0, 1, 2 },
  { 21, 33, -32, -32 },
  { 6, 33, -32, -36 },
  { 0, 32, 1, 31 },
  { 0, 31, 1, 12 },
  { 0, 31, 1, 4 },
  { 0, 30, -64, 1 },
  { 5, 2, -2, 1 },
  { 23, 3, -3, -5 },
  { 13, 60, 1, 2 },
  { 26, 0, -4, -3 },
  { 13, 61, -5, 1 },
  { 24, 31, -6, 1 },
  { 29, 4, 1, -7 },
  { 12, 31, -3, 1 },
  { 8, 2, -3, -3 },
  { 0, 32, 1, 12 },
  { 7, 57, -8, 1 },
  { 23, 1, -58, 1 },
  { 20, 1, 1, 5 },
  { 20, 0, 1, -40 },
  { 17, 2, 1, 2 },
  { 15, 31, -4, -9 },
  { 17, 5, -12, -4 },
  { 2, 1, -9, 1 },
  { 17, 2, 1, 2 },
  { 13, 68, -4, -4 },
  { 24, 31, -4, -4 },
  { 1, 55, -20, 1 },
  { 6, 32, 1, 2 },
  { 1, 56, -16, -17 },
  { 0, 32, 1, 2 },
  { 16, 66, -16, -8 },
  { 20, 2, -16, -16 },
  { 0, 33, 1, 52 },
  { 6, 33, 1, 14 },
  { 19, 50, 1, 4 },
  { 2, 30, 1, 2 },
  { 26, 207, -24, -25 },
  { 18, 33, -19, -22 },
  { 29, 618, 1, 8 },
  { 17, 5, 1, 3 },
  { 19, 68, -43, 1 },
  { 28, 68, -14, -20 },
  { 17, 7, 1, 3 },
  { 7, 53, -22, 1 },
  { 10, 54, -14, -14 },
  { 7, 51, -21, -14 },
  { 10, 51, -14, -19 },
  { 24, 32, -14, 1 },
  { 10, 64, 1, -14 },
  { 18, 33, 1, 25 },
  { 11, 364, 1, -14 },
  { 0, 33, 1, 3 },
  { 17, 1, -19, 1 },
  { 1, 45, -23, -22 },
  { 0, 33, 1, 13 },
  { 8, 3, 1, 9 },
  { 25, 63, 1, -22 },
  { 9, 33, 1, 2 },
  { 23, 2, -19, -22 },
  { 14, 21, 1, 3 },
  { 2, 19, -26, 1 },
  { 2, 23, -22, -19 },
  { 25, 42, -27, 1 },
  { 25, 44, -19, -19 },
  { 5, 10, 1, 2 },
  { 9, 33, -59, -27 },
  { 24, 33, -19, -32 },
  { 26, 3, 1, 6 },
  { 6, 33, 1, 4 },
  { 5, 6, 1, -19 },
  { 8, 1, -27, 1 },
  { 3, 33, -19, -27 },
  { 13, 41, -19, -19 },
  { 20, 0, -27, -27 },
  { 9, 33, -28, 1 },
  { 25, 59, 1, 8 },
  { 5, 16, 1, -28 },
  { 14, 16, 1, 5 },
  { 0, 33, 1, 2 },
  { 20, 6, -26, -27 },
  { 22, 40, -19, 1 },
  { 23, 0, -27, -27 },
  { 14, 56, -28, -27 },
  { 19, 60, -30, -28 },
  { 0, 33, 1, 21 },
  { 26, 14, 1, -27 },
  { 5, 8, 1, 16 },
  { 23, 7, 1, 12 },
  { 14, 14, 1, 9 },
  { 8, 0, 1, 5 },
  { 20, 0, 1, 3 },
  { 14, 1, 1, -32 },
  { 11, 8, -28, -30 },
  { 2, 6, -32, -28 },
  { 24, 33, -34, 1 },
  { 14, 5, 1, -32 },
  { 9, 33, -32, -28 },
  { 11, 3, -27, 1 },
  { 13, 53, -28, -30 },
  { 23, 26, 1, -28 },
  { 20, 2, 1, -30 },
  { 5, 0, -27, -19 },
  { 23, 3, 1, 2 },
  { 2, 1, -28, -27 },
  { 11, 2, -32, -28 },
  { 28, 40, -27, 1 },
  { 0, 34, 1, 19 },
  { 26, 73, 1, 17 },
  { 29, 1, 1, 3 },
  { 5, 21, -69, 1 },
  { 1, 42, -28, -32 },
  { 23, 0, 1, 9 },
  { 11, 2, 1, -32 },
  { 11, 0, 1, 4 },
  { 22, 60, -32, 1 },
  { 29, 6, -32, 1 },
  { 2, 1, -28, -28 },
  { 29, 3, -28, 1 },
  { 8, 2, -32, 1 },
  { 17, 2, -28, -32 },
  { 8, 4, 1, 3 },
  { 16, 48, -32, 1 },
  { 13, 55, -32, -32 },
  { 26, 2, -32, -32 },
  { 25, 60, -32, -28 },
  { 22, 47, -32, -33 },
  { 0, 32, 1, 26 },
  { 0, 31, 1, 9 },
  { 0, 31, -76, 1 },
  { 13, 60, -4, 1 },
  { 0, 31, 1, 5 },
  { 18, 31, -5, 1 },
  { 21, 31, -65, 1 },
  { 15, 31, -7, 1 },
  { 12, 31, -3, -3 },
  { 5, 0, -61, -7 },
  { 0, 32, 1, 5 },
  { 7, 57, -8, 1 },
  { 29, 24, -89, 1 },
  { 11, 1, 1, -7 },
  { 26, 10, -4, -4 },
  { 3, 32, 1, 9 },
  { 21, 32, 1, 2 },
  { 25, 63, -8, -13 },
  { 10, 56, -16, 1 },
  { 11, 9, 1, 3 },
  { 15, 32, -8, 1 },
  { 27, 32, -8, -42 },
  { 20, 3, 1, -13 },
  { 26, 0, -8, -8 },
  { 4, 55, -20, 1 },
  { 17, 2, -16, -8 },
  { 0, 33, 1, 38 },
  { 0, 33, 1, 9 },
  { 0, 32, 1, 6 },
  { 3, 32, 1, 2 },
  { 29, 3, -20, -14 },
  { 17, 5, -14, 1 },
  { 17, 9, 1, -14 },
  { 1, 54, -22, -14 },
  { 23, 131, 1, -19 },
  { 29, 26, -24, -24 },
  { 0, 33, 1, 8 },
  { 6, 33, 1, 3 },
  { 22, 57, 1, -14 },
  { 3, 32, -25, -24 },
  { 11, 10, 1, -14 },
  { 9, 33, 1, 2 },
  { 19, 47, -19, -22 },
  { 18, 33, -23, -22 },
  { 15, 33, 1, 16 },
  { 6, 33, 1, 3 },
  { 15, 33, -19, 1 },
  { 3, 33, -22, -22 },
  { 4, 64, 1, -22 },
  { 2, 17, 1, 8 },
  { 3, 33, 1, 6 },
  { 8, 24, 1, 3 },
  { 14, 21, -29, 1 },
  { 19, 42, -27, -19 },
  { 26, 7, 1, -27 },
  { 14, 0, -19, -19 },
  { 26, 2, -19, -27 },
  { 2, 20, 1, 2 },
  { 13, 46, -27, -32 },
  { 2, 22, -22, -26 },
  { 20, 12, 1, -28 },
  { 27, 33, 1, 2 },
  { 18, 33, -19, -28 },
  { 18, 33, -27, -26 },
  { 0, 33, 1, 18 },
  { 16, 59, 1, 15 },
  { 20, 6, 1, 12 },
  { 6, 33, 1, 9 },
  { 22, 52, 1, 7 },
  { 2, 0, 1, 5 },
  { 20, 3, 1, -27 },
  { 29, 2, 1, 2 },
  { 11, 6, -28, -27 },
  { 7, 45, -27, -19 },
  { 23, 15, -27, -34 },
  { 2, 3, -28, -28 },
  { 7, 59, 1, -19 },
  { 26, 2, -27, -27 },
  { 20, 17, 1, -30 },
  { 28, 44, -19, -27 },
  { 8, 3, -32, 1 },
  { 19, 60, -28, -28 },
  { 0, 33, 1, 25 },
  { 26, 26, 1, -32 },
  { 11, 20, 1, 21 },
  { 5, 20, 1, -27 },
  { 26, 21, 1, -27 },
  { 1, 44, 1, 8 },
  { 1, 41, 1, 3 },
  { 3, 33, -27, 1 },
  { 23, 1, -28, -32 },
  { 28, 43, -32, 1 },
  { 5, 0, 1, 2 },
  { 20, 23, -28, -28 },
  { 3, 33, -32, -28 },
  { 20, 6, 1, 8 },
  { 17, 2, 1, 4 },
  { 3, 33, 1, 2 },
  { 7, 45, -28, -30 },
  { 5, 17, -46, -32 },
  { 11, 1, 1, 2 },
  { 20, 2, -28, -34 },
  { 17, 16, -34, -27 },
  { 12, 33, -32, 1 },
  { 19, 60, -28, -28 },
  { 25, 60, 1, -32 },
  { 9, 33, -34, -27 },
  { 1, 40, -33, 1 },
  { 28, 40, -27, 1 },
  { 26, 89, 1, -28 },
  { 9, 33, 1, 9 },
  { 2, 0, 1, 5 },
  { 26, 4, 1, -28 },
  { 22, 43, -32, 1 },
  { 23, 2, -36, 1 },
  { 24, 33, -32, -32 },
  { 23, 0, 1, -36 },
  { 26, 6, 1, -32 },
  { 7, 43, -28, -28 },
  { 29, 46, 1, 5 },
  { 5, 21, 1, 3 },
  { 14, 30, -69, 1 },
  { 1, 44, -28, -32 },
  { 17, 5, -32, -28 },
  { 5, 3, -28, 1 },
  { 8, 0, -32, -32 },
  { 6, 32, 1, 41 },
  { 0, 31, 1, 15 },
  { 0, 31, 1, 9 },
  { 0, 30, 1, 6 },
  { 25, 58, -71, 1 },
  { 4, 58, 1, -2 },
  { 23, 1, -2, 1 },
  { 16, 58, -2, 1 },
  { 2, 26, -2, -2 },
  { 5, 2, -2, 1 },
  { 3, 30, -5, -3 },
  { 1, 60, -4, 1 },
  { 27, 31, 1, 2 },
  { 9, 31, -5, -6 },
  { 15, 31, -90, 1 },
  { 23, 3, -3, -3 },
  { 0, 31, 1, 14 },
  { 29, 24, 1, -7 },
  { 7, 57, -8, 1 },
  { 29, 3, 1, 8 },
  { 27, 32, 1, -13 },
  { 4, 68, 1, 4 },
  { 24, 31, -4, 1 },
  { 0, 31, -4, 1 },
  { 9, 31, -4, -10 },
  { 1, 68, -12, 1 },
  { 7, 68, -4, -39 },
  { 28, 63, 1, 2 },
  { 26, 2, -4, -40 },
  { 13, 67, -4, -4 },
  { 0, 32, 1, -16 },
  { 18, 32, 1, 2 },
  { 18, 32, -8, -13 },
  { 20, 4, 1, 6 },
  { 10, 56, -16, 1 },
  { 19, 62, -8, 1 },
  { 9, 32, -8, 1 },
  { 16, 67, -42, 1 },
  { 13, 67, -8, -8 },
  { 20, 6, -13, 1 },
  { 0, 32, -15, -8 },
  { 0, 33, 1, 54 },
  { 0, 33, 1, 13 },
  { 0, 32, 1, 10 },
  { 0, 32, 1, 2 },
  { 3, 32, -14, -16 },
  { 14, 621, 1, -22 },
  { 25, 68, 1, 5 },
  { 5, 0, 1, -14 },
  { 17, 5, -21, 1 },
  { 14, 1, -22, 1 },
  { 20, 3, -14, -14 },
  { 19, 68, -14, -20 },
  { 15, 33, 1, -24 },
  { 28, 49, -22, -19 },
  { 18, 33, 1, 20 },
  { 0, 33, 1, 5 },
  { 10, 64, 1, -14 },
  { 23, 313, 1, -25 },
  { 7, 45, -23, 1 },
  { 11, 2, -22, -19 },
  { 20, 181, 1, -14 },
  { 2, 17, 1, 9 },
  { 6, 33, 1, 2 },
  { 3, 33, -22, -19 },
  { 0, 33, 1, 4 },
  { 14, 20, -45, 1 },
  { 7, 42, -27, 1 },
  { 27, 33, -26, -19 },
  { 2, 0, 1, -27 },
  { 10, 41, -19, -19 },
  { 17, 2, 1, 3 },
  { 2, 42, 1, -19 },
  { 2, 20, -19, -22 },
  { 17, 5, -32, -27 },
  { 20, 4, 1, 18 },
  { 0, 33, 1, 6 },
  { 5, 24, 1, 4 },
  { 11, 36, 1, 2 },
  { 14, 48, -26, -27 },
  { 28, 50, -19, -27 },
  { 14, 67, -28, -19 },
  { 14, 17, 1, -28 },
  { 28, 53, 1, -28 },
  { 8, 3, 1, 5 },
  { 13, 43, -19, 1 },
  { 26, 0, -27, 1 },
  { 17, 2, -27, 1 },
  { 27, 33, -27, -27 },
  { 28, 45, 1, -28 },
  { 14, 1, 1, 2 },
  { 10, 45, -27, -28 },
  { 23, 6, -27, -27 },
  { 9, 33, -28, 1 },
  { 4, 52, -27, -19 },
  { 0, 33, 1, 23 },
  { 3, 33, -27, 1 },
  { 14, 8, 1, 19 },
  { 5, 34, 1, -27 },
  { 2, 2, 1, 14 },
  { 7, 52, 1, 11 },
  { 11, 20, 1, -27 },
  { 22, 44, 1, 6 },
  { 26, 16, 1, 4 },
  { 11, 3, 1, -32 },
  { 12, 33, -32, 1 },
  { 9, 33, -28, -46 },
  { 26, 24, -27, -28 },
  { 17, 4, 1, 2 },
  { 24, 33, -30, -28 },
  { 12, 33, -34, -27 },
  { 20, 1, 1, -32 },
  { 5, 0, -28, -32 },
  { 2, 14, 1, 2 },
  { 29, 16, -36, -28 },
  { 22, 52, -28, -32 },
  { 26, 1, 1, -27 },
  { 23, 35, -30, -28 },
  { 1, 40, -33, 1 },
  { 28, 39, -27, 1 },
  { 17, 16, 1, 21 },
  { 3, 33, 1, 5 },
  { 6, 33, 1, 3 },
  { 27, 33, 1, -32 },
  { 11, 24, -28, -32 },
  { 21, 33, -28, -28 },
  { 29, 46, 1, 14 },
  { 14, 18, 1, 11 },
  { 17, 7, 1, 9 },
  { 29, 1, -86, 1 },
  { 11, 0, 1, 3 },
  { 5, 14, -55, 1 },
  { 28, 58, -32, -32 },
  { 5, 0, 1, 3 },
  { 8, 2, -32, 1 },
  { 19, 50, -28, -32 },
  { 5, 2, -28, -32 },
  { 1, 42, -28, -36 },
  { 8, 0, 1, -32 },
  { 16, 43, -28, -28 },
  { 16, 54, -32, -28 },
  { 27, 33, -33, -32 },
  { 0, 32, 1, 47 },
  { 0, 31, 1, 16 },
  { 0, 30, 1, 3 },
  { 29, 3, -64, 1 },
  { 2, 1, -56, -3 },
  { 0, 31, 1, 3 },
  { 5, 2, -2, 1 },
  { 28, 65, -3, -5 },
  { 6, 30, -4, 1 },
  { 22, 60, 1, 2 },
  { 6, 31, -4, -3 },
  { 0, 31, 1, 5 },
  { 28, 63, -5, 1 },
  { 27, 31, -83, 1 },
  { 18, 31, -7, 1 },
  { 8, 2, -3, -3 },
  { 23, 2, -61, -7 },
  { 0, 32, 1, 21 },
  { 7, 57, -8, 1 },
  { 29, 3, 1, 13 },
  { 17, 2, 1, 6 },
  { 20, 0, 1, 4 },
  { 21, 31, -4, 1 },
  { 15, 31, -4, 1 },
  { 18, 31, -4, -4 },
  { 24, 31, -4, -62 },
  { 17, 3, 1, 2 },
  { 25, 64, -4, -12 },
  { 28, 59, 1, 2 },
  { 19, 58, -4, -4 },
  { 13, 63, 1, -9 },
  { 20, 2, -4, -4 },
  { 26, 3, 1, 4 },
  { 29, 4, -4, 1 },
  { 8, 2, 1, -4 },
  { 29, 18, -4, -4 },
  { 13, 63, -40, 1 },
  { 5, 1, -4, -4 },
  { 3, 32, 1, 8 },
  { 18, 32, 1, 2 },
  { 22, 63, -8, -13 },
  { 11, 9, 1, 3 },
  { 10, 56, -16, 1 },
  { 27, 32, -8, -42 },
  { 17, 3, 1, -13 },
  { 21, 32, -8, -8 },
  { 1, 55, -20, -18 },
  { 0, 33, 1, 35 },
  { 0, 32, 1, 9 },
  { 21, 33, 1, -8 },
  { 18, 33, 1, -22 },
  { 28, 68, 1, 5 },
  { 17, 5, -54, 1 },
  { 17, 9, 1, 2 },
  { 7, 53, -22, -14 },
  { 25, 50, -14, -44 },
  { 2, 1, -14, -20 },
  { 0, 33, 1, 11 },
  { 10, 64, 1, -14 },
  { 1, 45, 1, 2 },
  { 29, 1, -23, -24 },
  { 23, 439, 1, -25 },
  { 11, 5, 1, 5 },
  { 20, 6, 1, 3 },
  { 5, 5, -22, 1 },
  { 22, 54, -22, -22 },
  { 6, 33, -22, -19 },
  { 3, 33, -19, -19 },
  { 15, 33, 1, 10 },
  { 16, 63, 1, -22 },
  { 28, 42, 1, 4 },
  { 8, 24, 1, -27 },
  { 14, 15, -26, 1 },
  { 10, 44, -27, -19 },
  { 3, 33, 1, 2 },
  { 15, 33, -19, -22 },
  { 2, 18, -29, 1 },
  { 1, 45, -22, -19 },
  { 20, 12, 1, -28 },
  { 8, 0, 1, -19 },
  { 24, 33, -28, 1 },
  { 18, 33, -27, -19 },
  { 0, 33, 1, 16 },
  { 16, 59, 1, 14 },
  { 18, 33, 1, 5 },
  { 26, 24, 1, -28 },
  { 25, 44, 1, 2 },
  { 9, 33, -27, -19 },
  { 13, 52, -27, -19 },
  { 11, 1, 1, 5 },
  { 14, 18, 1, -28 },
  { 5, 6, 1, -19 },
  { 26, 5, 1, -19 },
  { 17, 18, -27, -27 },
  { 11, 5, 1, 2 },
  { 8, 2, -30, -28 },
  { 26, 0, -27, -27 },
  { 17, 1, -28, -32 },
  { 0, 33, 1, 22 },
  { 24, 33, 1, 2 },
  { 5, 3, -27, -34 },
  { 11, 9, 1, 16 },
  { 3, 33, 1, 2 },
  { 14, 4, -32, -28 },
  { 24, 33, -27, 1 },
  { 17, 23, 1, 11 },
  { 5, 11, 1, 9 },
  { 19, 43, -32, 1 },
  { 8, 0, 1, 6 },
  { 26, 1, 1, -32 },
  { 17, 2, 1, 3 },
  { 19, 51, 1, -28 },
  { 2, 5, -28, -28 },
  { 13, 53, -32, -28 },
  { 1, 44, -28, -46 },
  { 11, 3, -32, -28 },
  { 16, 52, -27, -28 },
  { 15, 33, -32, 1 },
  { 11, 18, -30, 1 },
  { 12, 33, -34, -27 },
  { 0, 34, 1, 26 },
  { 28, 39, -27, 1 },
  { 3, 33, 1, 4 },
  { 5, 1, -36, 1 },
  { 26, 0, 1, -28 },
  { 10, 44, -28, -32 },
  { 29, 43, 1, 19 },
  { 28, 42, 1, 5 },
  { 7, 43, 1, -28 },
  { 17, 6, 1, -28 },
  { 8, 1, -36, 1 },
  { 26, 4, -32, -32 },
  { 14, 30, 1, 12 },
  { 29, 2, -75, 1 },
  { 25, 45, 1, 7 },
  { 8, 1, 1, 5 },
  { 11, 1, 1, 2 },
  { 11, 0, -32, -28 },
  { 2, 33, 1, -32 },
  { 12, 34, -32, -32 },
  { 22, 44, -32, -28 },
  { 25, 57, 1, 2 },
  { 25, 55, -36, -32 },
  { 12, 33, -32, -32 },
  { 2, 0, -32, -28 },
  { 23, 25, -28, -32 },
  { 5, 3, 1, -32 },
  { 16, 44, -33, -33 },
  { 0, 32, 1, 36 },
  { 0, 31, 1, 13 },
  { 0, 31, 1, 6 },
  { 29, 3, 1, 3 },
  { 0, 30, -80, 1 },
  { 1, 64, -5, -2 },
  { 2, 1, -2, 1 },
  { 10, 59, -3, -2 },
  { 4, 58, -4, 1 },
  { 27, 31, 1, 2 },
  { 25, 62, -5, -57 },
  { 8, 1, 1, 2 },
  { 24, 31, -7, -3 },
  { 18, 31, -7, -4 },
  { 3, 31, 1, 14 },
  { 4, 57, -8, 1 },
  { 29, 24, 1, -7 },
  { 29, 3, 1, 9 },
  { 23, 2, 1, 3 },
  { 27, 32, -58, 1 },
  { 17, 2, -4, -13 },
  { 16, 68, 1, 3 },
  { 1, 63, 1, -9 },
  { 26, 2, -4, -4 },
  { 17, 2, 1, -12 },
  { 23, 3, -4, -4 },
  { 26, 2, -9, 1 },
  { 26, 4, -40, -4 },
  { 9, 33, 1, -14 },
  { 3, 32, 1, 5 },
  { 20, 5, 1, 2 },
  { 10, 56, -16, -53 },
  { 20, 6, -13, 1 },
  { 0, 32, -15, -49 },
  { 2, 1, 1, -8 },
  { 24, 32, -16, -18 },
  { 0, 33, 1, 24 },
  { 0, 33, 1, 15 },
  { 19, 50, 1, 8 },
  { 9, 33, 1, 3 },
  { 17, 59, -24, 1 },
  { 22, 51, -14, -14 },
  { 4, 45, 1, 2 },
  { 20, 38, -23, -24 },
  { 11, 5, 1, -19 },
  { 10, 45, -22, -22 },
  { 6, 33, 1, 5 },
  { 25, 68, -82, 1 },
  { 14, 2, 1, -14 },
  { 29, 0, -20, 1 },
  { 23, 2, -20, -20 },
  { 19, 64, -14, -8 },
  { 12, 33, 1, 5 },
  { 6, 33, 1, 2 },
  { 15, 33, -19, -22 },
  { 2, 17, -45, 1 },
  { 14, 13, -19, -27 },
  { 20, 16, 1, -28 },
  { 12, 33, 1, -19 },
  { 5, 27, -27, -19 },
  { 0, 33, 1, 14 },
  { 29, 0, 1, 7 },
  { 20, 3, 1, 5 },
  { 9, 33, 1, 2 },
  { 14, 16, -46, -27 },
  { 26, 4, 1, -28 },
  { 18, 33, -19, -27 },
  { 28, 44, -19, -27 },
  { 2, 33, 1, -19 },
  { 3, 33, 1, 2 },
  { 10, 43, -27, -19 },
  { 17, 6, -27, 1 },
  { 18, 33, 1, -27 },
  { 26, 2, -27, -27 },
  { 0, 34, 1, 45 },
  { 0, 33, 1, 23 },
  { 21, 33, 1, 7 },
  { 29, 1, 1, 4 },
  { 5, 1, 1, 2 },
  { 4, 43, -32, -30 },
  { 22, 44, -27, -34 },
  { 13, 59, 1, -32 },
  { 22, 42, -28, -28 },
  { 11, 20, 1, 14 },
  { 17, 26, 1, 12 },
  { 25, 43, 1, 2 },
  { 5, 3, -32, -28 },
  { 5, 8, 1, 8 },
  { 27, 33, -32, 1 },
  { 11, 2, 1, 4 },
  { 20, 6, 1, 2 },
  { 3, 33, -28, -28 },
  { 13, 52, -28, -32 },
  { 9, 33, 1, -46 },
  { 25, 52, -28, -34 },
  { 11, 3, -32, -28 },
  { 11, 1, -28, -27 },
  { 18, 33, -34, -27 },
  { 28, 39, -27, 1 },
  { 17, 18, 1, 19 },
  { 29, 46, 1, 17 },
  { 20, 34, 1, -28 },
  { 9, 33, 1, 6 },
  { 2, 0, -32, 1 },
  { 23, 0, 1, 3 },
  { 26, 6, 1, -32 },
  { 25, 44, -28, -28 },
  { 16, 45, -32, -32 },
  { 28, 42, 1, 3 },
  { 22, 42, 1, -28 },
  { 24, 33, -32, -36 },
  { 29, 3, -50, 1 },
  { 8, 2, 1, 2 },
  { 16, 45, -36, -36 },
  { 8, 3, 1, 2 },
  { 25, 53, -28, -32 },
  { 1, 43, -32, -32 },
  { 23, 0, -28, -32 },
  { 7, 46, -33, -32 },
  { 8, 0, -33, -33 },
  { 0, 32, 1, 38 },
  { 0, 31, 1, 11 },
  { 0, 30, 1, 4 },
  { 29, 3, -71, 1 },
  { 2, 1, -2, 1 },
  { 23, 1, -3, -2 },
  { 0, 31, 1, 4 },
  { 15, 30, 1, 2 },
  { 23, 3, -3, -5 },
  { 25, 64, -2, -2 },
  { 27, 31, -73, 1 },
  { 2, 1, -7, -3 },
  { 0, 31, 1, 13 },
  { 7, 57, -8, 1 },
  { 29, 24, 1, 10 },
  { 21, 32, 1, 8 },
  { 23, 2, 1, 2 },
  { 12, 31, -4, -9 },
  { 23, 3, 1, 2 },
  { 13, 68, -4, -12 },
  { 23, 13, -4, 1 },
  { 2, 10, 1, -4 },
  { 17, 1, -4, -4 },
  { 29, 1, -4, -41 },
  { 14, 3, -4, -7 },
  { 11, 9, 1, 12 },
  { 22, 56, -20, 1 },
  { 6, 32, 1, -16 },
  { 0, 32, -15, 1 },
  { 21, 32, 1, 2 },
  { 28, 63, -8, -13 },
  { 3, 32, 1, -16 },
  { 14, 0, 1, 4 },
  { 27, 32, -8, 1 },
  { 17, 2, -53, 1 },
  { 29, 0, -8, -8 },
  { 22, 57, -8, -8 },
  { 28, 67, -13, -49 },
  { 0, 33, 1, 30 },
  { 0, 32, 1, 8 },
  { 18, 33, 1, 6 },
  { 17, 5, 1, 2 },
  { 22, 68, -14, -20 },
  { 17, 9, -22, 1 },
  { 20, 2, -14, 1 },
  { 14, 270, -14, -14 },
  { 28, 51, -14, -22 },
  { 23, 405, 1, -14 },
  { 0, 33, 1, 4 },
  { 20, 2, 1, -24 },
  { 26, 4, -22, 1 },
  { 21, 33, -19, -19 },
  { 15, 33, 1, 14 },
  { 5, 0, 1, 5 },
  { 6, 33, 1, 2 },
  { 18, 33, -19, -22 },
  { 22, 41, 1, -85 },
  { 8, 16, -26, -27 },
  { 2, 18, 1, 7 },
  { 9, 33, 1, 4 },
  { 13, 63, 1, -22 },
  { 14, 13, -59, 1 },
  { 1, 43, -27, -19 },
  { 7, 52, 1, -19 },
  { 3, 33, -27, -27 },
  { 9, 33, -19, -32 },
  { 7, 44, 1, -19 },
  { 11, 11, -28, -19 },
  { 0, 33, 1, 17 },
  { 6, 33, 1, 2 },
  { 21, 33, -28, -27 },
  { 29, 1, 1, 10 },
  { 16, 45, 1, 3 },
  { 5, 6, 1, -19 },
  { 28, 42, -34, -31 },
  { 21, 33, 1, 3 },
  { 18, 33, -28, 1 },
  { 21, 33, -30, -27 },
  { 26, 6, 1, 2 },
  { 6, 33, -28, -32 },
  { 17, 15, -27, -27 },
  { 8, 3, 1, 3 },
  { 26, 2, -19, 1 },
  { 1, 59, -27, -19 },
  { 25, 52, -27, -19 },
  { 0, 33, 1, 20 },
  { 15, 33, 1, 3 },
  { 10, 42, -27, 1 },
  { 27, 33, -30, -28 },
  { 11, 39, 1, 15 },
  { 5, 28, 1, -27 },
  { 11, 20, 1, -34 },
  { 3, 33, -32, 1 },
  { 24, 33, 1, 6 },
  { 11, 2, 1, 3 },
  { 18, 33, -32, 1 },
  { 18, 33, -28, -28 },
  { 5, 0, 1, -28 },
  { 11, 9, -34, -30 },
  { 26, 0, 1, 4 },
  { 19, 43, -32, 1 },
  { 2, 2, -28, 1 },
  { 16, 52, -32, -28 },
  { 26, 31, -32, -28 },
  { 15, 33, -32, -32 },
  { 0, 34, 1, -33 },
  { 17, 16, 1, 18 },
  { 29, 43, 1, 16 },
  { 14, 13, 1, 12 },
  { 5, 0, 1, 4 },
  { 10, 43, 1, -32 },
  { 15, 33, -32, 1 },
  { 21, 33, -32, -32 },
  { 17, 7, 1, 6 },
  { 29, 3, 1, 3 },
  { 3, 33, 1, -70 },
  { 1, 45, -28, -32 },
  { 5, 1, -28, 1 },
  { 28, 60, -32, -28 },
  { 11, 0, -28, -32 },
  { 2, 0, -32, 1 },
  { 2, 3, -28, 1 },
  { 8, 33, -32, -32 },
  { 17, 4, -28, -32 },
  { 18, 33, -33, -32 },
  { 6, 32, 1, 34 },
  { 0, 31, 1, 14 },
  { 0, 31, 1, 6 },
  { 8, 1, -56, 1 },
  { 2, 1, 1, 2 },
  { 11, 1, -2, -2 },
  { 2, 2, -3, 1 },
  { 25, 62, -2, -5 },
  { 19, 58, -4, 1 },
  { 10, 60, 1, 2 },
  { 29, 2, -4, -3 },
  { 10, 61, -5, 1 },
  { 27, 31, -65, 1 },
  { 18, 31, 1, -3 },
  { 29, 4, -7, -7 },
  { 0, 32, 1, 9 },
  { 4, 57, -8, 1 },
  { 23, 2, 1, 5 },
  { 24, 32, 1, 2 },
  { 4, 58, -4, -52 },
  { 26, 0, -13, 1 },
  { 18, 32, -4, -4 },
  { 23, 3, 1, -4 },
  { 10, 68, -4, -12 },
  { 22, 56, -20, 1 },
  { 6, 32, 1, -16 },
  { 10, 56, -16, 1 },
  { 17, 6, 1, 6 },
  { 1, 62, -8, 1 },
  { 29, 7, 1, 3 },
  { 5, 1, -53, 1 },
  { 8, 0, -8, -8 },
  { 2, 0, -8, -8 },
  { 20, 4, -8, -13 },
  { 0, 33, 1, 46 },
  { 0, 32, 1, 12 },
  { 19, 50, -22, 1 },
  { 18, 33, 1, 8 },
  { 0, 32, -16, 1 },
  { 25, 68, 1, 5 },
  { 17, 5, -67, 1 },
  { 17, 9, 1, -44 },
  { 4, 53, -22, 1 },
  { 8, 1, -14, -14 },
  { 9, 32, -14, -20 },
  { 11, 0, -14, 1 },
  { 17, 17, -16, -8 },
  { 14, 296, 1, -14 },
  { 28, 63, 1, 30 },
  { 3, 33, 1, 7 },
  { 9, 33, 1, 4 },
  { 4, 51, 1, 2 },
  { 25, 50, -24, -14 },
  { 22, 54, -19, -22 },
  { 20, 2, 1, -19 },
  { 8, 14, -22, -19 },
  { 15, 33, 1, 17 },
  { 0, 33, -22, 1 },
  { 8, 4, 1, 11 },
  { 22, 63, 1, -22 },
  { 2, 20, 1, 8 },
  { 2, 17, 1, 6 },
  { 6, 33, 1, 3 },
  { 14, 20, -59, 1 },
  { 16, 43, -27, -19 },
  { 26, 2, 1, -27 },
  { 17, 2, -19, -19 },
  { 16, 44, -27, -19 },
  { 2, 23, -22, -19 },
  { 2, 13, 1, 3 },
  { 26, 9, -19, 1 },
  { 8, 24, -19, -27 },
  { 1, 47, -19, -32 },
  { 6, 33, 1, -19 },
  { 14, 1, 1, 3 },
  { 11, 25, 1, -27 },
  { 10, 42, -28, -28 },
  { 29, 4, -19, -27 },
  { 5, 3, -22, 1 },
  { 29, 39, -14, -14 },
  { 0, 33, 1, 19 },
  { 13, 59, 1, 17 },
  { 5, 20, 1, -28 },
  { 23, 5, 1, 11 },
  { 26, 3, 1, 9 },
  { 29, 3, 1, 6 },
  { 5, 6, 1, 4 },
  { 11, 3, 1, 2 },
  { 2, 31, -31, -19 },
  { 4, 45, -27, -28 },
  { 7, 43, -19, -19 },
  { 8, 2, 1, -27 },
  { 11, 2, -19, -19 },
  { 0, 33, -27, -28 },
  { 9, 33, -28, 1 },
  { 23, 8, -30, 1 },
  { 12, 33, 1, -19 },
  { 28, 43, -34, -27 },
  { 2, 11, -28, -32 },
  { 0, 33, 1, 19 },
  { 15, 33, 1, 3 },
  { 3, 33, -32, 1 },
  { 10, 42, -27, -28 },
  { 15, 33, 1, 3 },
  { 8, 0, -36, 1 },
  { 17, 1, -28, -28 },
  { 11, 2, 1, 6 },
  { 5, 6, 1, -32 },
  { 6, 33, 1, -28 },
  { 8, 0, 1, 2 },
  { 10, 44, -28, -32 },
  { 4, 50, -28, -28 },
  { 17, 21, 1, -27 },
  { 5, 0, 1, 3 },
  { 9, 33, 1, -28 },
  { 18, 33, -30, -34 },
  { 2, 1, 1, -30 },
  { 1, 60, -28, -32 },
  { 1, 40, -33, 1 },
  { 28, 39, -27, 1 },
  { 14, 13, 1, 24 },
  { 29, 46, 1, 22 },
  { 3, 33, 1, 5 },
  { 14, 2, 1, 3 },
  { 21, 33, -28, 1 },
  { 24, 33, -32, -28 },
  { 10, 45, -32, -32 },
  { 29, 1, 1, 5 },
  { 1, 41, 1, 2 },
  { 17, 4, -32, -28 },
  { 8, 24, 1, -32 },
  { 15, 33, -32, -86 },
  { 23, 0, 1, 8 },
  { 24, 33, 1, 2 },
  { 16, 52, -32, -28 },
  { 8, 2, 1, 3 },
  { 2, 1, -32, 1 },
  { 16, 44, -28, -32 },
  { 1, 51, -28, 1 },
  { 17, 6, -32, -32 },
  { 26, 0, -32, 1 },
  { 1, 45, -36, 1 },
  { 5, 1, -32, -32 },
  { 5, 3, -28, -32 },
  { 9, 33, -28, -32 },
  { 0, 32, 1, 30 },
  { 0, 31, 1, 7 },
  { 0, 31, -56, 1 },
  { 27, 31, 1, 2 },
  { 25, 62, -5, -73 },
  { 29, 1, -4, 1 },
  { 18, 31, -7, 1 },
  { 5, 1, -3, -3 },
  { 0, 32, 1, 10 },
  { 7, 57, -8, 1 },
  { 3, 32, 1, -15 },
  { 29, 24, 1, 6 },
  { 15, 32, 1, 4 },
  { 26, 3, -10, 1 },
  { 28, 59, 1, -9 },
  { 23, 1, -4, -40 },
  { 14, 0, -13, -4 },
  { 14, 3, -4, -7 },
  { 0, 32, 1, 7 },
  { 18, 32, 1, 3 },
  { 1, 62, 1, -41 },
  { 7, 57, -8, -8 },
  { 12, 32, 1, -16 },
  { 4, 56, -16, 1 },
  { 6, 32, -8, -53 },
  { 25, 66, 1, 3 },
  { 19, 56, -16, 1 },
  { 22, 60, -20, -14 },
  { 12, 32, -87, 1 },
  { 3, 32, -16, -16 },
  { 0, 33, 1, 37 },
  { 0, 32, 1, 5 },
  { 3, 33, 1, 3 },
  { 28, 68, -54, 1 },
  { 12, 32, -20, -20 },
  { 17, 16, -14, -8 },
  { 0, 33, 1, 13 },
  { 20, 38, 1, 11 },
  { 9, 33, 1, 6 },
  { 3, 32, 1, 3 },
  { 23, 439, 1, -25 },
  { 2, 183, -22, -19 },
  { 13, 49, 1, -14 },
  { 5, 0, -24, -24 },
  { 11, 5, 1, -19 },
  { 14, 34, 1, -23 },
  { 18, 33, 1, -79 },
  { 27, 33, -19, -22 },
  { 27, 33, -24, -14 },
  { 5, 494, 1, -14 },
  { 15, 33, 1, 13 },
  { 2, 17, 1, 9 },
  { 6, 33, 1, 2 },
  { 18, 33, -19, -22 },
  { 4, 64, 1, -22 },
  { 8, 24, 1, 3 },
  { 3, 33, -45, 1 },
  { 26, 2, -19, -27 },
  { 26, 7, 1, -27 },
  { 18, 33, -19, -19 },
  { 2, 19, 1, 2 },
  { 19, 47, -27, -32 },
  { 13, 45, -22, -19 },
  { 20, 15, 1, -28 },
  { 6, 33, 1, -19 },
  { 24, 33, -28, 1 },
  { 21, 33, -27, -19 },
  { 0, 33, 1, 21 },
  { 13, 59, 1, 18 },
  { 14, 1, 1, 11 },
  { 12, 33, 1, 3 },
  { 20, 0, 1, -27 },
  { 24, 33, -28, -28 },
  { 19, 45, 1, 4 },
  { 9, 33, 1, 2 },
  { 10, 42, -34, -27 },
  { 23, 12, -19, -19 },
  { 8, 3, 1, 2 },
  { 23, 6, -27, -30 },
  { 22, 45, -28, -28 },
  { 14, 3, 1, 3 },
  { 5, 0, -27, 1 },
  { 20, 0, -27, -19 },
  { 0, 33, 1, -30 },
  { 14, 8, -68, 1 },
  { 15, 33, -27, -27 },
  { 14, 1, 1, -32 },
  { 5, 1, -28, -28 },
  { 0, 33, 1, 27 },
  { 5, 21, 1, 25 },
  { 27, 33, 1, 6 },
  { 3, 33, 1, 3 },
  { 12, 33, -32, 1 },
  { 19, 43, -28, -28 },
  { 12, 33, 1, -28 },
  { 25, 43, -27, -34 },
  { 9, 33, 1, 3 },
  { 11, 0, -28, 1 },
  { 21, 33, -32, -32 },
  { 17, 26, 1, 14 },
  { 14, 19, 1, 12 },
  { 24, 33, 1, 4 },
  { 17, 2, -28, 1 },
  { 1, 43, -28, 1 },
  { 28, 52, -30, -34 },
  { 20, 2, 1, -28 },
  { 5, 0, 1, 4 },
  { 28, 43, -32, 1 },
  { 23, 1, -28, 1 },
  { 23, 5, -28, -28 },
  { 5, 1, -32, 1 },
  { 2, 0, -28, -32 },
  { 19, 60, -30, -30 },
  { 11, 1, -28, -27 },
  { 4, 51, -27, -27 },
  { 0, 34, 1, 21 },
  { 17, 18, 1, 17 },
  { 28, 39, -27, 1 },
  { 29, 46, 1, 14 },
  { 20, 45, 1, 12 },
  { 9, 33, 1, 6 },
  { 14, 16, 1, -28 },
  { 5, 3, -36, 1 },
  { 12, 33, 1, -28 },
  { 20, 3, -32, 1 },
  { 26, 3, -32, -32 },
  { 5, 21, 1, 4 },
  { 29, 3, -50, 1 },
  { 5, 0, -32, 1 },
  { 23, 0, -28, -32 },
  { 13, 44, -28, -36 },
  { 29, 1, -28, -28 },
  { 7, 61, -28, -32 },
  { 23, 3, 1, -33 },
  { 19, 46, -32, 1 },
  { 17, 123, -32, -32 },
  { 7, 39, -32, 1 },
  { 29, 4, -33, -33 },
  { 0, 32, 1, 37 },
  { 0, 31, 1, 13 },
  { 0, 31, -2, 1 },
  { 4, 60, 1, 3 },
  { 0, 31, 1, -3 },
  { 12, 31, -4, -4 },
  { 16, 61, -2, 1 },
  { 0, 31, 1, 2 },
  { 11, 13, -2, -3 },
  { 25, 62, -5, 1 },
  { 27, 31, -83, 1 },
  { 15, 31, 1, -3 },
  { 26, 1, -7, 1 },
  { 5, 1, -7, -7 },
  { 0, 32, 1, 15 },
  { 29, 24, 1, 13 },
  { 7, 57, -8, 1 },
  { 26, 3, 1, 8 },
  { 12, 31, 1, 5 },
  { 13, 59, -9, 1 },
  { 4, 67, -4, 1 },
  { 28, 67, -4, 1 },
  { 18, 31, -4, -48 },
  { 12, 32, -13, 1 },
  { 9, 32, -4, -4 },
  { 26, 4, 1, -9 },
  { 22, 63, -40, 1 },
  { 2, 2, -4, -4 },
  { 19, 63, -4, -61 },
  { 6, 32, 1, -18 },
  { 21, 32, 1, 2 },
  { 26, 2, -13, -8 },
  { 10, 56, -16, 1 },
  { 20, 4, 1, 3 },
  { 14, 0, -53, 1 },
  { 1, 56, -8, -8 },
  { 20, 7, -13, -8 },
  { 0, 33, 1, 43 },
  { 0, 33, 1, 14 },
  { 16, 50, 1, 5 },
  { 9, 33, 1, 2 },
  { 7, 49, -24, -14 },
  { 6, 33, 1, -24 },
  { 10, 47, -22, -22 },
  { 24, 33, 1, 7 },
  { 19, 68, 1, 5 },
  { 17, 5, -44, 1 },
  { 17, 17, 1, 2 },
  { 20, 1, -14, -22 },
  { 14, 1, -14, -14 },
  { 7, 68, -20, -14 },
  { 29, 310, -8, -14 },
  { 0, 33, 1, 5 },
  { 10, 50, 1, 3 },
  { 14, 3, -19, 1 },
  { 14, 34, -22, -23 },
  { 3, 33, -22, -14 },
  { 23, 392, 1, -14 },
  { 15, 33, 1, 17 },
  { 2, 18, 1, 13 },
  { 4, 64, 1, -22 },
  { 20, 2, 1, 3 },
  { 6, 33, 1, -29 },
  { 29, 3, -22, -19 },
  { 14, 14, 1, -27 },
  { 8, 22, 1, -27 },
  { 21, 33, 1, -27 },
  { 29, 5, 1, 4 },
  { 27, 33, -19, 1 },
  { 26, 1, -85, 1 },
  { 22, 44, -19, -85 },
  { 17, 1, -19, -19 },
  { 2, 19, -32, 1 },
  { 5, 1, -19, 1 },
  { 26, 1, -22, -19 },
  { 23, 2, 1, -28 },
  { 18, 33, 1, -19 },
  { 15, 33, 1, -28 },
  { 12, 33, 1, -19 },
  { 7, 49, -27, -27 },
  { 0, 33, 1, 17 },
  { 16, 59, 1, 15 },
  { 14, 38, 1, -28 },
  { 29, 0, 1, 5 },
  { 8, 0, 1, 3 },
  { 0, 33, 1, -28 },
  { 17, 13, -27, -19 },
  { 20, 3, -28, -27 },
  { 29, 17, 1, 7 },
  { 6, 33, 1, 5 },
  { 23, 18, 1, -34 },
  { 3, 33, 1, 2 },
  { 19, 43, -27, -19 },
  { 1, 43, -27, -27 },
  { 22, 59, -26, -27 },
  { 27, 33, -27, -30 },
  { 3, 33, -32, -28 },
  { 0, 33, 1, 17 },
  { 6, 33, 1, 2 },
  { 12, 33, -27, -32 },
  { 26, 26, 1, 13 },
  { 26, 13, 1, -27 },
  { 8, 0, 1, 10 },
  { 26, 0, 1, 8 },
  { 1, 58, 1, 4 },
  { 15, 33, -28, 1 },
  { 9, 33, -32, 1 },
  { 25, 43, -32, -28 },
  { 29, 5, 1, 2 },
  { 21, 33, -34, -30 },
  { 17, 60, -28, -32 },
  { 27, 33, -28, -36 },
  { 11, 20, -28, -34 },
  { 23, 7, -32, -28 },
  { 28, 40, -27, 1 },
  { 14, 17, 1, 16 },
  { 3, 33, 1, 6 },
  { 12, 33, 1, 4 },
  { 14, 2, 1, -32 },
  { 29, 2, -32, 1 },
  { 10, 50, -28, -28 },
  { 25, 52, -28, -28 },
  { 29, 138, 1, -28 },
  { 25, 42, 1, 4 },
  { 19, 42, 1, -28 },
  { 17, 7, 1, -28 },
  { 27, 33, -32, -36 },
  { 28, 44, 1, -50 },
  { 2, 2, -55, 1 },
  { 2, 4, 1, -32 },
  { 4, 45, -28, -32 },
  { 8, 2, -35, -32 },
  { 0, 32, 1, 31 },
  { 0, 31, 1, 12 },
  { 0, 30, 1, 6 },
  { 29, 3, -64, 1 },
  { 11, 0, 1, 3 },
  { 2, 1, 1, -3 },
  { 22, 58, -2, -2 },
  { 22, 59, -2, -2 },
  { 22, 58, -4, 1 },
  { 24, 31, 1, 2 },
  { 26, 1, -5, -3 },
  { 24, 31, -6, 1 },
  { 15, 31, -7, -3 },
  { 0, 32, 1, 11 },
  { 7, 57, -8, 1 },
  { 3, 32, 1, -15 },
  { 23, 1, -58, 1 },
  { 20, 1, 1, 3 },
  { 20, 0, 1, -40 },
  { 17, 2, -39, -12 },
  { 13, 67, -4, 1 },
  { 11, 1, 1, -4 },
  { 25, 68, -4, 1 },
  { 29, 6, -4, -4 },
  { 27, 33, 1, -14 },
  { 0, 32, 1, 4 },
  { 10, 56, -16, 1 },
  { 18, 32, 1, -49 },
  { 15, 32, -8, -13 },
  { 2, 3, 1, -20 },
  { 5, 0, -87, -16 },
  { 0, 33, 1, 36 },
  { 0, 33, 1, 6 },
  { 20, 615, 1, -22 },
  { 25, 68, 1, 3 },
  { 17, 5, -43, 1 },
  { 17, 9, -22, -14 },
  { 29, 3, -20, -14 },
  { 6, 33, 1, 5 },
  { 18, 33, 1, 2 },
  { 20, 3, -19, -22 },
  { 26, 24, -14, 1 },
  { 8, 2, -25, -24 },
  { 17, 339, 1, -14 },
  { 15, 33, 1, 18 },
  { 0, 33, 1, 3 },
  { 17, 1, -19, 1 },
  { 4, 45, -23, -22 },
  { 6, 33, 1, 3 },
  { 18, 33, -19, 1 },
  { 16, 45, -22, -22 },
  { 8, 4, 1, 8 },
  { 3, 33, 1, 6 },
  { 14, 16, 1, 3 },
  { 2, 19, -19, 1 },
  { 2, 22, -22, -19 },
  { 13, 43, 1, -26 },
  { 23, 1, -27, -19 },
  { 1, 44, -19, -27 },
  { 17, 3, 1, -32 },
  { 26, 8, 1, -27 },
  { 3, 33, -19, -19 },
  { 28, 41, 1, 3 },
  { 18, 33, 1, -19 },
  { 6, 33, -27, -19 },
  { 5, 3, 1, -28 },
  { 20, 3, -27, -19 },
  { 0, 33, 1, 17 },
  { 29, 0, 1, 13 },
  { 6, 33, 1, 6 },
  { 26, 6, 1, 4 },
  { 14, 16, 1, -27 },
  { 20, 3, 1, -27 },
  { 8, 0, -28, -28 },
  { 27, 33, -27, -27 },
  { 22, 60, 1, -28 },
  { 14, 3, 1, 3 },
  { 23, 14, 1, -19 },
  { 17, 13, -27, -27 },
  { 11, 2, 1, -27 },
  { 7, 43, -28, -30 },
  { 5, 19, 1, -28 },
  { 6, 33, -27, 1 },
  { 22, 59, -19, -27 },
  { 0, 33, 1, 23 },
  { 24, 33, 1, 2 },
  { 4, 44, -27, -34 },
  { 11, 20, 1, 19 },
  { 5, 34, 1, -27 },
  { 3, 33, 1, 2 },
  { 19, 41, -27, -32 },
  { 21, 33, 1, 3 },
  { 16, 44, -27, 1 },
  { 14, 2, -30, -28 },
  { 28, 59, 1, 10 },
  { 6, 33, 1, 6 },
  { 20, 4, 1, -28 },
  { 2, 9, 1, -28 },
  { 23, 6, 1, -28 },
  { 3, 33, -32, 1 },
  { 27, 33, -32, -32 },
  { 14, 1, -28, 1 },
  { 4, 44, -32, 1 },
  { 12, 33, -28, -28 },
  { 22, 60, 1, -35 },
  { 3, 33, -34, -30 },
  { 2, 1, -34, -27 },
  { 0, 34, 1, 17 },
  { 28, 39, -27, 1 },
  { 20, 42, 1, 13 },
  { 14, 30, 1, 11 },
  { 29, 42, 1, 9 },
  { 3, 33, 1, 4 },
  { 6, 33, 1, -28 },
  { 13, 42, -32, 1 },
  { 9, 33, -32, -32 },
  { 14, 16, 1, 3 },
  { 1, 41, 1, -37 },
  { 17, 6, -36, -28 },
  { 8, 0, -28, -36 },
  { 4, 61, -28, -32 },
  { 4, 52, -28, -32 },
  { 15, 33, 1, -32 },
  { 1, 59, -28, -28 },
  { 13, 42, -32, -33 },
  { 0, 32, 1, 47 },
  { 0, 31, 1, 21 },
  { 0, 31, 1, 12 },
  { 0, 30, 1, 8 },
  { 29, 3, 1, 5 },
  { 2, 1, -56, 1 },
  { 9, 30, -2, 1 },
  { 29, 1, 1, -2 },
  { 8, 7, -38, -2 },
  { 11, 0, 1, -38 },
  { 5, 1, -3, -2 },
  { 9, 31, 1, 2 },
  { 22, 63, -3, -5 },
  { 4, 64, -2, -2 },
  { 24, 31, 1, 4 },
  { 25, 62, -5, 1 },
  { 12, 31, -72, 1 },
  { 23, 1, -3, -3 },
  { 26, 0, -4, 1 },
  { 18, 31, 1, 2 },
  { 26, 3, -7, -7 },
  { 23, 0, -3, -3 },
  { 0, 31, 1, 12 },
  { 4, 57, -8, 1 },
  { 28, 68, 1, 6 },
  { 18, 31, 1, 3 },
  { 5, 1, 1, -11 },
  { 27, 31, -4, -4 },
  { 22, 59, -39, 1 },
  { 16, 59, -4, -11 },
  { 1, 68, 1, 2 },
  { 19, 68, -4, -12 },
  { 23, 5, -39, 1 },
  { 29, 4, -4, -4 },
